{"learner":{"attributes":{},"feature_names":["carat","depth","table","x","y","z","cut_good","cut_ideal","cut_premium","cut_very_good","color_e","color_f","color_g","color_h","color_i","color_j","clarity_if","clarity_si1","clarity_si2","clarity_vs1","clarity_vs2","clarity_vvs1","clarity_vvs2"],"feature_types":["float","float","float","float","float","float","i","i","i","i","i","i","i","i","i","i","i","i","i","i","i","i","i"],"gradient_booster":{"model":{"gbtree_model_param":{"num_parallel_tree":"1","num_trees":"100"},"iteration_indptr":[0,1,2,3,4,5,6,7,8,9,10,11,12,13,14,15,16,17,18,19,20,21,22,23,24,25,26,27,28,29,30,31,32,33,34,35,36,37,38,39,40,41,42,43,44,45,46,47,48,49,50,51,52,53,54,55,56,57,58,59,60,61,62,63,64,65,66,67,68,69,70,71,72,73,74,75,76,77,78,79,80,81,82,83,84,85,86,87,88,89,90,91,92,93,94,95,96,97,98,99,100],"tree_info":[0,0,0,0,0,0,0,0,0,0,0,0,0,0,0,0,0,0,0,0,0,0,0,0,0,0,0,0,0,0,0,0,0,0,0,0,0,0,0,0,0,0,0,0,0,0,0,0,0,0,0,0,0,0,0,0,0,0,0,0,0,0,0,0,0,0,0,0,0,0,0,0,0,0,0,0,0,0,0,0,0,0,0,0,0,0,0,0,0,0,0,0,0,0,0,0,0,0,0,0],"trees":[{"base_weights":[1.2726922E-7,-7.920584E-1,1.449256E0,-9.919251E-1,-3.0089772E-1,7.650283E-1,2.8961077E0,-1.0833563E0,-7.7346474E-1,-4.2021576E-1,-6.3319545E-4,9.451305E-1,2.5504598E-1,2.4237583E0,3.7803118E0,-1.1126264E-1,-1.0198126E-1,-7.9342455E-1,-6.1546785E-1,-5.1789975E-1,-3.6596286E-1,5.8623932E-2,-1.3867898E-1,1.1915636E0,5.068188E-1,1.3266815E-1,5.9862083E-1,2.6249573E0,1.6892877E0,3.7941654E0,1.1662644E-1,-8.087136E-1,-5.890656E-1,-6.450149E-2,-5.237716E-2,-5.301103E-1,-2.7749613E-1,-3.3070838E-1,-5.1401114E-1,8.194902E-2,-2.7495673E-1,-2.3521651E-1,-9.9297374E-2,1.000452E0,1.5684605E0,3.7577352E-1,8.9807343E-1,3.391576E-3,1.7252518E-1,5.1424795E-1,1.0006294E0,2.788166E0,1.463192E0,1.4986875E0,2.209486E-1,3.8966724E-1,3.3322835E-1,-8.185076E-2,-5.2714795E-2,-6.0696095E-2,-3.2166086E-2,-5.3534146E-2,-1.45088835E-2,-3.1107679E-2,-5.1140557E-3,-3.1100988E-2,-6.2363084E-2,-5.477037E-2,-4.210636E-2,1.186512E-2,-1.6388351E-2,-2.8910164E-2,-1.0607983E-2,-3.0345965E-2,-1.965642E-2,-1.748304E-2,-6.4363503E-3,9.478786E-2,2.3621924E-1,1.688513E-1,5.5466898E-2,3.9195277E-2,3.6583513E-3,7.834267E-2,1.5505807E-1,-2.0233389E-2,2.2484977E-3,1.2370745E-2,2.3747753E-2,5.4599147E-2,2.0326404E-2,1.0453942E-1,3.9461385E-2,2.9762027E-1,2.0863357E-1,6.680642E-2,1.4831491E-1,1.5423052E-1,7.240729E-2],"categories":[],"categories_nodes":[],"categories_segments":[],"categories_sizes":[],"default_left":[0,0,0,0,0,0,0,0,0,0,0,0,0,0,1,0,0,0,0,0,0,0,0,0,0,0,0,0,0,0,0,0,0,0,0,0,0,0,0,0,0,0,0,0,0,0,0,0,0,0,0,0,0,0,0,0,0,0,0,0,0,0,0,0,0,0,0,0,0,0,0,0,0,0,0,0,0,0,0,0,0,0,0,0,0,0,0,0,0,0,0,0,0,0,0,0,0,0,0],"id":0,"left_children":[1,3,5,7,9,11,13,15,17,19,21,23,25,27,29,-1,-1,31,33,35,37,39,41,43,45,47,49,51,53,55,-1,57,59,-1,-1,61,63,65,67,69,71,73,75,77,79,81,83,85,87,89,91,93,95,97,-1,-1,-1,-1,-1,-1,-1,-1,-1,-1,-1,-1,-1,-1,-1,-1,-1,-1,-1,-1,-1,-1,-1,-1,-1,-1,-1,-1,-1,-1,-1,-1,-1,-1,-1,-1,-1,-1,-1,-1,-1,-1,-1,-1,-1],"loss_changes":[9.721557E3,5.3727734E2,2.9606543E3,7.689795E1,5.6796616E1,1.8651575E2,3.920205E2,3.963623E0,3.1437988E0,5.8228455E0,3.7041163E0,1.6166345E2,2.2290436E1,8.849902E1,7.6220703E0,0E0,0E0,2.7077637E0,2.4238586E-2,1.0349731E0,3.6547623E0,2.4876919E0,4.9367046E-1,6.7642456E1,2.7472168E1,2.0273933E0,4.2153397E0,8.9180176E1,1.0374908E1,2.6621094E0,0E0,2.1758423E0,1.6184044E-1,0E0,0E0,6.919632E-1,1.479969E-1,3.2373428E0,2.0510101E-1,2.6981685E0,1.9341469E-2,4.236102E-2,2.4818611E-1,4.3604065E1,3.81969E1,2.224842E0,8.911781E0,3.7287778E-1,9.2445374E-1,1.0471287E0,2.1502495E-1,5.0558838E1,3.9520264E-3,2.4014893E0,0E0,0E0,0E0,0E0,0E0,0E0,0E0,0E0,0E0,0E0,0E0,0E0,0E0,0E0,0E0,0E0,0E0,0E0,0E0,0E0,0E0,0E0,0E0,0E0,0E0,0E0,0E0,0E0,0E0,0E0,0E0,0E0,0E0,0E0,0E0,0E0,0E0,0E0,0E0,0E0,0E0,0E0,0E0,0E0,0E0],"parents":[2147483647,0,0,1,1,2,2,3,3,4,4,5,5,6,6,7,7,8,8,9,9,10,10,11,11,12,12,13,13,14,14,17,17,18,18,19,19,20,20,21,21,22,22,23,23,24,24,25,25,26,26,27,27,28,28,29,29,31,31,32,32,35,35,36,36,37,37,38,38,39,39,40,40,41,41,42,42,43,43,44,44,45,45,46,46,47,47,48,48,49,49,50,50,51,51,52,52,53,53],"right_children":[2,4,6,8,10,12,14,16,18,20,22,24,26,28,30,-1,-1,32,34,36,38,40,42,44,46,48,50,52,54,56,-1,58,60,-1,-1,62,64,66,68,70,72,74,76,78,80,82,84,86,88,90,92,94,96,98,-1,-1,-1,-1,-1,-1,-1,-1,-1,-1,-1,-1,-1,-1,-1,-1,-1,-1,-1,-1,-1,-1,-1,-1,-1,-1,-1,-1,-1,-1,-1,-1,-1,-1,-1,-1,-1,-1,-1,-1,-1,-1,-1,-1,-1],"split_conditions":[1E0,6.3E-1,7.21E0,4.98E0,8.6E-1,1E0,7.88E0,4.63E0,1E0,5.73E0,1E0,1E0,1.2E0,1E0,6.63E1,-1.1126264E-1,-1.0198126E-1,1E0,5.32E0,1E0,1E0,1E0,6.14E0,6.76E0,1.2E0,6.39E0,1.37E0,1E0,1.67E0,1E0,1.1662644E-1,1E0,6E-1,-6.450149E-2,-5.237716E-2,1E0,1E0,1E0,7.9E-1,1E0,6.33E0,6.04E0,3.8E0,1E0,1E0,1E0,1.37E0,6.19E0,1.07E0,1E0,1E0,1E0,4.39E0,1E0,2.209486E-1,3.8966724E-1,3.3322835E-1,-8.185076E-2,-5.2714795E-2,-6.0696095E-2,-3.2166086E-2,-5.3534146E-2,-1.45088835E-2,-3.1107679E-2,-5.1140557E-3,-3.1100988E-2,-6.2363084E-2,-5.477037E-2,-4.210636E-2,1.186512E-2,-1.6388351E-2,-2.8910164E-2,-1.0607983E-2,-3.0345965E-2,-1.965642E-2,-1.748304E-2,-6.4363503E-3,9.478786E-2,2.3621924E-1,1.688513E-1,5.5466898E-2,3.9195277E-2,3.6583513E-3,7.834267E-2,1.5505807E-1,-2.0233389E-2,2.2484977E-3,1.2370745E-2,2.3747753E-2,5.4599147E-2,2.0326404E-2,1.0453942E-1,3.9461385E-2,2.9762027E-1,2.0863357E-1,6.680642E-2,1.4831491E-1,1.5423052E-1,7.240729E-2],"split_indices":[0,0,4,4,0,18,4,3,22,4,18,17,0,18,1,0,0,21,4,21,18,15,4,4,0,4,0,15,0,15,0,16,0,0,0,16,10,15,0,14,4,4,5,16,15,15,0,4,0,15,15,14,5,15,0,0,0,0,0,0,0,0,0,0,0,0,0,0,0,0,0,0,0,0,0,0,0,0,0,0,0,0,0,0,0,0,0,0,0,0,0,0,0,0,0,0,0,0,0],"split_type":[0,0,0,0,0,0,0,0,0,0,0,0,0,0,0,0,0,0,0,0,0,0,0,0,0,0,0,0,0,0,0,0,0,0,0,0,0,0,0,0,0,0,0,0,0,0,0,0,0,0,0,0,0,0,0,0,0,0,0,0,0,0,0,0,0,0,0,0,0,0,0,0,0,0,0,0,0,0,0,0,0,0,0,0,0,0,0,0,0,0,0,0,0,0,0,0,0,0,0],"sum_hessian":[8.467025E3,5.475155E3,2.9918708E3,3.8908447E3,1.5843102E3,2.0323059E3,9.595649E2,2.740089E3,1.1507557E3,1.1334889E3,4.5082126E2,1.5012725E3,5.310335E2,6.2788477E2,3.316801E2,1.8646608E3,8.754283E2,1.0181151E3,1.3264066E2,4.0168927E2,7.317997E2,3.1582602E2,1.3499522E2,9.598788E2,5.413936E2,3.9258493E2,1.384486E2,4.908489E2,1.3703584E2,3.294825E2,2.1975965E0,9.444956E2,7.3619484E1,9.5752426E1,3.688823E1,3.8112604E2,2.0563225E1,5.9366504E2,1.3813464E2,2.958907E2,1.993534E1,3.7673084E1,9.7322136E1,6.393436E2,3.2053516E2,4.0702628E2,1.3436734E2,9.276997E1,2.9981497E2,1.1631565E2,2.2132936E1,4.291592E2,6.1689674E1,1.03130066E2,3.3905777E1,2.6355463E2,6.5927895E1,9.109038E2,3.3591835E1,6.7811554E1,5.807934E0,3.7563205E2,5.4939914E0,1.7580772E1,2.9824526E0,5.581895E2,3.5475487E1,9.779305E1,4.0341595E1,2.5790366E2,3.7987026E1,1.7737743E1,2.1975965E0,1.1144955E1,2.652813E1,2.9510584E1,6.7811554E1,6.172107E2,2.2132936E1,2.860015E2,3.453366E1,3.883467E2,1.8679571E1,1.16158676E2,1.8208658E1,7.0637035E0,8.570627E1,1.7282527E2,1.2698969E2,1.0485675E2,1.1458897E1,1.993534E1,2.1975965E0,3.3591833E2,9.324088E1,2.3545678E0,5.933511E1,9.669425E1,6.4358187E0],"tree_param":{"num_deleted":"0","num_feature":"23","num_nodes":"99","size_leaf_vector":"1"}},{"base_weights":[-4.984035E-3,-7.513311E-1,1.1902975E0,-9.522572E-1,-2.7422154E-1,6.404906E-1,2.169434E0,-1.047343E0,-7.312346E-1,-3.9380664E-1,-1.4245252E-2,5.71164E-1,1.5713001E0,1.785599E0,2.6428323E0,-1.0777759E-1,-9.817742E-1,-7.5099516E-1,-5.74985E-1,-4.929499E-1,-3.5253605E-1,-2.0875E-1,2.2957446E-2,5.2902704E-1,1.8453757E0,1.6068135E0,2.884581E-1,1.9282441E0,1.2235682E0,2.3038607E0,2.772985E0,-9.93735E-2,-8.900773E-2,-7.6600367E-1,-5.43288E-1,-6.0387116E-2,-4.8481774E-2,-5.052635E-1,-2.5491142E-1,-3.2128322E-1,-4.8685682E-1,-9.971153E-2,-2.7898094E-1,7.695567E-2,-1.072556E-1,4.9913466E-1,1.9773539E0,1.8902442E0,5.0852895E-2,1.670759E0,7.74037E-1,-5.5718618E-3,4.2451862E-2,2.03367E0,1.1237977E-1,7.1307784E-1,1.2745211E0,2.395768E0,1.5408939E0,2.780462E0,8.423834E-2,-7.754108E-2,-4.6106573E-2,-5.7270724E-2,-3.8733564E-2,-4.818422E-2,-6.1201777E-2,-2.8297722E-2,-6.4220442E-3,-2.6712185E-2,-4.156027E-2,-5.153766E-2,-3.7441835E-2,-4.98899E-3,-2.3954978E-2,-2.9813413E-2,-1.1039954E-2,9.762251E-3,-2.3081852E-2,-9.414313E-3,-2.766608E-2,4.148764E-2,9.798785E-2,2.2400652E-1,1.4401409E-1,1.9664285E-1,8.9747265E-2,1.4169553E-1,1.895619E-1,2.3954347E-2,8.5786335E-2,2.1652782E-1,1.4721252E-1,2.9539028E-2,7.8244686E-2,1.3030133E-1,6.935848E-2,2.5557208E-1,1.9622456E-1,5.9070338E-2,1.5999457E-1,8.587735E-2,2.7841687E-1],"categories":[],"categories_nodes":[],"categories_segments":[],"categories_sizes":[],"default_left":[0,0,0,0,0,0,0,0,0,0,0,0,0,0,0,0,0,0,0,0,0,0,0,0,0,0,0,0,0,0,1,0,0,0,0,0,0,0,0,0,0,0,0,0,0,0,0,0,0,0,0,0,0,0,0,0,0,0,0,0,0,0,0,0,0,0,0,0,0,0,0,0,0,0,0,0,0,0,0,0,0,0,0,0,0,0,0,0,0,0,0,0,0,0,0,0,0,0,0,0,0,0,0],"id":1,"left_children":[1,3,5,7,9,11,13,15,17,19,21,23,25,27,29,-1,31,33,35,37,39,41,43,45,47,49,51,53,55,57,59,-1,-1,61,63,-1,-1,65,67,69,71,73,75,77,79,81,83,85,-1,87,89,-1,-1,91,-1,93,95,97,99,101,-1,-1,-1,-1,-1,-1,-1,-1,-1,-1,-1,-1,-1,-1,-1,-1,-1,-1,-1,-1,-1,-1,-1,-1,-1,-1,-1,-1,-1,-1,-1,-1,-1,-1,-1,-1,-1,-1,-1,-1,-1,-1,-1],"loss_changes":[7.555358E3,4.995459E2,1.7511685E3,7.632739E1,4.8071342E1,1.3372784E2,2.079248E2,4.05542E0,2.9853516E0,4.1600037E0,3.537842E0,1.0335736E2,6.0987854E0,4.9699707E1,1.6636963E1,0E0,1.8798828E-2,2.6364746E0,4.1973114E-2,7.7633667E-1,2.9977264E0,5.7326794E-1,2.8964245E0,8.050983E1,2.7457428E0,6.1590576E0,2.6243177E-1,4.1490356E1,2.5813446E0,6.876526E0,3.0305176E0,0E0,0E0,2.255188E0,9.670639E-2,0E0,0E0,4.3667603E-1,7.3914886E-2,3.0178185E0,2.5559998E-1,2.1312791E-1,1.1944342E-1,1.8730938E0,2.4234521E-1,7.435574E1,2.098648E0,2.7297974E0,0E0,4.681732E0,3.2510328E-1,0E0,0E0,3.0447754E1,0E0,1.8748283E-1,1.0946503E0,4.187134E0,1.2129974E-1,2.475586E-1,0E0,0E0,0E0,0E0,0E0,0E0,0E0,0E0,0E0,0E0,0E0,0E0,0E0,0E0,0E0,0E0,0E0,0E0,0E0,0E0,0E0,0E0,0E0,0E0,0E0,0E0,0E0,0E0,0E0,0E0,0E0,0E0,0E0,0E0,0E0,0E0,0E0,0E0,0E0,0E0,0E0,0E0,0E0],"parents":[2147483647,0,0,1,1,2,2,3,3,4,4,5,5,6,6,7,7,8,8,9,9,10,10,11,11,12,12,13,13,14,14,16,16,17,17,18,18,19,19,20,20,21,21,22,22,23,23,24,24,25,25,26,26,27,27,28,28,29,29,30,30,33,33,34,34,37,37,38,38,39,39,40,40,41,41,42,42,43,43,44,44,45,45,46,46,47,47,49,49,50,50,53,53,55,55,56,56,57,57,58,58,59,59],"right_children":[2,4,6,8,10,12,14,16,18,20,22,24,26,28,30,-1,32,34,36,38,40,42,44,46,48,50,52,54,56,58,60,-1,-1,62,64,-1,-1,66,68,70,72,74,76,78,80,82,84,86,-1,88,90,-1,-1,92,-1,94,96,98,100,102,-1,-1,-1,-1,-1,-1,-1,-1,-1,-1,-1,-1,-1,-1,-1,-1,-1,-1,-1,-1,-1,-1,-1,-1,-1,-1,-1,-1,-1,-1,-1,-1,-1,-1,-1,-1,-1,-1,-1,-1,-1,-1,-1],"split_conditions":[1E0,5.52E0,7.16E0,4.7E-1,6.02E0,1E0,7.64E0,4.63E0,1E0,5.71E0,9E-1,1E0,1E0,1E0,7.97E0,-1.0777759E-1,1E0,1E0,5.32E0,1E0,1E0,5.65E1,1E0,1E0,1E0,1E0,1.03E0,1E0,1.5E0,1E0,6.59E1,-9.93735E-2,-8.900773E-2,1E0,5.36E0,-6.0387116E-2,-4.8481774E-2,1E0,1E0,1E0,8E-1,1E0,1E0,1E0,1E0,1E0,1E0,1E0,5.0852895E-2,1.07E0,6.45E0,-5.5718618E-3,4.2451862E-2,1E0,1.1237977E-1,4.3E0,1E0,1E0,1.7E0,5.63E1,8.423834E-2,-7.754108E-2,-4.6106573E-2,-5.7270724E-2,-3.8733564E-2,-4.818422E-2,-6.1201777E-2,-2.8297722E-2,-6.4220442E-3,-2.6712185E-2,-4.156027E-2,-5.153766E-2,-3.7441835E-2,-4.98899E-3,-2.3954978E-2,-2.9813413E-2,-1.1039954E-2,9.762251E-3,-2.3081852E-2,-9.414313E-3,-2.766608E-2,4.148764E-2,9.798785E-2,2.2400652E-1,1.4401409E-1,1.9664285E-1,8.9747265E-2,1.4169553E-1,1.895619E-1,2.3954347E-2,8.5786335E-2,2.1652782E-1,1.4721252E-1,2.9539028E-2,7.8244686E-2,1.3030133E-1,6.935848E-2,2.5557208E-1,1.9622456E-1,5.9070338E-2,1.5999457E-1,8.587735E-2,2.7841687E-1],"split_indices":[0,4,4,0,4,22,4,3,22,4,0,21,15,18,4,0,21,21,4,21,18,2,18,16,14,13,0,15,0,15,1,0,0,16,4,0,0,18,10,17,0,18,19,15,14,19,12,13,0,0,4,0,0,14,0,5,15,18,0,1,0,0,0,0,0,0,0,0,0,0,0,0,0,0,0,0,0,0,0,0,0,0,0,0,0,0,0,0,0,0,0,0,0,0,0,0,0,0,0,0,0,0,0],"split_type":[0,0,0,0,0,0,0,0,0,0,0,0,0,0,0,0,0,0,0,0,0,0,0,0,0,0,0,0,0,0,0,0,0,0,0,0,0,0,0,0,0,0,0,0,0,0,0,0,0,0,0,0,0,0,0,0,0,0,0,0,0,0,0,0,0,0,0,0,0,0,0,0,0,0,0,0,0,0,0,0,0,0,0,0,0,0,0,0,0,0,0,0,0,0,0,0,0,0,0,0,0,0,0],"sum_hessian":[8.46723E3,5.2127207E3,3.2545095E3,3.6673052E3,1.5454154E3,2.0852498E3,1.1692596E3,2.5615605E3,1.1057448E3,1.0581622E3,4.872532E2,1.942208E3,1.4304175E2,6.4834674E2,5.209129E2,1.7389962E3,8.225643E2,9.7822455E2,1.27520226E2,3.0779953E2,7.503627E2,7.7492485E1,4.097607E2,1.8814069E3,6.0801144E1,1.389428E2,4.0989537E0,5.1516534E2,1.3318138E2,1.4970938E2,3.7120355E2,7.189488E2,1.0361542E2,9.097967E2,6.842783E1,9.226486E1,3.5255363E1,2.9159293E2,1.6206581E1,6.114798E2,1.3888289E2,3.1306585E1,4.61859E1,2.8993582E2,1.19824875E2,1.8446787E3,3.6728172E1,5.8426224E1,2.3749175E0,1.2810027E2,1.0842523E1,1.3286092E0,2.7703445E0,4.5412274E2,6.1042606E1,1.3447485E1,1.19733894E2,1.3170416E2,1.8005205E1,3.6933298E2,1.8705814E0,8.8107306E2,2.8723618E1,5.5319847E1,1.3107985E1,2.436508E2,4.794214E1,1.370546E1,2.5011208E0,3.9086447E2,2.2061533E2,1.0792449E2,3.0958393E1,2.4083038E1,7.2235484E0,4.078381E1,5.4020925E0,2.7233176E2,1.760409E1,1.12660355E2,7.164521E0,1.5711686E3,2.7351016E2,2.2537136E1,1.4191035E1,5.335136E1,5.074866E0,6.3607166E1,6.44931E1,1.9929138E0,8.849609E0,3.6558536E2,8.853739E1,2.6641624E0,1.0783322E1,1.1295123E2,6.7826624E0,9.2631516E1,3.907266E1,1.6973068E0,1.6307898E1,1.1589801E0,3.6817398E2],"tree_param":{"num_deleted":"0","num_feature":"23","num_nodes":"103","size_leaf_vector":"1"}},{"base_weights":[-7.7130375E-3,-7.123826E-1,1.0056504E0,-9.244684E-1,-2.7014625E-1,5.3373224E-1,1.7289281E0,-1.0136707E0,-7.0232654E-1,-3.8809144E-1,-2.5620881E-2,6.6215986E-1,1.4842167E-1,1.4406047E0,2.1102958E0,-1.0454332E0,-9.457147E-1,-6.822137E-1,-8.752318E-2,-5.255889E-1,-3.4486893E-1,-1.723613E-1,2.033264E-2,8.252043E-1,3.5751227E-1,6.781636E-2,3.8361147E-1,1.5553075E0,9.903478E-1,1.8969122E0,2.2271323E-1,-1.0917981E-1,-1.0293452E-1,-9.576754E-2,-8.533819E-2,-6.406219E-1,-7.955027E-2,-5.384232E-1,-2.801496E-1,-3.175612E-1,-4.740712E-1,-1.3080998E-1,-2.8601536E-1,7.256495E-2,-1.03377916E-1,7.467795E-1,1.2710876E0,2.740932E-1,6.0670906E-1,-3.7769552E-2,1.0184081E-1,3.33144E-1,5.468706E-1,1.6368538E0,9.141966E-1,6.226898E-1,1.0539782E0,1.9656968E0,1.3531332E0,-5.9503954E-2,-6.976162E-2,-5.4738164E-2,-1.9276032E-2,-2.2398796E-2,-3.959674E-2,-2.6603123E-2,-4.0850874E-2,-5.0179835E-2,-4.014564E-2,-1.0854993E-2,-3.8485896E-2,-3.368947E-2,-2.0402296E-2,9.411029E-3,-2.379512E-2,-1.768966E-2,-6.740036E-3,6.872983E-2,1.4685927E-1,1.2973726E-1,2.4223398E-2,3.0053973E-2,6.8193497E-3,6.6766605E-2,2.2459423E-2,-1.2100055E-3,-1.7103693E-2,1.1297265E-2,-1.1000867E-2,3.5711303E-2,1.0289597E-2,5.7785787E-2,1.7868776E-2,1.7938553E-1,1.3251969E-1,5.2691597E-2,9.746812E-2,1.8786212E-2,6.424002E-2,1.1012804E-1,7.587122E-2,1.9799156E-1,5.9515465E-2,1.3838002E-1,4.2182464E-2],"categories":[],"categories_nodes":[],"categories_segments":[],"categories_sizes":[],"default_left":[0,0,0,0,0,0,0,0,0,0,0,0,0,0,0,0,0,0,0,0,0,0,0,0,0,0,0,0,0,0,0,0,0,0,0,0,0,0,0,0,0,0,0,0,0,0,0,0,0,0,0,0,0,0,0,0,0,0,1,0,0,0,0,0,0,0,0,0,0,0,0,0,0,0,0,0,0,0,0,0,0,0,0,0,0,0,0,0,0,0,0,0,0,0,0,0,0,0,0,0,0,0,0,0,0],"id":2,"left_children":[1,3,5,7,9,11,13,15,17,19,21,23,25,27,29,31,33,35,-1,37,39,41,43,45,47,49,51,53,55,57,-1,-1,-1,-1,-1,59,-1,61,63,65,67,69,71,73,75,77,79,81,83,85,87,89,91,93,95,97,99,101,103,-1,-1,-1,-1,-1,-1,-1,-1,-1,-1,-1,-1,-1,-1,-1,-1,-1,-1,-1,-1,-1,-1,-1,-1,-1,-1,-1,-1,-1,-1,-1,-1,-1,-1,-1,-1,-1,-1,-1,-1,-1,-1,-1,-1,-1,-1],"loss_changes":[6.012577E3,4.655603E2,1.1778665E3,6.57937E1,4.6457436E1,1.0339209E2,1.468501E2,4.175293E0,2.7582703E0,6.2778473E0,3.5459735E0,7.760254E1,9.90969E0,3.871399E1,1.0353027E1,8.520508E-2,3.5827637E-2,3.5842285E0,0E0,6.619644E-1,2.777214E0,5.5472517E-1,2.5983093E0,3.474579E1,1.1235489E1,1.4104652E0,9.1825294E-1,3.0887817E1,3.1101685E0,5.3308105E0,0E0,0E0,0E0,0E0,0E0,1.2492676E0,0E0,6.504364E-1,8.270144E-3,3.115921E0,8.597565E-2,4.8789394E-1,6.778836E-2,1.9124116E0,3.0400515E-1,3.6365753E1,3.7763824E0,2.227066E0,3.0349464E0,3.2685882E-1,7.1139765E-1,5.4042053E-1,2.3877335E-1,2.444983E1,1.1768074E0,1.03842735E-1,1.0611725E0,2.4743042E0,1.9305801E-1,0E0,0E0,0E0,0E0,0E0,0E0,0E0,0E0,0E0,0E0,0E0,0E0,0E0,0E0,0E0,0E0,0E0,0E0,0E0,0E0,0E0,0E0,0E0,0E0,0E0,0E0,0E0,0E0,0E0,0E0,0E0,0E0,0E0,0E0,0E0,0E0,0E0,0E0,0E0,0E0,0E0,0E0,0E0,0E0,0E0,0E0],"parents":[2147483647,0,0,1,1,2,2,3,3,4,4,5,5,6,6,7,7,8,8,9,9,10,10,11,11,12,12,13,13,14,14,15,15,16,16,17,17,19,19,20,20,21,21,22,22,23,23,24,24,25,25,26,26,27,27,28,28,29,29,35,35,37,37,38,38,39,39,40,40,41,41,42,42,43,43,44,44,45,45,46,46,47,47,48,48,49,49,50,50,51,51,52,52,53,53,54,54,55,55,56,56,57,57,58,58],"right_children":[2,4,6,8,10,12,14,16,18,20,22,24,26,28,30,32,34,36,-1,38,40,42,44,46,48,50,52,54,56,58,-1,-1,-1,-1,-1,60,-1,62,64,66,68,70,72,74,76,78,80,82,84,86,88,90,92,94,96,98,100,102,104,-1,-1,-1,-1,-1,-1,-1,-1,-1,-1,-1,-1,-1,-1,-1,-1,-1,-1,-1,-1,-1,-1,-1,-1,-1,-1,-1,-1,-1,-1,-1,-1,-1,-1,-1,-1,-1,-1,-1,-1,-1,-1,-1,-1,-1,-1],"split_conditions":[1E0,6E-1,7.07E0,4.98E0,5.99E0,1E0,7.64E0,4.63E0,1E0,5.66E0,6.09E0,1E0,1.17E0,1E0,8.03E0,4.3E0,1E0,1E0,-8.752318E-2,1E0,1E0,1E0,1E0,1E0,1.17E0,6.39E0,1.28E0,1E0,1.5E0,1E0,2.2271323E-1,-1.0917981E-1,-1.0293452E-1,-9.576754E-2,-8.533819E-2,1E0,-7.955027E-2,1E0,1E0,1E0,7.6E-1,1E0,9E-1,1E0,3.8E0,1E0,1E0,1E0,1E0,4.07E0,1E0,1E0,1E0,1E0,1.5E0,5.84E1,1E0,5.29E0,6.55E1,-5.9503954E-2,-6.976162E-2,-5.4738164E-2,-1.9276032E-2,-2.2398796E-2,-3.959674E-2,-2.6603123E-2,-4.0850874E-2,-5.0179835E-2,-4.014564E-2,-1.0854993E-2,-3.8485896E-2,-3.368947E-2,-2.0402296E-2,9.411029E-3,-2.379512E-2,-1.768966E-2,-6.740036E-3,6.872983E-2,1.4685927E-1,1.2973726E-1,2.4223398E-2,3.0053973E-2,6.8193497E-3,6.6766605E-2,2.2459423E-2,-1.2100055E-3,-1.7103693E-2,1.1297265E-2,-1.1000867E-2,3.5711303E-2,1.0289597E-2,5.7785787E-2,1.7868776E-2,1.7938553E-1,1.3251969E-1,5.2691597E-2,9.746812E-2,1.8786212E-2,6.424002E-2,1.1012804E-1,7.587122E-2,1.9799156E-1,5.9515465E-2,1.3838002E-1,4.2182464E-2],"split_indices":[0,0,4,3,4,18,4,3,18,4,4,17,0,18,4,3,21,17,0,21,18,18,18,22,0,4,0,15,0,15,0,0,0,0,0,20,0,16,14,17,0,15,0,15,5,21,15,14,15,5,15,15,15,17,0,1,14,5,1,0,0,0,0,0,0,0,0,0,0,0,0,0,0,0,0,0,0,0,0,0,0,0,0,0,0,0,0,0,0,0,0,0,0,0,0,0,0,0,0,0,0,0,0,0,0],"split_type":[0,0,0,0,0,0,0,0,0,0,0,0,0,0,0,0,0,0,0,0,0,0,0,0,0,0,0,0,0,0,0,0,0,0,0,0,0,0,0,0,0,0,0,0,0,0,0,0,0,0,0,0,0,0,0,0,0,0,0,0,0,0,0,0,0,0,0,0,0,0,0,0,0,0,0,0,0,0,0,0,0,0,0,0,0,0,0,0,0,0,0,0,0,0,0,0,0,0,0,0,0,0,0,0,0],"sum_hessian":[8.417954E3,4.9654155E3,3.4525386E3,3.3552358E3,1.6101798E3,2.0903696E3,1.3621688E3,2.3913943E3,9.638416E2,1.0858434E3,5.243364E2,1.5672667E3,5.23103E2,7.784322E2,5.8373663E2,1.6198829E3,7.715114E2,8.6783765E2,9.6003944E1,2.570302E2,8.288132E2,1.243874E2,3.99949E2,1.019781E3,5.474857E2,3.9054282E2,1.3256024E2,6.1843256E2,1.5999966E2,2.1263264E2,3.7110403E2,4.0005954E2,1.2198234E3,6.747349E2,9.6776474E1,6.3965564E2,2.2818199E2,2.4312334E2,1.3906868E1,6.870571E2,1.4175607E2,9.266172E1,3.1725676E1,2.815065E2,1.1844252E2,8.695192E2,1.5026176E2,4.1175122E2,1.3573448E2,9.515238E1,2.953904E2,1.03581276E2,2.8978968E1,5.472693E2,7.1163246E1,2.5196968E1,1.3480269E2,1.8643492E2,2.6197716E1,3.61766E2,2.7788968E2,2.3641273E2,6.7106056E0,1.1341287E1,2.565581E0,4.4107404E2,2.4598308E2,9.8307915E1,4.3448154E1,8.650899E1,6.1527324E0,1.7658852E1,1.4066824E1,2.6389304E2,1.7613441E1,3.7630093E1,8.081242E1,8.0512494E2,6.43943E1,1.4626405E2,3.9977078E0,3.6447687E2,4.7274372E1,1.164159E2,1.9318579E1,8.069918E1,1.44532E1,2.8108716E2,1.43032675E1,9.331601E1,1.0265267E1,2.6204075E1,2.7748928E0,3.6077042E2,1.864989E2,1.0924654E1,6.0238594E1,1.5493007E0,2.3647667E1,1.13836136E2,2.0966555E1,1.8408055E2,2.3543785E0,2.4892178E1,1.3055387E0],"tree_param":{"num_deleted":"0","num_feature":"23","num_nodes":"105","size_leaf_vector":"1"}},{"base_weights":[-9.435649E-3,-6.7494917E-1,8.644541E-1,-8.8927513E-1,-2.4798751E-1,4.8823866E-1,1.4913223E0,-9.81743E-1,-6.639989E-1,-3.588584E-1,-2.3420285E-2,5.979926E-1,1.4886922E-1,1.2799202E0,1.8116937E0,-1.015034E0,-9.111258E-1,-6.4412457E-1,-8.37744E-2,-4.7779784E-1,-3.1297165E-1,-1.8064912E-1,1.46868825E-2,7.3774433E-1,3.233957E-1,6.317733E-2,3.7528944E-1,1.3671014E0,9.252598E-1,1.8622082E0,1.581924E0,-1.0227982E-1,-9.175127E-2,-9.237754E-1,-8.155622E-2,-6.027538E-1,-7.57428E-2,-4.9046814E-1,-2.5057006E-1,-2.9892892E-1,-5.6717664E-2,-8.6074516E-2,-2.4601959E-1,5.8363765E-2,-9.220195E-2,5.844316E-1,9.391328E-1,2.3871389E-1,5.468623E-1,2.5612358E-2,1.4350238E-1,3.0510885E-1,5.097588E-1,1.4268824E0,8.6488223E-1,8.388361E-1,1.0914364E0,1.7950526E0,2.0440736E0,1.3667125E0,1.8993472E-1,-9.316091E-2,-7.7258706E-2,-5.579179E-2,-6.5916814E-2,-5.0714917E-2,-3.1265732E-2,-1.935195E-2,-3.835373E-2,-2.6961306E-2,-4.328786E-2,-3.662549E-3,-2.2979384E-2,-2.5451068E-2,6.8016835E-3,8.33716E-3,-1.368237E-2,-1.5264091E-2,-5.4136505E-3,6.276594E-2,-2.3683384E-3,1.0255752E-1,3.5628784E-2,2.5252614E-2,-5.090011E-3,5.959173E-2,2.3800697E-2,-8.425322E-3,4.795899E-3,1.586379E-2,3.7372603E-5,3.2418873E-2,1.0466411E-2,3.9142516E-2,5.9948742E-2,1.5261127E-1,1.0396447E-1,6.324824E-2,9.108013E-2,8.590714E-2,4.066824E-2,1.1326357E-1,5.4067206E-2,1.7219545E-1,2.1228793E-1,1.1141729E-1,2.0734029E-1,4.8747312E-2,1.3879572E-1],"categories":[],"categories_nodes":[],"categories_segments":[],"categories_sizes":[],"default_left":[0,0,0,0,0,0,0,0,0,0,0,0,0,0,0,0,0,0,0,0,0,0,0,0,0,0,0,0,0,0,0,0,0,0,0,0,0,0,0,0,0,0,0,0,0,0,0,0,0,0,0,0,0,0,0,0,0,0,0,0,0,0,0,0,0,0,0,0,0,0,0,0,0,0,0,0,0,0,0,0,0,0,0,0,0,0,0,0,0,0,0,0,0,0,0,0,0,0,0,0,0,0,0,0,0,0,0,0,0],"id":3,"left_children":[1,3,5,7,9,11,13,15,17,19,21,23,25,27,29,31,33,35,-1,37,39,41,43,45,47,49,51,53,55,57,59,-1,-1,61,-1,63,-1,65,67,69,-1,71,73,75,77,79,81,83,85,87,89,91,93,95,97,99,101,103,105,107,-1,-1,-1,-1,-1,-1,-1,-1,-1,-1,-1,-1,-1,-1,-1,-1,-1,-1,-1,-1,-1,-1,-1,-1,-1,-1,-1,-1,-1,-1,-1,-1,-1,-1,-1,-1,-1,-1,-1,-1,-1,-1,-1,-1,-1,-1,-1,-1,-1],"loss_changes":[4.850655E3,4.3304468E2,8.496355E2,6.500464E1,3.9424294E1,8.3897644E1,8.92395E1,4.3239746E0,2.6383667E0,5.636902E0,3.1455004E0,6.513367E1,1.0693331E1,2.4022705E1,3.263916E0,2.0373535E-1,1.2298584E-1,3.4349365E0,0E0,7.214203E-1,2.5718765E0,6.119411E-1,1.9808426E0,3.4283386E1,1.0775761E1,1.209043E0,1.2737217E0,1.841272E1,1.4464722E0,1.6184082E0,4.4450684E0,0E0,0E0,2.9724121E-2,0E0,1.1828461E0,0E0,6.622238E-1,5.8782816E-2,2.7493896E0,0E0,2.999633E-1,1.7733908E-1,1.4806824E0,2.7502394E-1,1.692247E1,2.4119293E1,1.6918583E0,2.2460556E0,6.7934537E-1,2.7690148E-1,3.5617924E-1,3.009758E-1,2.0824707E1,1.9385529E-1,6.3456726E-1,5.890999E-1,4.118286E0,6.776428E-1,5.373535E-1,0E0,0E0,0E0,0E0,0E0,0E0,0E0,0E0,0E0,0E0,0E0,0E0,0E0,0E0,0E0,0E0,0E0,0E0,0E0,0E0,0E0,0E0,0E0,0E0,0E0,0E0,0E0,0E0,0E0,0E0,0E0,0E0,0E0,0E0,0E0,0E0,0E0,0E0,0E0,0E0,0E0,0E0,0E0,0E0,0E0,0E0,0E0,0E0,0E0],"parents":[2147483647,0,0,1,1,2,2,3,3,4,4,5,5,6,6,7,7,8,8,9,9,10,10,11,11,12,12,13,13,14,14,15,15,16,16,17,17,19,19,20,20,21,21,22,22,23,23,24,24,25,25,26,26,27,27,28,28,29,29,30,30,33,33,35,35,37,37,38,38,39,39,41,41,42,42,43,43,44,44,45,45,46,46,47,47,48,48,49,49,50,50,51,51,52,52,53,53,54,54,55,55,56,56,57,57,58,58,59,59],"right_children":[2,4,6,8,10,12,14,16,18,20,22,24,26,28,30,32,34,36,-1,38,40,42,44,46,48,50,52,54,56,58,60,-1,-1,62,-1,64,-1,66,68,70,-1,72,74,76,78,80,82,84,86,88,90,92,94,96,98,100,102,104,106,108,-1,-1,-1,-1,-1,-1,-1,-1,-1,-1,-1,-1,-1,-1,-1,-1,-1,-1,-1,-1,-1,-1,-1,-1,-1,-1,-1,-1,-1,-1,-1,-1,-1,-1,-1,-1,-1,-1,-1,-1,-1,-1,-1,-1,-1,-1,-1,-1,-1],"split_conditions":[1E0,6E-1,1.5E0,4.7E-1,5.99E0,1E0,7.78E0,4.63E0,1E0,5.68E0,9E-1,1E0,6.76E0,1E0,1E0,1E0,1E0,1E0,-8.37744E-2,1E0,1E0,5.65E1,1E0,6.68E0,6.74E0,1.07E0,6.98E0,1E0,1.59E0,1E0,8.31E0,-1.0227982E-1,-9.175127E-2,1E0,-8.155622E-2,1E0,-7.57428E-2,1E0,1E0,1E0,-5.6717664E-2,1E0,1E0,1E0,6.18E0,1E0,1E0,1E0,1E0,6.33E0,1E0,1E0,4.34E0,1E0,7.31E0,1E0,1E0,1E0,4.76E0,4.72E0,1.8993472E-1,-9.316091E-2,-7.7258706E-2,-5.579179E-2,-6.5916814E-2,-5.0714917E-2,-3.1265732E-2,-1.935195E-2,-3.835373E-2,-2.6961306E-2,-4.328786E-2,-3.662549E-3,-2.2979384E-2,-2.5451068E-2,6.8016835E-3,8.33716E-3,-1.368237E-2,-1.5264091E-2,-5.4136505E-3,6.276594E-2,-2.3683384E-3,1.0255752E-1,3.5628784E-2,2.5252614E-2,-5.090011E-3,5.959173E-2,2.3800697E-2,-8.425322E-3,4.795899E-3,1.586379E-2,3.7372603E-5,3.2418873E-2,1.0466411E-2,3.9142516E-2,5.9948742E-2,1.5261127E-1,1.0396447E-1,6.324824E-2,9.108013E-2,8.590714E-2,4.066824E-2,1.1326357E-1,5.4067206E-2,1.7219545E-1,2.1228793E-1,1.1141729E-1,2.0734029E-1,4.8747312E-2,1.3879572E-1],"split_indices":[0,0,0,0,4,18,4,3,18,4,0,17,4,18,15,16,21,17,0,21,15,2,18,4,4,0,4,15,0,17,3,0,0,16,0,20,0,22,14,18,0,18,22,14,4,14,14,15,15,4,14,15,5,14,4,15,15,20,5,5,0,0,0,0,0,0,0,0,0,0,0,0,0,0,0,0,0,0,0,0,0,0,0,0,0,0,0,0,0,0,0,0,0,0,0,0,0,0,0,0,0,0,0,0,0,0,0,0,0],"split_type":[0,0,0,0,0,0,0,0,0,0,0,0,0,0,0,0,0,0,0,0,0,0,0,0,0,0,0,0,0,0,0,0,0,0,0,0,0,0,0,0,0,0,0,0,0,0,0,0,0,0,0,0,0,0,0,0,0,0,0,0,0,0,0,0,0,0,0,0,0,0,0,0,0,0,0,0,0,0,0,0,0,0,0,0,0,0,0,0,0,0,0,0,0,0,0,0,0,0,0,0,0,0,0,0,0,0,0,0,0],"sum_hessian":[8.3383955E3,4.7336763E3,3.6047188E3,3.1509048E3,1.5827719E3,2.2538486E3,1.3508702E3,2.2315679E3,9.193369E2,1.0592247E3,5.2354706E2,1.7024913E3,5.513572E2,8.168524E2,5.340178E2,1.5075109E3,7.240568E2,8.291945E2,9.0142456E1,2.9226242E2,7.6696234E2,1.0140656E2,4.2214047E2,1.1271564E3,5.753349E2,4.009073E2,1.5044992E2,6.533852E2,1.6346727E2,4.3194952E2,1.02068306E2,1.3875519E3,1.1995899E2,6.3176465E2,9.2292206E1,6.1203894E2,2.1715552E2,2.7572916E2,1.6533249E1,7.2887396E2,3.808835E1,4.23923E1,5.9014263E1,3.0000607E2,1.2213442E2,6.421803E2,4.8497614E2,4.187278E2,1.5660709E2,2.740591E2,1.2684817E2,1.0100409E2,4.944583E1,5.8223804E2,7.114712E1,1.11517815E2,5.194945E1,3.2340082E2,1.08548706E2,6.3989426E1,3.807888E1,5.9573505E2,3.602956E1,3.4708163E2,2.6495734E2,2.5038731E2,2.534186E1,1.3287529E1,3.24572E0,6.0046967E2,1.284043E2,3.247394E1,9.918358E0,5.7645176E1,1.369089E0,2.6644183E2,3.3564224E1,4.603373E1,7.610069E1,5.995306E2,4.2649742E1,4.2167712E2,6.3298985E1,3.9978915E2,1.893866E1,1.3434055E2,2.2266537E1,4.5853485E1,2.2820563E2,1.1461911E2,1.22290535E1,9.166168E1,9.342409E0,2.3636482E1,2.580935E1,4.6113135E2,1.21106705E2,1.4175859E1,5.697126E1,1.0558594E2,5.9318805E0,4.7350937E1,4.598513E0,2.695498E2,5.385103E1,4.511072E0,1.04037636E2,2.0746143E0,6.1914814E1],"tree_param":{"num_deleted":"0","num_feature":"23","num_nodes":"109","size_leaf_vector":"1"}},{"base_weights":[-1.0396647E-2,-6.7024386E-1,7.177683E-1,-8.7594813E-1,-3.057488E-1,3.7933967E-1,1.2517955E0,-9.539062E-1,-6.522974E-1,-3.9275387E-1,-1.24036625E-1,4.7187302E-1,1.00204214E-1,1.0268652E0,1.5074301E0,-9.88576E-1,-8.866716E-1,-6.719224E-1,-4.9842294E-2,-5.374806E-1,-3.235322E-1,-2.0461199E-1,-3.84107E-2,5.887043E-1,2.5573096E-1,3.808533E-2,2.9056785E-1,1.1052792E0,7.12541E-1,1.3248739E0,1.599593E0,-1.0385617E-1,-9.702298E-1,-8.990667E-1,-7.879395E-2,-6.5192693E-1,-8.183784E-2,-5.4794955E-1,-2.0082079E-1,-3.7078002E-1,-2.4921875E-1,-1.6473249E-1,-3.324736E-1,-4.897041E-2,8.256025E-2,6.267281E-1,-2.014899E-2,1.7306322E-1,4.1915196E-1,-3.231824E-2,7.4629344E-2,2.5728118E-1,4.0486577E-1,1.1611196E0,6.567295E-1,4.9615893E-1,7.615964E-1,1.410321E0,1.0676496E0,1.6457212E0,1.4040415E0,-9.791432E-2,-8.7056585E-2,-9.066686E-2,-7.526771E-2,-6.129805E-2,-7.412816E-2,-5.689009E-2,-3.7239563E-2,-2.4019012E-2,9.37081E-3,-3.8018666E-2,-1.552254E-2,-2.3507943E-2,-5.1748525E-2,-1.4051861E-2,-4.588615E-2,-3.5161495E-2,-2.496002E-2,-1.3294582E-3,-1.6215933E-2,6.811708E-2,1.4000975E-2,-1.5800405E-2,1.6702993E-2,1.9514939E-2,-2.2084336E-3,4.6639528E-2,2.3578567E-2,-2.1343257E-3,-1.7809028E-2,4.0402724E-3,1.4297132E-2,6.85967E-3,2.7589036E-2,4.2709358E-2,1.3555582E-2,1.2580402E-1,8.3319366E-2,3.576223E-2,6.986813E-2,5.294813E-2,2.9032964E-2,7.1078986E-2,9.763034E-2,1.3085355E-1,1.7830329E-1,1.1257122E-1,7.098238E-2,1.6479702E-1,4.173462E-2,1.2103369E-1,1.6348267E-1],"categories":[],"categories_nodes":[],"categories_segments":[],"categories_sizes":[],"default_left":[0,0,0,0,0,0,0,0,0,0,0,0,0,0,0,0,0,0,0,0,0,0,0,0,0,0,0,0,0,0,0,0,0,0,0,0,0,0,1,0,0,0,0,0,0,0,0,0,0,0,0,0,0,0,0,0,0,0,0,1,0,0,0,0,0,0,0,0,0,0,0,0,0,0,0,0,0,0,0,0,0,0,0,0,0,0,0,0,0,0,0,0,0,0,0,0,0,0,0,0,0,0,0,0,0,0,0,0,0,0,0,0,0],"id":4,"left_children":[1,3,5,7,9,11,13,15,17,19,21,23,25,27,29,31,33,35,-1,37,39,41,43,45,47,49,51,53,55,57,59,-1,61,63,-1,65,-1,67,69,71,73,75,77,79,-1,81,83,85,87,89,91,93,95,97,99,101,103,105,107,109,111,-1,-1,-1,-1,-1,-1,-1,-1,-1,-1,-1,-1,-1,-1,-1,-1,-1,-1,-1,-1,-1,-1,-1,-1,-1,-1,-1,-1,-1,-1,-1,-1,-1,-1,-1,-1,-1,-1,-1,-1,-1,-1,-1,-1,-1,-1,-1,-1,-1,-1,-1,-1],"loss_changes":[3.9596233E3,3.2388635E2,7.075724E2,4.7553467E1,2.4633774E1,6.1928864E1,8.580908E1,3.8945312E0,1.8313599E0,1.0397934E1,3.4897494E0,4.5348633E1,7.068117E0,1.9208984E1,9.80896E0,2.2277832E-1,1.5570068E-1,1.321167E0,0E0,1.0879593E0,2.4228058E0,1.2758064E0,2.2940145E0,2.7072052E1,8.492149E0,1.1666586E0,4.5563412E-1,1.5455505E1,1.3714066E0,3.849762E0,1.8953857E0,0E0,3.302002E-2,7.751465E-3,0E0,1.5020142E0,0E0,9.985428E-1,1.5967849E-1,8.247719E-1,9.4602203E-1,1.3662562E0,9.091377E-3,9.870363E-1,0E0,2.9056702E1,1.8242066E0,1.8261938E0,1.728836E0,2.446913E-1,6.917325E-1,3.9082098E-1,1.303258E-1,1.7211487E1,6.785221E-1,7.4845314E-2,7.5112915E-1,4.4874268E0,5.4880524E-1,3.38562E-1,2.3043365E0,0E0,0E0,0E0,0E0,0E0,0E0,0E0,0E0,0E0,0E0,0E0,0E0,0E0,0E0,0E0,0E0,0E0,0E0,0E0,0E0,0E0,0E0,0E0,0E0,0E0,0E0,0E0,0E0,0E0,0E0,0E0,0E0,0E0,0E0,0E0,0E0,0E0,0E0,0E0,0E0,0E0,0E0,0E0,0E0,0E0,0E0,0E0,0E0,0E0,0E0,0E0,0E0],"parents":[2147483647,0,0,1,1,2,2,3,3,4,4,5,5,6,6,7,7,8,8,9,9,10,10,11,11,12,12,13,13,14,14,15,15,16,16,17,17,19,19,20,20,21,21,22,22,23,23,24,24,25,25,26,26,27,27,28,28,29,29,30,30,32,32,33,33,35,35,37,37,38,38,39,39,40,40,41,41,42,42,43,43,45,45,46,46,47,47,48,48,49,49,50,50,51,51,52,52,53,53,54,54,55,55,56,56,57,57,58,58,59,59,60,60],"right_children":[2,4,6,8,10,12,14,16,18,20,22,24,26,28,30,32,34,36,-1,38,40,42,44,46,48,50,52,54,56,58,60,-1,62,64,-1,66,-1,68,70,72,74,76,78,80,-1,82,84,86,88,90,92,94,96,98,100,102,104,106,108,110,112,-1,-1,-1,-1,-1,-1,-1,-1,-1,-1,-1,-1,-1,-1,-1,-1,-1,-1,-1,-1,-1,-1,-1,-1,-1,-1,-1,-1,-1,-1,-1,-1,-1,-1,-1,-1,-1,-1,-1,-1,-1,-1,-1,-1,-1,-1,-1,-1,-1,-1,-1,-1],"split_conditions":[6.19E0,5.6E-1,7.07E0,4.5E-1,7.6E-1,1E0,7.59E0,4.59E0,1E0,5.59E0,9E-1,1E0,1.16E0,1E0,7.97E0,4.3E0,1E0,1E0,-4.9842294E-2,1E0,1E0,1E0,1.13E0,1E0,6.64E0,6.39E0,1.28E0,1E0,7.21E0,1E0,1E0,-1.0385617E-1,1E0,1E0,-7.879395E-2,1E0,-8.183784E-2,1E0,6.24E1,1E0,1E0,1E0,1E0,3.91E0,8.256025E-2,1E0,1.21E0,1E0,1E0,1E0,1E0,6.7E0,1E0,1E0,1.44E0,1E0,1E0,1E0,1E0,6.63E1,8.31E0,-9.791432E-2,-8.7056585E-2,-9.066686E-2,-7.526771E-2,-6.129805E-2,-7.412816E-2,-5.689009E-2,-3.7239563E-2,-2.4019012E-2,9.37081E-3,-3.8018666E-2,-1.552254E-2,-2.3507943E-2,-5.1748525E-2,-1.4051861E-2,-4.588615E-2,-3.5161495E-2,-2.496002E-2,-1.3294582E-3,-1.6215933E-2,6.811708E-2,1.4000975E-2,-1.5800405E-2,1.6702993E-2,1.9514939E-2,-2.2084336E-3,4.6639528E-2,2.3578567E-2,-2.1343257E-3,-1.7809028E-2,4.0402724E-3,1.4297132E-2,6.85967E-3,2.7589036E-2,4.2709358E-2,1.3555582E-2,1.2580402E-1,8.3319366E-2,3.576223E-2,6.986813E-2,5.294813E-2,2.9032964E-2,7.1078986E-2,9.763034E-2,1.3085355E-1,1.7830329E-1,1.1257122E-1,7.098238E-2,1.6479702E-1,4.173462E-2,1.2103369E-1,1.6348267E-1],"split_indices":[4,0,4,0,0,18,4,3,22,4,0,17,0,18,4,3,21,18,0,16,7,18,0,15,4,4,0,15,4,18,15,0,16,16,0,17,0,22,1,21,15,15,10,5,0,14,0,14,14,14,7,4,15,13,0,14,10,12,14,1,3,0,0,0,0,0,0,0,0,0,0,0,0,0,0,0,0,0,0,0,0,0,0,0,0,0,0,0,0,0,0,0,0,0,0,0,0,0,0,0,0,0,0,0,0,0,0,0,0,0,0,0,0],"split_type":[0,0,0,0,0,0,0,0,0,0,0,0,0,0,0,0,0,0,0,0,0,0,0,0,0,0,0,0,0,0,0,0,0,0,0,0,0,0,0,0,0,0,0,0,0,0,0,0,0,0,0,0,0,0,0,0,0,0,0,0,0,0,0,0,0,0,0,0,0,0,0,0,0,0,0,0,0,0,0,0,0,0,0,0,0,0,0,0,0,0,0,0,0,0,0,0,0,0,0,0,0,0,0,0,0,0,0,0,0,0,0,0,0],"sum_hessian":[8.239015E3,4.3223105E3,3.9167039E3,2.762103E3,1.5602074E3,2.3984478E3,1.5182561E3,2.0457499E3,7.163532E2,1.0542593E3,5.0594818E2,1.8007942E3,5.976535E2,8.1029913E2,7.0795703E2,1.3407058E3,7.05044E2,6.323386E2,8.401459E1,3.3891037E2,7.153489E2,2.599456E2,2.4600256E2,1.1678257E3,6.329685E2,4.5151617E2,1.4613733E2,6.4650116E2,1.6379793E2,2.4266411E2,4.6529294E2,3.4503018E2,9.9567566E2,6.192018E2,8.584222E1,5.6117365E2,7.116497E1,3.2808063E2,1.0829748E1,4.3487173E2,2.8047714E2,1.9988933E2,6.0056274E1,2.4396423E2,2.0383356E0,1.0991526E3,6.867315E1,4.217049E2,2.1126361E2,1.543227E2,2.9719348E2,1.1569481E2,3.044252E1,5.7351514E2,7.298606E1,3.2325455E1,1.3147247E2,1.787894E2,6.3874706E1,3.704844E2,9.480853E1,9.058383E2,8.983735E1,5.8369727E2,3.5504482E1,3.963007E2,1.6487292E2,2.91099E2,3.698161E1,9.715572E0,1.1141758E0,4.1595602E2,1.8915726E1,2.6821674E2,1.2260398E1,1.8605063E2,1.3838691E1,4.6153385E1,1.3902888E1,1.8634721E2,5.761702E1,9.8821466E2,1.10937935E2,3.96369E1,2.9036243E1,3.788301E2,4.2874767E1,1.6675627E2,4.450734E1,1.445836E2,9.739092E0,1.9908173E2,9.8111755E1,1.0806847E1,1.0488796E2,2.758027E1,2.8622499E0,4.4048932E2,1.330258E2,1.0149172E1,6.2836887E1,2.646803E1,5.857425E0,1.0980065E2,2.1671827E1,1.439801E2,3.4809303E1,5.3110733E1,1.0763972E1,3.6946637E2,1.0180255E0,5.4940132E1,3.98684E1],"tree_param":{"num_deleted":"0","num_feature":"23","num_nodes":"113","size_leaf_vector":"1"}},{"base_weights":[-1.0948403E-2,-6.517884E-1,6.150546E-1,-8.9996463E-1,-3.7329355E-1,3.4715012E-1,1.1405277E0,-9.4805956E-1,-7.785633E-1,-5.539069E-1,-2.4462579E-1,2.2562823E-1,5.5777574E-1,9.873311E-1,1.392649E0,-1.0053628E-1,-9.265035E-1,-8.225115E-1,-6.503122E-1,-5.332136E-1,-7.4817404E-2,-2.8903368E-1,-1.1185155E-1,1.9023065E-1,7.433692E-1,6.3608503E-1,2.8292942E-1,1.0506189E0,7.3491013E-1,1.3956733E0,9.235832E-3,-9.345926E-1,-8.265953E-2,-8.363429E-2,-7.241265E-2,-6.706229E-1,-4.7667682E-2,-4.9060938E-1,-6.544209E-2,-3.3533666E-1,-2.1421222E-1,8.12437E-2,-1.1865976E-1,1.7370965E-1,1.1543424E0,3.631096E-1,8.113834E-1,6.866451E-1,1.704521E-1,2.1433187E-1,4.3529764E-1,1.1539164E0,8.464595E-1,6.490044E-1,8.706789E-1,1.4347025E0,1.2258855E0,-9.469288E-2,-8.4991686E-2,-6.776248E-2,-3.8454346E-2,-4.381468E-2,-5.6269336E-2,-3.2309957E-2,-5.4462988E-2,-1.8919798E-2,-3.598372E-2,-8.094445E-3,-2.229059E-2,1.5628867E-2,8.207344E-2,1.4019863E-1,6.260868E-2,4.1701015E-2,5.294536E-3,9.2177294E-2,5.8990683E-2,7.7064835E-2,2.771236E-2,7.5676935E-3,3.2879148E-2,7.7003995E-3,2.4205994E-2,3.075175E-2,4.9345642E-2,1.21108666E-1,7.146978E-2,7.8962766E-2,1.2538195E-1,6.6772774E-2,2.686644E-2,9.038132E-2,4.382916E-2,1.3811938E-1,1.5786122E-1,1.03038885E-1,1.404964E-1],"categories":[],"categories_nodes":[],"categories_segments":[],"categories_sizes":[],"default_left":[0,0,0,0,0,0,0,0,0,0,0,0,0,0,1,0,0,0,0,0,0,0,0,0,0,0,0,0,0,0,0,0,0,0,0,0,0,0,0,0,0,0,0,0,0,0,0,0,0,0,0,0,0,0,0,0,0,0,0,0,0,0,0,0,0,0,0,0,0,0,0,0,0,0,0,0,0,0,0,0,0,0,0,0,0,0,0,0,0,0,0,0,0,0,0,0,0],"id":5,"left_children":[1,3,5,7,9,11,13,15,17,19,21,23,25,27,29,-1,31,33,35,37,-1,39,41,43,45,47,49,51,53,55,-1,57,-1,-1,-1,59,-1,61,-1,63,65,-1,67,69,71,73,75,77,79,81,83,85,87,89,91,93,95,-1,-1,-1,-1,-1,-1,-1,-1,-1,-1,-1,-1,-1,-1,-1,-1,-1,-1,-1,-1,-1,-1,-1,-1,-1,-1,-1,-1,-1,-1,-1,-1,-1,-1,-1,-1,-1,-1,-1,-1],"loss_changes":[3.2617517E3,2.773506E2,5.7861E2,1.1662231E1,4.3900696E1,6.963599E1,5.2250854E1,9.4189453E-1,2.893341E0,2.7669983E0,6.502922E0,3.1564514E1,2.1267853E1,1.307959E1,1.9250488E0,0E0,1.28479E-1,5.645752E-3,2.4460602E-1,3.3721924E0,0E0,2.8034973E0,1.8547797E0,2.5613579E1,2.5598297E0,1.8122162E1,2.2350922E0,1.3594299E1,1.5009995E0,1.6940918E0,0E0,2.644043E-1,0E0,0E0,0E0,2.1446228E-2,0E0,1.7698212E0,0E0,1.1325493E0,1.0977249E0,0E0,1.0759788E0,1.7845043E1,2.670929E0,2.881329E-1,1.72538E0,2.3816437E1,1.1338432E0,5.737872E-1,3.5498905E-1,1.0585693E1,4.470978E0,6.211891E-1,5.4543304E-1,1.0368042E0,2.2023468E0,0E0,0E0,0E0,0E0,0E0,0E0,0E0,0E0,0E0,0E0,0E0,0E0,0E0,0E0,0E0,0E0,0E0,0E0,0E0,0E0,0E0,0E0,0E0,0E0,0E0,0E0,0E0,0E0,0E0,0E0,0E0,0E0,0E0,0E0,0E0,0E0,0E0,0E0,0E0,0E0],"parents":[2147483647,0,0,1,1,2,2,3,3,4,4,5,5,6,6,7,7,8,8,9,9,10,10,11,11,12,12,13,13,14,14,16,16,17,17,18,18,19,19,21,21,22,22,23,23,24,24,25,25,26,26,27,27,28,28,29,29,31,31,35,35,37,37,39,39,40,40,42,42,43,43,44,44,45,45,46,46,47,47,48,48,49,49,50,50,51,51,52,52,53,53,54,54,55,55,56,56],"right_children":[2,4,6,8,10,12,14,16,18,20,22,24,26,28,30,-1,32,34,36,38,-1,40,42,44,46,48,50,52,54,56,-1,58,-1,-1,-1,60,-1,62,-1,64,66,-1,68,70,72,74,76,78,80,82,84,86,88,90,92,94,96,-1,-1,-1,-1,-1,-1,-1,-1,-1,-1,-1,-1,-1,-1,-1,-1,-1,-1,-1,-1,-1,-1,-1,-1,-1,-1,-1,-1,-1,-1,-1,-1,-1,-1,-1,-1,-1,-1,-1,-1],"split_conditions":[6.14E0,5.1E-1,7.24E0,4.73E0,7E-1,6.68E0,7.88E0,4.32E0,5.02E0,1E0,8E-1,1E0,1E0,1E0,6.74E1,-1.0053628E-1,1E0,1E0,1E0,1E0,-7.4817404E-2,1E0,4.16E0,1E0,6.35E0,1E0,6.98E0,1E0,4.64E0,1E0,9.235832E-3,1E0,-8.265953E-2,-8.363429E-2,-7.241265E-2,1E0,-4.7667682E-2,1E0,-6.544209E-2,1E0,1E0,8.12437E-2,1E0,1E0,1E0,1E0,1E0,1E0,1.28E0,4.1E0,4.34E0,1E0,4.76E0,1E0,1E0,1E0,8.22E0,-9.469288E-2,-8.4991686E-2,-6.776248E-2,-3.8454346E-2,-4.381468E-2,-5.6269336E-2,-3.2309957E-2,-5.4462988E-2,-1.8919798E-2,-3.598372E-2,-8.094445E-3,-2.229059E-2,1.5628867E-2,8.207344E-2,1.4019863E-1,6.260868E-2,4.1701015E-2,5.294536E-3,9.2177294E-2,5.8990683E-2,7.7064835E-2,2.771236E-2,7.5676935E-3,3.2879148E-2,7.7003995E-3,2.4205994E-2,3.075175E-2,4.9345642E-2,1.21108666E-1,7.146978E-2,7.8962766E-2,1.2538195E-1,6.6772774E-2,2.686644E-2,9.038132E-2,4.382916E-2,1.3811938E-1,1.5786122E-1,1.03038885E-1,1.404964E-1],"split_indices":[4,0,4,3,0,4,4,3,4,18,0,22,18,18,1,0,16,21,22,17,0,7,4,16,4,15,4,17,5,15,0,21,0,0,0,16,0,20,0,15,18,0,18,21,12,13,12,14,0,5,5,15,5,15,15,17,4,0,0,0,0,0,0,0,0,0,0,0,0,0,0,0,0,0,0,0,0,0,0,0,0,0,0,0,0,0,0,0,0,0,0,0,0,0,0,0,0],"split_type":[0,0,0,0,0,0,0,0,0,0,0,0,0,0,0,0,0,0,0,0,0,0,0,0,0,0,0,0,0,0,0,0,0,0,0,0,0,0,0,0,0,0,0,0,0,0,0,0,0,0,0,0,0,0,0,0,0,0,0,0,0,0,0,0,0,0,0,0,0,0,0,0,0,0,0,0,0,0,0,0,0,0,0,0,0,0,0,0,0,0,0,0,0,0,0,0,0],"sum_hessian":[8.1286426E3,4.0167004E3,4.111942E3,2.1227842E3,1.8939164E3,2.724538E3,1.3874039E3,1.5155623E3,6.072219E2,7.86536E2,1.1073804E3,1.7290323E3,9.9550586E2,8.660697E2,5.213342E2,4.0180212E2,1.1137601E3,4.4821677E2,1.5900513E2,7.1420374E2,7.233223E1,8.289512E2,2.784292E2,1.6196644E3,1.0936785E2,7.7373785E2,2.2176799E2,6.8992676E2,1.7614293E2,5.200514E2,1.2828559E0,1.0226096E3,9.115048E1,3.8639505E2,6.182172E1,1.3979103E2,1.92141E1,5.32188E2,1.8201581E2,5.099121E2,3.1903906E2,1.1706343E0,2.7725858E2,1.5935378E3,2.6126667E1,1.7555534E1,9.181232E1,6.9752374E2,7.621416E1,1.5458093E2,6.718706E1,4.550404E2,2.3488634E2,1.1142232E2,6.4720604E1,4.1679285E2,1.0325855E2,8.836848E2,1.3892485E2,1.3511539E2,4.675633E0,3.1211194E2,2.2007602E2,4.8414838E2,2.5763718E1,2.7423282E2,4.480625E1,2.04903E2,7.2355576E1,1.5529662E3,4.057167E1,1.666173E1,9.464937E0,1.466292E1,2.8926148E0,5.9162365E1,3.264995E1,5.7806586E2,1.1945788E2,4.8601387E1,2.7612774E1,2.6602869E1,1.2797806E2,2.298171E1,4.420535E1,4.010774E2,5.3963017E1,2.087074E2,2.617893E1,1.0547445E2,5.947872E0,5.9101334E1,5.619271E0,3.115496E2,1.0524323E2,5.2595207E1,5.0663345E1],"tree_param":{"num_deleted":"0","num_feature":"23","num_nodes":"97","size_leaf_vector":"1"}},{"base_weights":[-1.1148311E-2,-6.310858E-1,5.321115E-1,-8.9039093E-1,-3.8099897E-1,2.733615E-1,9.6596587E-1,-9.3156755E-1,-8.087283E-1,-5.361059E-1,-2.4046168E-1,5.255595E-2,3.5159215E-1,7.8854E-1,1.1841635E0,-9.8986164E-2,-9.1170645E-1,-8.226232E-1,-7.056225E-2,-5.1557046E-1,-7.255629E-2,-2.7674928E-1,-1.5717924E-1,9.7294904E-2,-6.7014165E-2,4.2660794E-1,1.0663146E-1,8.463261E-1,5.010682E-1,1.0651709E0,1.2852323E0,-9.2144054E-1,-8.039089E-2,-8.3171725E-1,-6.56571E-2,-4.7366568E-1,-6.3383125E-2,-2.5191358E-1,-4.0305447E-2,8.0242045E-2,-1.6300645E-1,3.4763046E-2,2.0192587E-1,-1.12531096E-1,-2.6496278E-2,5.173405E-1,2.3924392E-1,3.8902085E-2,2.1055192E-1,9.311525E-1,5.792085E-1,2.2079344E-1,5.354336E-1,9.981137E-1,1.3024573E0,6.37576E-2,1.2925241E0,-9.350398E-2,-8.333529E-2,-8.477857E-2,-7.398276E-2,-4.252198E-2,-5.3942777E-2,-2.032621E-2,-3.4057803E-2,-1.4748297E-2,-3.999422E-2,5.264483E-3,-2.6053486E-2,2.3933608E-2,-1.2786575E-3,-2.1022936E-2,-9.968013E-3,-1.7128055E-3,-2.1082018E-2,5.7876624E-2,1.7740494E-2,2.0077003E-2,3.904472E-2,4.8750574E-3,-1.4476192E-2,7.180908E-3,2.3453563E-2,1.0175698E-1,4.6380278E-2,4.8579436E-2,6.9901995E-2,1.0797462E-2,2.4601532E-2,4.620396E-2,6.1525803E-2,9.313937E-2,1.3542518E-1,1.3680771E-1,8.5120745E-2,1.3290642E-1,1.149017E-1],"categories":[],"categories_nodes":[],"categories_segments":[],"categories_sizes":[],"default_left":[0,0,0,0,0,0,0,0,0,0,0,0,0,0,0,0,0,0,0,0,0,0,0,0,0,0,0,0,0,0,0,0,0,0,0,0,0,0,0,0,0,0,0,0,0,0,0,0,0,0,0,0,0,0,0,0,0,0,0,0,0,0,0,0,0,0,0,0,0,0,0,0,0,0,0,0,0,0,0,0,0,0,0,0,0,0,0,0,0,0,0,0,0,0,0,0,0],"id":6,"left_children":[1,3,5,7,9,11,13,15,17,19,21,23,25,27,29,-1,31,33,-1,35,-1,37,39,41,43,45,47,49,51,53,55,57,-1,59,-1,61,-1,63,-1,-1,65,67,69,71,73,75,77,79,81,83,85,87,89,91,93,-1,95,-1,-1,-1,-1,-1,-1,-1,-1,-1,-1,-1,-1,-1,-1,-1,-1,-1,-1,-1,-1,-1,-1,-1,-1,-1,-1,-1,-1,-1,-1,-1,-1,-1,-1,-1,-1,-1,-1,-1,-1],"loss_changes":[2.6988748E3,2.4236768E2,4.791903E2,5.4227295E0,4.143921E1,4.6219086E1,6.082202E1,5.036621E-1,3.1240845E-1,3.1495056E0,2.9854927E0,3.7588258E0,3.6271088E1,1.424054E1,7.2106934E0,0E0,2.2302246E-1,2.7426147E-1,0E0,3.76622E0,0E0,2.0841904E0,1.8446198E0,3.3353877E0,3.503465E-1,2.5591278E1,3.2623239E0,1.6082642E1,1.3284988E0,4.0064087E0,9.747925E-1,2.2174072E-1,0E0,1.2765503E-1,0E0,1.7134857E0,0E0,2.454071E0,0E0,0E0,1.0645533E0,1.7085489E0,1.5363836E0,9.193778E-2,1.7367104E-1,2.1159546E1,2.8034306E0,5.181254E-1,5.925007E-1,2.1947876E1,1.6688881E0,2.4960399E-2,4.9549103E-1,5.0185547E0,9.1413116E-1,0E0,4.4293213E-1,0E0,0E0,0E0,0E0,0E0,0E0,0E0,0E0,0E0,0E0,0E0,0E0,0E0,0E0,0E0,0E0,0E0,0E0,0E0,0E0,0E0,0E0,0E0,0E0,0E0,0E0,0E0,0E0,0E0,0E0,0E0,0E0,0E0,0E0,0E0,0E0,0E0,0E0,0E0,0E0],"parents":[2147483647,0,0,1,1,2,2,3,3,4,4,5,5,6,6,7,7,8,8,9,9,10,10,11,11,12,12,13,13,14,14,16,16,17,17,19,19,21,21,22,22,23,23,24,24,25,25,26,26,27,27,28,28,29,29,30,30,31,31,33,33,35,35,37,37,40,40,41,41,42,42,43,43,44,44,45,45,46,46,47,47,48,48,49,49,50,50,51,51,52,52,53,53,54,54,56,56],"right_children":[2,4,6,8,10,12,14,16,18,20,22,24,26,28,30,-1,32,34,-1,36,-1,38,40,42,44,46,48,50,52,54,56,58,-1,60,-1,62,-1,64,-1,-1,66,68,70,72,74,76,78,80,82,84,86,88,90,92,94,-1,96,-1,-1,-1,-1,-1,-1,-1,-1,-1,-1,-1,-1,-1,-1,-1,-1,-1,-1,-1,-1,-1,-1,-1,-1,-1,-1,-1,-1,-1,-1,-1,-1,-1,-1,-1,-1,-1,-1,-1,-1],"split_conditions":[6.09E0,5E-1,7.07E0,4.63E0,7E-1,6.38E0,1.7E0,4.3E0,1E0,1E0,7.6E-1,1E0,1E0,1E0,8.08E0,-9.8986164E-2,1E0,1E0,-7.056225E-2,1E0,-7.255629E-2,1E0,3.94E0,6.3E0,6.25E0,1E0,6.68E0,1E0,1.5E0,1E0,5.76E1,1E0,-8.039089E-2,1E0,-6.56571E-2,1E0,-6.3383125E-2,1E0,-4.0305447E-2,8.0242045E-2,1E0,1E0,1E0,9E-1,1E0,1E0,6.82E0,1E0,4.1E0,1E0,7.39E0,5.98E1,7.41E0,1E0,1E0,6.37576E-2,1E0,-9.350398E-2,-8.333529E-2,-8.477857E-2,-7.398276E-2,-4.252198E-2,-5.3942777E-2,-2.032621E-2,-3.4057803E-2,-1.4748297E-2,-3.999422E-2,5.264483E-3,-2.6053486E-2,2.3933608E-2,-1.2786575E-3,-2.1022936E-2,-9.968013E-3,-1.7128055E-3,-2.1082018E-2,5.7876624E-2,1.7740494E-2,2.0077003E-2,3.904472E-2,4.8750574E-3,-1.4476192E-2,7.180908E-3,2.3453563E-2,1.0175698E-1,4.6380278E-2,4.8579436E-2,6.9901995E-2,1.0797462E-2,2.4601532E-2,4.620396E-2,6.1525803E-2,9.313937E-2,1.3542518E-1,1.3680771E-1,8.5120745E-2,1.3290642E-1,1.149017E-1],"split_indices":[4,0,4,3,0,4,0,3,21,18,0,18,18,14,4,0,16,16,0,17,0,18,3,4,4,17,4,13,0,20,1,21,0,22,0,20,0,17,0,0,15,15,13,0,15,13,4,15,5,15,4,1,4,19,15,0,15,0,0,0,0,0,0,0,0,0,0,0,0,0,0,0,0,0,0,0,0,0,0,0,0,0,0,0,0,0,0,0,0,0,0,0,0,0,0,0,0],"split_type":[0,0,0,0,0,0,0,0,0,0,0,0,0,0,0,0,0,0,0,0,0,0,0,0,0,0,0,0,0,0,0,0,0,0,0,0,0,0,0,0,0,0,0,0,0,0,0,0,0,0,0,0,0,0,0,0,0,0,0,0,0,0,0,0,0,0,0,0,0,0,0,0,0,0,0,0,0,0,0,0,0,0,0,0,0,0,0,0,0,0,0,0,0,0,0,0,0],"sum_hessian":[8.0115957E3,3.7416611E3,4.2699346E3,1.8357179E3,1.9059432E3,2.6757512E3,1.5941832E3,1.2134525E3,6.222654E2,9.046703E2,1.00127295E3,7.004388E2,1.9753125E3,8.8178217E2,7.1240106E2,2.9595645E2,9.1749603E2,5.4221606E2,8.004935E1,8.1955884E2,8.511143E1,6.957846E2,3.0548834E2,5.098551E2,1.9058366E2,1.5116495E3,4.636629E2,7.32579E2,1.4920322E2,3.3248782E2,3.7991324E2,8.3458545E2,8.2910576E1,5.1026212E2,3.1953936E1,6.088299E2,2.1072893E2,5.8395465E2,1.1182996E2,1.0187753E0,3.0446957E2,3.1996365E2,1.8989145E2,8.891788E1,1.0166579E2,1.01726807E3,4.9438147E2,2.8154343E2,1.8211946E2,5.541242E2,1.7845474E2,1.7107117E1,1.320961E2,2.632888E2,6.9199036E1,5.2143803E0,3.7469888E2,7.146415E2,1.1994396E2,4.2731296E2,8.294916E1,3.548693E2,2.5396062E2,3.7918356E2,2.0477106E2,2.8727072E2,1.7198874E1,3.0246933E2,1.7494322E1,1.6161751E2,2.8273941E1,8.5509615E0,8.036691E1,9.778862E1,3.877163E0,8.6098676E2,1.5628136E2,3.959573E2,9.842417E1,2.6791193E2,1.3631491E1,2.7430655E1,1.5468881E2,4.666576E2,8.746664E1,1.0311394E2,7.534081E1,4.0906057E0,1.3016511E1,7.235658E1,5.9739517E1,2.2479105E2,3.849775E1,5.8639996E1,1.0559044E1,2.9207016E2,8.2628716E1],"tree_param":{"num_deleted":"0","num_feature":"23","num_nodes":"97","size_leaf_vector":"1"}},{"base_weights":[-1.1208816E-2,-6.04354E-1,4.676399E-1,-8.5872656E-1,-3.567422E-1,2.2290374E-1,8.365056E-1,-9.032403E-1,-7.6798105E-1,-5.036578E-1,-2.2897841E-1,1.8983208E-1,6.638946E-1,6.734364E-1,1.0558455E0,-9.61441E-2,-8.810549E-1,-7.849997E-1,-6.692855E-2,-4.8472986E-1,-6.760702E-1,-2.1567051E-1,-4.804906E-2,1.7451438E-1,9.9552786E-1,4.0436715E-1,7.368657E-1,7.349603E-1,4.3158054E-1,9.055366E-1,1.1352707E0,-8.908938E-1,-7.70659E-2,-7.9819894E-1,-6.8411104E-2,-4.485526E-1,-5.9112865E-1,-6.895998E-2,-3.8619574E-2,-1.9435048E-1,-3.8303995E-1,1.5362744E-1,7.926987E-1,1.1694865E0,6.502368E-1,4.3461046E-1,-1.3298841E-2,7.7010405E-1,2.71978E-1,7.9346555E-1,4.4079816E-1,2.762647E-1,4.7879168E-1,8.4067947E-1,1.1537911E0,1.1728599E0,9.806593E-1,-9.049862E-2,-7.991395E-2,-8.065237E-2,-6.343615E-2,-4.0682852E-2,-5.0530195E-2,-5.9996348E-2,-3.262638E-2,-1.6254276E-2,-3.2690786E-2,-4.0418707E-2,-2.925992E-2,-1.1227387E-4,2.1047162E-2,4.012682E-2,8.811223E-2,1.2626134E-1,1.8037647E-2,4.379868E-2,7.629024E-2,4.8588004E-2,7.921948E-3,8.887017E-2,5.8206618E-2,3.4876615E-2,4.8780767E-3,8.538878E-2,4.0456463E-2,2.7981717E-2,5.073759E-2,-2.2570295E-3,2.9108608E-2,5.0791778E-2,3.159068E-2,8.473692E-2,-1.857367E-2,1.2864248E-1,7.209984E-2,1.1220785E-1,1.3115622E-1,8.6095676E-2,1.24290265E-1],"categories":[],"categories_nodes":[],"categories_segments":[],"categories_sizes":[],"default_left":[0,0,0,0,0,0,0,0,0,0,0,0,0,0,0,0,0,0,0,0,0,0,0,0,0,0,0,0,0,0,0,0,0,0,0,0,0,0,0,0,0,0,0,0,0,0,0,0,0,0,0,0,0,0,0,0,0,0,0,0,0,0,0,0,0,0,0,0,0,0,0,0,0,0,0,0,0,0,0,0,0,0,0,0,0,0,0,0,0,0,0,0,0,0,0,0,0,0,0],"id":7,"left_children":[1,3,5,7,9,11,13,15,17,19,21,23,25,27,29,-1,31,33,-1,35,37,39,-1,41,43,45,47,49,51,53,55,57,-1,59,-1,61,63,-1,-1,65,67,69,71,73,75,77,-1,79,81,83,85,87,89,91,93,95,97,-1,-1,-1,-1,-1,-1,-1,-1,-1,-1,-1,-1,-1,-1,-1,-1,-1,-1,-1,-1,-1,-1,-1,-1,-1,-1,-1,-1,-1,-1,-1,-1,-1,-1,-1,-1,-1,-1,-1,-1,-1,-1],"loss_changes":[2.2424084E3,2.2182117E2,3.941723E2,6.3302E0,3.346086E1,3.8193314E1,6.1595825E1,6.5185547E-1,4.4708252E-1,2.3848114E0,3.1048355E0,3.0007698E1,3.1657104E0,1.4591339E1,7.819153E0,0E0,2.3931885E-1,1.0379028E-1,0E0,2.6314087E0,4.6218872E-2,3.1806679E0,0E0,3.0881523E1,1.9674149E0,7.4612427E-1,1.9776535E0,1.337207E1,1.37537E0,3.2348175E0,1.6447754E0,2.8063965E-1,0E0,6.878662E-2,0E0,1.1339111E0,2.4370575E-1,0E0,0E0,3.3670902E0,7.6898575E-2,2.0442688E1,2.3543205E0,2.4386635E0,8.3548546E-2,6.963959E-1,0E0,2.4163895E0,1.7135304E-1,1.5252594E1,1.2997723E0,2.2932625E-1,5.8112717E-1,1.6044312E0,2.0235062E0,1.2172852E0,2.0739746E0,0E0,0E0,0E0,0E0,0E0,0E0,0E0,0E0,0E0,0E0,0E0,0E0,0E0,0E0,0E0,0E0,0E0,0E0,0E0,0E0,0E0,0E0,0E0,0E0,0E0,0E0,0E0,0E0,0E0,0E0,0E0,0E0,0E0,0E0,0E0,0E0,0E0,0E0,0E0,0E0,0E0,0E0],"parents":[2147483647,0,0,1,1,2,2,3,3,4,4,5,5,6,6,7,7,8,8,9,9,10,10,11,11,12,12,13,13,14,14,16,16,17,17,19,19,20,20,21,21,23,23,24,24,25,25,26,26,27,27,28,28,29,29,30,30,31,31,33,33,35,35,36,36,39,39,40,40,41,41,42,42,43,43,44,44,45,45,47,47,48,48,49,49,50,50,51,51,52,52,53,53,54,54,55,55,56,56],"right_children":[2,4,6,8,10,12,14,16,18,20,22,24,26,28,30,-1,32,34,-1,36,38,40,-1,42,44,46,48,50,52,54,56,58,-1,60,-1,62,64,-1,-1,66,68,70,72,74,76,78,-1,80,82,84,86,88,90,92,94,96,98,-1,-1,-1,-1,-1,-1,-1,-1,-1,-1,-1,-1,-1,-1,-1,-1,-1,-1,-1,-1,-1,-1,-1,-1,-1,-1,-1,-1,-1,-1,-1,-1,-1,-1,-1,-1,-1,-1,-1,-1,-1,-1],"split_conditions":[9E-1,5.05E0,6.98E0,4.65E0,5.56E0,1E0,7.59E0,4.31E0,4.9E0,1E0,1E0,1E0,6.42E0,1E0,7.97E0,-9.61441E-2,1E0,1E0,-6.692855E-2,1E0,7E-1,1E0,-4.804906E-2,1E0,1E0,1E0,1E0,1E0,4.42E0,1E0,1E0,1E0,-7.70659E-2,1E0,-6.8411104E-2,1E0,6.6E-1,-6.895998E-2,-3.8619574E-2,1E0,5.89E0,6.36E0,1.01E0,1E0,6.53E0,1E0,-1.3298841E-2,1E0,5.71E1,1E0,7.25E0,5.8E1,1E0,2.14E0,1E0,1E0,5.19E0,-9.049862E-2,-7.991395E-2,-8.065237E-2,-6.343615E-2,-4.0682852E-2,-5.0530195E-2,-5.9996348E-2,-3.262638E-2,-1.6254276E-2,-3.2690786E-2,-4.0418707E-2,-2.925992E-2,-1.1227387E-4,2.1047162E-2,4.012682E-2,8.811223E-2,1.2626134E-1,1.8037647E-2,4.379868E-2,7.629024E-2,4.8588004E-2,7.921948E-3,8.887017E-2,5.8206618E-2,3.4876615E-2,4.8780767E-3,8.538878E-2,4.0456463E-2,2.7981717E-2,5.073759E-2,-2.2570295E-3,2.9108608E-2,5.0791778E-2,3.159068E-2,8.473692E-2,-1.857367E-2,1.2864248E-1,7.209984E-2,1.1220785E-1,1.3115622E-1,8.6095676E-2,1.24290265E-1],"split_indices":[0,4,4,3,4,22,4,3,3,18,15,16,4,18,4,0,16,21,0,17,0,14,0,21,12,15,13,14,5,12,15,21,0,16,0,20,0,0,0,18,4,4,0,13,3,13,0,12,2,15,3,1,14,0,18,17,5,0,0,0,0,0,0,0,0,0,0,0,0,0,0,0,0,0,0,0,0,0,0,0,0,0,0,0,0,0,0,0,0,0,0,0,0,0,0,0,0,0,0],"split_type":[0,0,0,0,0,0,0,0,0,0,0,0,0,0,0,0,0,0,0,0,0,0,0,0,0,0,0,0,0,0,0,0,0,0,0,0,0,0,0,0,0,0,0,0,0,0,0,0,0,0,0,0,0,0,0,0,0,0,0,0,0,0,0,0,0,0,0,0,0,0,0,0,0,0,0,0,0,0,0,0,0,0,0,0,0,0,0,0,0,0,0,0,0,0,0,0,0,0,0],"sum_hessian":[7.8930635E3,3.5256335E3,4.3674297E3,1.7378578E3,1.7877756E3,2.6264375E3,1.7409926E3,1.1599229E3,5.7793494E2,8.301937E2,9.575819E2,2.444542E3,1.8189548E2,1.0009227E3,7.4006976E2,3.084383E2,8.514846E2,4.8700418E2,9.093072E1,7.515029E2,7.869078E1,9.112251E2,4.63568E1,2.400128E3,4.4414078E1,4.1354904E1,1.4054057E2,7.963152E2,2.0460757E2,2.6014905E2,4.799207E2,7.753153E2,7.6169304E1,4.2454892E2,6.2455257E1,5.6470874E2,1.8679417E2,7.3864265E1,4.82651E0,8.1018274E2,1.0104237E2,2.3228916E3,7.723632E1,2.7947227E1,1.646685E1,3.9332413E1,2.022492E0,1.3055002E2,9.99056E0,6.627959E2,1.3351929E2,4.929334E1,1.5531424E2,2.0974023E2,5.0408813E1,3.807633E2,9.915738E1,6.6440686E2,1.1090843E2,4.0028723E2,2.4261703E1,3.3014426E2,2.3456451E2,1.7954024E2,7.253937E0,6.551926E2,1.5499013E2,7.908208E1,2.1960293E1,6.2430096E2,1.6985906E3,1.5252971E1,6.198335E1,2.528964E1,2.6575868E0,7.404695E0,9.062155E0,3.405271E1,5.2797017E0,7.77721E1,5.2777912E1,7.0146623E0,2.9758973E0,5.726323E2,9.016358E1,4.058647E1,9.293281E1,2.3045795E0,4.6988758E1,1.2995773E2,2.5356512E1,2.085554E2,1.1848315E0,3.707455E1,1.3334262E1,2.853729E2,9.539042E1,7.102201E1,2.813537E1],"tree_param":{"num_deleted":"0","num_feature":"23","num_nodes":"99","size_leaf_vector":"1"}},{"base_weights":[-1.10529475E-2,-5.716011E-1,4.1730273E-1,-8.3031505E-1,-3.3016193E-1,2.3736635E-1,8.264214E-1,-8.7802345E-1,-7.382638E-1,-4.717138E-1,-2.09683E-1,1.3114387E-1,3.889897E-1,7.0388323E-1,1.016999E0,-9.4413936E-2,-8.561974E-1,-7.555315E-1,-6.3577704E-2,-4.5319042E-1,-6.4299446E-1,-2.5613353E-1,-1.3944799E-1,1.06611595E-1,4.9491188E-1,3.5542512E-1,7.650875E-1,6.559297E-1,9.488806E-1,9.8416275E-1,1.1989715E0,-8.667646E-1,-7.426732E-2,-7.693827E-1,-6.530326E-2,-4.180248E-1,-5.57809E-1,-6.563934E-2,-3.6283057E-2,-2.4421461E-1,-4.5664668E-2,-1.1820476E-1,-2.992658E-1,9.491491E-2,7.903768E-1,5.2687794E-1,1.05831E-1,3.2949883E-1,9.1002893E-1,7.96144E-1,1.9589029E-1,5.742187E-1,8.332755E-1,8.831726E-1,1.4339031E-1,9.2956144E-1,1.1088054E0,1.2860332E-1,9.9122787E-1,-8.81153E-2,-7.73624E-2,-7.779452E-2,-5.9591353E-2,-3.7776504E-2,-4.7323145E-2,-5.8156323E-2,-4.3813046E-2,-2.263576E-2,-3.9131556E-2,-1.0329906E-2,-4.060523E-2,-3.3179596E-2,-2.2119535E-2,6.6564875E-3,2.8852263E-2,9.479879E-2,4.360891E-2,6.317468E-2,3.4177907E-2,-3.5307852E-3,1.2876808E-2,3.1167228E-2,1.0490276E-1,1.0603805E-1,6.790517E-2,8.464802E-2,3.516888E-2,3.0118239E-3,2.4004724E-2,5.2521385E-2,1.07967995E-1,7.5629964E-2,1.23856544E-1,7.6626E-2,1.12842694E-1,7.149242E-2,9.739541E-2,1.1861954E-1,7.7048235E-2,8.0592275E-2,1.2215394E-1],"categories":[],"categories_nodes":[],"categories_segments":[],"categories_sizes":[],"default_left":[0,0,0,0,0,0,0,0,0,0,0,0,0,0,0,0,0,0,0,0,0,0,0,0,0,0,0,0,0,0,0,0,0,0,0,0,0,0,0,0,0,0,0,0,0,0,0,0,0,0,0,0,0,0,0,0,0,0,0,0,0,0,0,0,0,0,0,0,0,0,0,0,0,0,0,0,0,0,0,0,0,0,0,0,0,0,0,0,0,0,0,0,0,0,0,0,0,0,0,0,0],"id":8,"left_children":[1,3,5,7,9,11,13,15,17,19,21,23,25,27,29,-1,31,33,-1,35,37,39,41,43,45,47,49,51,53,55,57,59,-1,61,-1,63,65,-1,-1,67,-1,69,71,73,75,77,79,81,83,85,87,89,91,93,-1,95,97,-1,99,-1,-1,-1,-1,-1,-1,-1,-1,-1,-1,-1,-1,-1,-1,-1,-1,-1,-1,-1,-1,-1,-1,-1,-1,-1,-1,-1,-1,-1,-1,-1,-1,-1,-1,-1,-1,-1,-1,-1,-1,-1,-1],"loss_changes":[1.8670543E3,2.1011157E2,3.2426892E2,6.489258E0,2.9641449E1,4.927484E1,3.0716492E1,7.2875977E-1,5.1257324E-1,2.25E0,3.0436172E0,1.603235E1,1.5648529E1,9.040314E0,1.9539795E0,0E0,3.2977295E-1,1.7175293E-1,0E0,2.4386292E0,4.6333313E-2,1.2433968E0,1.247725E0,1.343998E1,1.3571453E0,1.6375366E1,1.655304E0,9.53598E0,2.9529114E0,2.0312195E0,9.247589E-2,3.0529785E-1,0E0,1.4944458E-1,0E0,1.0381546E0,2.5608826E-1,0E0,0E0,1.3227348E0,0E0,1.3964458E0,3.7561893E-2,9.106221E0,1.1659775E0,1.8169136E0,3.651829E-2,1.3904076E1,1.0588608E0,1.8687172E0,4.128465E-2,1.1231293E1,5.7944794E0,2.5531921E0,0E0,2.343567E0,2.5385895E0,0E0,1.5446663E-1,0E0,0E0,0E0,0E0,0E0,0E0,0E0,0E0,0E0,0E0,0E0,0E0,0E0,0E0,0E0,0E0,0E0,0E0,0E0,0E0,0E0,0E0,0E0,0E0,0E0,0E0,0E0,0E0,0E0,0E0,0E0,0E0,0E0,0E0,0E0,0E0,0E0,0E0,0E0,0E0,0E0,0E0],"parents":[2147483647,0,0,1,1,2,2,3,3,4,4,5,5,6,6,7,7,8,8,9,9,10,10,11,11,12,12,13,13,14,14,16,16,17,17,19,19,20,20,21,21,22,22,23,23,24,24,25,25,26,26,27,27,28,28,29,29,30,30,31,31,33,33,35,35,36,36,39,39,41,41,42,42,43,43,44,44,45,45,46,46,47,47,48,48,49,49,50,50,51,51,52,52,53,53,55,55,56,56,58,58],"right_children":[2,4,6,8,10,12,14,16,18,20,22,24,26,28,30,-1,32,34,-1,36,38,40,42,44,46,48,50,52,54,56,58,60,-1,62,-1,64,66,-1,-1,68,-1,70,72,74,76,78,80,82,84,86,88,90,92,94,-1,96,98,-1,100,-1,-1,-1,-1,-1,-1,-1,-1,-1,-1,-1,-1,-1,-1,-1,-1,-1,-1,-1,-1,-1,-1,-1,-1,-1,-1,-1,-1,-1,-1,-1,-1,-1,-1,-1,-1,-1,-1,-1,-1,-1,-1],"split_conditions":[9E-1,5.05E0,7.29E0,3.8E-1,5.56E0,6.64E0,7.88E0,4.3E0,4.9E0,1E0,1E0,1E0,1E0,1E0,1E0,-9.4413936E-2,1E0,1E0,-6.3577704E-2,1E0,7E-1,1E0,1E0,1E0,1E0,1E0,1E0,1E0,1E0,1E0,1E0,1E0,-7.426732E-2,1E0,-6.530326E-2,1E0,5.9E-1,-6.563934E-2,-3.6283057E-2,1E0,-4.5664668E-2,1E0,5.85E0,1E0,1E0,1E0,6.1E1,1E0,1E0,1E0,6.84E0,1E0,1E0,1E0,1.4339031E-1,1E0,1E0,1.2860332E-1,2.14E0,-8.81153E-2,-7.73624E-2,-7.779452E-2,-5.9591353E-2,-3.7776504E-2,-4.7323145E-2,-5.8156323E-2,-4.3813046E-2,-2.263576E-2,-3.9131556E-2,-1.0329906E-2,-4.060523E-2,-3.3179596E-2,-2.2119535E-2,6.6564875E-3,2.8852263E-2,9.479879E-2,4.360891E-2,6.317468E-2,3.4177907E-2,-3.5307852E-3,1.2876808E-2,3.1167228E-2,1.0490276E-1,1.0603805E-1,6.790517E-2,8.464802E-2,3.516888E-2,3.0118239E-3,2.4004724E-2,5.2521385E-2,1.07967995E-1,7.5629964E-2,1.23856544E-1,7.6626E-2,1.12842694E-1,7.149242E-2,9.739541E-2,1.1861954E-1,7.7048235E-2,8.0592275E-2,1.2215394E-1],"split_indices":[0,4,4,0,4,4,4,3,3,18,7,22,22,19,20,0,16,21,0,17,0,15,14,16,13,21,14,20,11,17,15,21,0,16,0,20,0,0,0,14,0,15,4,19,12,12,1,16,12,13,4,22,11,12,0,18,15,0,0,0,0,0,0,0,0,0,0,0,0,0,0,0,0,0,0,0,0,0,0,0,0,0,0,0,0,0,0,0,0,0,0,0,0,0,0,0,0,0,0,0,0],"split_type":[0,0,0,0,0,0,0,0,0,0,0,0,0,0,0,0,0,0,0,0,0,0,0,0,0,0,0,0,0,0,0,0,0,0,0,0,0,0,0,0,0,0,0,0,0,0,0,0,0,0,0,0,0,0,0,0,0,0,0,0,0,0,0,0,0,0,0,0,0,0,0,0,0,0,0,0,0,0,0,0,0,0,0,0,0,0,0,0,0,0,0,0,0,0,0,0,0,0,0,0,0],"sum_hessian":[7.7737065E3,3.3671304E3,4.406576E3,1.6242391E3,1.7428912E3,3.061614E3,1.3449624E3,1.0641647E3,5.6007446E2,8.000222E2,9.42869E2,1.8014443E3,1.2601698E3,8.214668E2,5.234956E2,2.536238E2,8.1054083E2,4.7386282E2,8.621164E1,7.252364E2,7.478581E1,5.659357E2,3.769333E2,1.6888429E3,1.1260135E2,1.1587069E3,1.01462875E2,6.900751E2,1.3139172E2,4.4890137E2,7.459422E1,7.354481E2,7.509275E1,4.1171878E2,6.214406E1,5.4652716E2,1.7870924E2,7.009081E1,4.6950016E0,5.362763E2,2.9659428E1,3.3424463E2,4.2688675E1,1.6615586E3,2.7284286E1,1.0372533E2,8.8760195E0,1.1084823E3,5.022454E1,9.583521E1,5.627667E0,4.7531458E2,2.1476047E2,1.18199615E2,1.3192117E1,3.1803842E2,1.3086293E2,4.89075E1,2.5686722E1,6.2971E2,1.0573807E2,3.8903143E2,2.2687319E1,3.205828E2,2.2594438E2,1.4589258E2,3.281667E1,4.8048734E2,5.5788986E1,3.1908044E2,1.5164182E1,2.7838894E1,1.4849782E1,1.4505046E3,2.11054E2,1.772379E1,9.560496E0,6.467202E1,3.905331E1,1.1654309E0,7.7105885E0,1.0830818E3,2.540057E1,2.824681E1,2.1977728E1,8.527318E1,1.0562033E1,1.537547E0,4.09012E0,4.3516415E2,4.015043E1,1.8289052E2,3.1869953E1,8.283608E1,3.5363525E1,5.7436966E1,2.6060147E2,1.04461685E2,2.640125E1,1.6727394E1,8.959328E0],"tree_param":{"num_deleted":"0","num_feature":"23","num_nodes":"101","size_leaf_vector":"1"}},{"base_weights":[-1.0718499E-2,-5.335547E-1,3.782114E-1,-8.05608E-1,-3.0273446E-1,1.9945964E-1,7.107319E-1,-8.5888857E-1,-7.239593E-1,-4.4068107E-1,-1.8581064E-1,9.448267E-2,2.9276976E-1,5.9773004E-1,9.255148E-1,-9.21763E-2,-8.353755E-1,-7.001998E-1,-8.034385E-2,-4.213799E-1,-6.275009E-2,-1.9606836E-1,4.617434E-2,1.4191395E-1,-4.483598E-2,3.5187122E-1,9.3962714E-2,5.499432E-1,8.50213E-1,9.4475245E-1,5.095376E-1,-8.466188E-1,-7.162352E-2,-6.81472E-1,-8.483664E-2,-3.8238272E-1,-5.35385E-1,-2.3658192E-1,-1.34229E-1,1.1788267E-1,-2.2491919E-1,1.6732709E-1,-1.5554626E-1,-3.668029E-2,-2.2386255E-2,3.8345662E-1,-2.2378065E-2,3.578633E-2,1.6790956E-1,4.641808E-1,7.4243015E-1,9.1378886E-1,4.611602E-2,9.767733E-1,8.089906E-1,4.2511508E-1,9.251197E-2,-8.6305015E-2,-7.478826E-2,-7.205692E-2,-6.353196E-2,-4.2340305E-2,-3.081878E-2,-5.7332672E-2,-4.844307E-2,-2.394741E-2,5.274679E-2,-1.0709433E-2,-2.2495685E-2,1.9247098E-2,-8.787814E-3,-2.4073025E-2,-5.951075E-3,2.099044E-2,-3.0228163E-3,-1.7638741E-2,-1.025987E-2,-8.538228E-3,-5.396174E-4,4.3418974E-2,8.5344585E-3,-1.14210835E-2,6.7563704E-3,2.825499E-4,9.31934E-3,1.8549426E-2,-7.3394476E-4,4.1946527E-2,9.2086844E-2,8.1466496E-2,3.998218E-2,1.0414515E-1,5.522591E-2,9.280547E-2,1.110219E-1,6.998127E-2,1.1022364E-1,1.9791348E-2,6.5298654E-2],"categories":[],"categories_nodes":[],"categories_segments":[],"categories_sizes":[],"default_left":[0,0,0,0,0,0,0,0,0,0,0,0,0,0,1,0,0,0,0,0,0,0,0,0,0,0,0,0,0,0,0,0,0,0,0,0,0,0,0,0,0,0,0,0,0,0,0,0,0,0,0,0,0,0,0,0,0,0,0,0,0,0,0,0,0,0,0,0,0,0,0,0,0,0,0,0,0,0,0,0,0,0,0,0,0,0,0,0,0,0,0,0,0,0,0,0,0,0,0],"id":9,"left_children":[1,3,5,7,9,11,13,15,17,19,21,23,25,27,29,-1,31,33,-1,35,-1,37,39,41,43,45,47,49,51,53,55,57,-1,59,-1,61,63,65,67,69,71,73,75,77,-1,79,81,83,85,87,89,91,-1,93,95,97,-1,-1,-1,-1,-1,-1,-1,-1,-1,-1,-1,-1,-1,-1,-1,-1,-1,-1,-1,-1,-1,-1,-1,-1,-1,-1,-1,-1,-1,-1,-1,-1,-1,-1,-1,-1,-1,-1,-1,-1,-1,-1,-1],"loss_changes":[1.5576969E3,2.0494818E2,2.6095325E2,5.9003906E0,2.8456894E1,2.7970543E1,3.6711975E1,5.632324E-1,5.6744385E-1,2.6598816E0,2.2920609E0,8.904356E0,1.7741531E1,1.1705078E1,3.7398682E0,0E0,2.871399E-1,7.21756E-1,0E0,3.0767517E0,0E0,2.2705383E0,8.319905E-1,7.621557E0,4.9224317E-1,1.3788544E1,1.491174E0,1.3706512E1,3.5046844E0,1.3964233E0,5.00927E-1,3.345642E-1,0E0,3.0181885E-1,0E0,1.5539856E0,8.1134796E-2,1.3503113E0,8.77089E-1,5.298744E-1,9.241104E-3,7.796749E0,6.9744706E-2,5.008318E-1,0E0,1.6222382E1,7.648913E-1,3.7070495E-1,4.727707E-1,1.1692474E1,6.1256256E0,5.67482E0,0E0,1.5844116E0,2.4884644E0,1.0633063E0,0E0,0E0,0E0,0E0,0E0,0E0,0E0,0E0,0E0,0E0,0E0,0E0,0E0,0E0,0E0,0E0,0E0,0E0,0E0,0E0,0E0,0E0,0E0,0E0,0E0,0E0,0E0,0E0,0E0,0E0,0E0,0E0,0E0,0E0,0E0,0E0,0E0,0E0,0E0,0E0,0E0,0E0,0E0],"parents":[2147483647,0,0,1,1,2,2,3,3,4,4,5,5,6,6,7,7,8,8,9,9,10,10,11,11,12,12,13,13,14,14,16,16,17,17,19,19,21,21,22,22,23,23,24,24,25,25,26,26,27,27,28,28,29,29,30,30,31,31,33,33,35,35,36,36,37,37,38,38,39,39,40,40,41,41,42,42,43,43,45,45,46,46,47,47,48,48,49,49,50,50,51,51,53,53,54,54,55,55],"right_children":[2,4,6,8,10,12,14,16,18,20,22,24,26,28,30,-1,32,34,-1,36,-1,38,40,42,44,46,48,50,52,54,56,58,-1,60,-1,62,64,66,68,70,72,74,76,78,-1,80,82,84,86,88,90,92,-1,94,96,98,-1,-1,-1,-1,-1,-1,-1,-1,-1,-1,-1,-1,-1,-1,-1,-1,-1,-1,-1,-1,-1,-1,-1,-1,-1,-1,-1,-1,-1,-1,-1,-1,-1,-1,-1,-1,-1,-1,-1,-1,-1,-1,-1],"split_conditions":[6.09E0,5E-1,4.42E0,4.56E0,7E-1,6.52E0,2E0,4.3E0,1E0,1E0,1E0,1E0,1E0,1E0,6.49E1,-9.21763E-2,1E0,1E0,-8.034385E-2,1E0,-6.275009E-2,5.83E0,1E0,1E0,1E0,1E0,1.2E0,1E0,1E0,1E0,1E0,1E0,-7.162352E-2,4.76E0,-8.483664E-2,5.3E0,5.24E0,1.04E0,1E0,1E0,5.82E0,1E0,1E0,3.91E0,-2.2386255E-2,1E0,1.22E0,1E0,1E0,1E0,1E0,1E0,4.611602E-2,1E0,5.19E0,1E0,9.251197E-2,-8.6305015E-2,-7.478826E-2,-7.205692E-2,-6.353196E-2,-4.2340305E-2,-3.081878E-2,-5.7332672E-2,-4.844307E-2,-2.394741E-2,5.274679E-2,-1.0709433E-2,-2.2495685E-2,1.9247098E-2,-8.787814E-3,-2.4073025E-2,-5.951075E-3,2.099044E-2,-3.0228163E-3,-1.7638741E-2,-1.025987E-2,-8.538228E-3,-5.396174E-4,4.3418974E-2,8.5344585E-3,-1.14210835E-2,6.7563704E-3,2.825499E-4,9.31934E-3,1.8549426E-2,-7.3394476E-4,4.1946527E-2,9.2086844E-2,8.1466496E-2,3.998218E-2,1.0414515E-1,5.522591E-2,9.280547E-2,1.110219E-1,6.998127E-2,1.1022364E-1,1.9791348E-2,6.5298654E-2],"split_indices":[4,0,5,3,0,4,0,3,17,18,21,18,18,19,1,0,16,18,0,17,0,4,14,14,15,15,0,20,15,15,17,21,0,3,0,4,3,0,18,13,3,13,9,5,0,14,0,7,15,22,14,14,0,17,5,18,0,0,0,0,0,0,0,0,0,0,0,0,0,0,0,0,0,0,0,0,0,0,0,0,0,0,0,0,0,0,0,0,0,0,0,0,0,0,0,0,0,0,0],"split_type":[0,0,0,0,0,0,0,0,0,0,0,0,0,0,0,0,0,0,0,0,0,0,0,0,0,0,0,0,0,0,0,0,0,0,0,0,0,0,0,0,0,0,0,0,0,0,0,0,0,0,0,0,0,0,0,0,0,0,0,0,0,0,0,0,0,0,0,0,0,0,0,0,0,0,0,0,0,0,0,0,0,0,0,0,0,0,0,0,0,0,0,0,0,0,0,0,0,0,0],"sum_hessian":[7.658312E3,3.2666294E3,4.3916826E3,1.498248E3,1.7683815E3,2.8572964E3,1.534386E3,9.0086224E2,5.9738586E2,8.099888E2,9.5839264E2,1.3455363E3,1.5117601E3,1.0078943E3,5.2649176E2,2.3480017E2,6.660621E2,4.674543E2,1.2993153E2,7.3709216E2,7.289659E1,9.1795795E2,4.043469E1,1.00377924E3,3.4175705E2,1.1647368E3,3.470234E2,8.501641E2,1.5773013E2,5.0200443E2,2.4487297E1,6.030465E2,6.3015564E1,4.1997076E2,4.7483524E1,5.524666E2,1.8462553E2,5.529026E2,3.650554E2,3.2423378E1,8.011313E0,9.251755E2,7.860376E1,3.280188E2,1.3738258E1,1.0740647E3,9.067207E1,1.9505289E2,1.519705E2,5.904853E2,2.596789E2,1.3441618E2,2.3313951E1,4.011858E2,1.0081866E2,2.2034155E1,2.4531422E0,5.103712E2,9.2675316E1,2.1945265E2,2.0051813E2,3.5273993E2,1.997267E2,9.994933E1,8.46762E1,5.515015E2,1.4010422E0,2.8268964E2,8.236577E1,2.3844376E1,8.579E0,6.896703E0,1.1146107E0,7.6108356E2,1.6409198E2,5.4729763E1,2.3873995E1,1.2761816E2,2.0040063E2,9.174716E2,1.5659311E2,4.4730892E1,4.5941177E1,1.2457573E2,7.0477165E1,1.3805904E2,1.3911455E1,5.3957275E2,5.0912533E1,2.1332425E2,4.6354637E1,9.7948235E1,3.6467953E1,2.9971838E2,1.0146739E2,7.593417E1,2.4884483E1,1.1968936E1,1.006522E1],"tree_param":{"num_deleted":"0","num_feature":"23","num_nodes":"99","size_leaf_vector":"1"}},{"base_weights":[-1.04240775E-2,-5.282136E-1,3.2219863E-1,-7.775023E-1,-3.0201483E-1,1.7651446E-1,6.743082E-1,-8.3220637E-1,-6.918321E-1,-4.1485807E-1,-1.9060619E-1,1.1522303E-1,3.6782056E-1,5.7426E-1,8.6211663E-1,-8.995018E-2,-8.077204E-1,-7.075282E-1,-5.759711E-1,-3.968985E-1,-5.8197236E-1,-1.6843903E-1,-3.0741447E-1,-2.5594564E-2,1.7140883E-1,4.0461388E-1,6.395075E-2,6.062368E-1,3.114909E-1,8.958633E-1,7.2843045E-1,-8.193768E-1,-6.85681E-2,-7.181573E-1,-5.3500034E-2,-5.862933E-2,-2.9486327E-2,-3.6249143E-1,-4.973852E-1,-5.947108E-2,-3.230259E-2,-1.1776416E-1,-2.6083782E-1,-3.3082325E-2,-2.4551915E-2,-2.8727535E-2,1.0570844E-1,2.2075325E-1,1.5490155E-2,4.6049654E-1,1.4743413E-1,1.7307607E-2,1.8442525E-1,6.6132134E-1,3.9966485E-1,1.4805475E-1,3.467829E-1,8.6501473E-1,1.11767784E-1,6.1449486E-1,9.518162E-1,-8.362522E-2,-7.1777694E-2,-7.373517E-2,-6.07826E-2,-3.7180454E-2,-1.3462431E-2,-5.2001882E-2,-3.7915193E-2,-8.93992E-3,-2.9579846E-2,-2.890255E-2,-2.0101756E-2,-1.6274614E-3,-2.8130189E-2,2.629596E-2,2.660516E-3,2.4334711E-3,-1.4346003E-2,5.6750424E-2,2.0560784E-2,5.485622E-3,1.9017268E-2,-8.053835E-3,4.1357474E-3,1.9780463E-2,-6.368858E-4,7.675751E-2,4.15728E-2,2.9979307E-2,5.5261858E-2,1.0400964E-2,2.6337612E-2,3.6739107E-2,1.8051898E-2,8.028411E-2,1.01621024E-1,7.15398E-2,3.771938E-2,9.975844E-2,2.3429282E-2],"categories":[],"categories_nodes":[],"categories_segments":[],"categories_sizes":[],"default_left":[0,0,0,0,0,0,0,0,0,0,0,0,0,0,0,0,0,0,0,0,0,0,0,0,0,0,0,0,0,0,0,0,0,0,0,0,0,0,0,0,0,0,0,0,0,0,0,0,0,0,0,0,0,0,0,0,0,0,0,0,0,0,0,0,0,0,0,0,0,0,0,0,0,0,0,0,0,0,0,0,0,0,0,0,0,0,0,0,0,0,0,0,0,0,0,0,0,0,0,0,0],"id":10,"left_children":[1,3,5,7,9,11,13,15,17,19,21,23,25,27,29,-1,31,33,35,37,39,41,43,45,47,49,51,53,55,57,59,61,-1,63,-1,-1,-1,65,67,-1,-1,69,71,-1,-1,73,-1,75,77,79,81,83,85,87,89,91,93,95,-1,97,99,-1,-1,-1,-1,-1,-1,-1,-1,-1,-1,-1,-1,-1,-1,-1,-1,-1,-1,-1,-1,-1,-1,-1,-1,-1,-1,-1,-1,-1,-1,-1,-1,-1,-1,-1,-1,-1,-1,-1,-1],"loss_changes":[1.3000968E3,1.662539E2,2.3564978E2,6.003723E0,1.9401794E1,3.809353E1,2.4772766E1,6.7718506E-1,5.982666E-1,2.07695E0,1.9720154E0,1.9504864E1,8.792351E0,7.2084656E0,1.4470215E0,0E0,3.4066772E-1,5.009308E-1,3.419113E-2,2.231308E0,4.6966553E-2,3.0555744E0,9.765148E-2,2.4176733E0,1.3552006E1,1.0040581E1,4.8216927E-1,8.65448E0,5.11425E-1,1.5461121E0,1.9386902E0,3.838501E-1,0E0,5.085144E-1,0E0,0E0,0E0,1.0604248E0,2.7173996E-1,0E0,0E0,2.1324263E0,3.3417034E-1,0E0,0E0,2.205764E0,0E0,1.0959061E1,6.004477E-1,1.5629997E1,4.9214578E-1,1.5245235E-1,6.253427E-2,1.5788574E1,2.393549E0,6.947914E-2,2.0606041E-1,2.2564087E0,0E0,1.369957E0,8.0625725E-1,0E0,0E0,0E0,0E0,0E0,0E0,0E0,0E0,0E0,0E0,0E0,0E0,0E0,0E0,0E0,0E0,0E0,0E0,0E0,0E0,0E0,0E0,0E0,0E0,0E0,0E0,0E0,0E0,0E0,0E0,0E0,0E0,0E0,0E0,0E0,0E0,0E0,0E0,0E0,0E0],"parents":[2147483647,0,0,1,1,2,2,3,3,4,4,5,5,6,6,7,7,8,8,9,9,10,10,11,11,12,12,13,13,14,14,16,16,17,17,18,18,19,19,20,20,21,21,22,22,23,23,24,24,25,25,26,26,27,27,28,28,29,29,30,30,31,31,33,33,37,37,38,38,41,41,42,42,45,45,47,47,48,48,49,49,50,50,51,51,52,52,53,53,54,54,55,55,56,56,57,57,59,59,60,60],"right_children":[2,4,6,8,10,12,14,16,18,20,22,24,26,28,30,-1,32,34,36,38,40,42,44,46,48,50,52,54,56,58,60,62,-1,64,-1,-1,-1,66,68,-1,-1,70,72,-1,-1,74,-1,76,78,80,82,84,86,88,90,92,94,96,-1,98,100,-1,-1,-1,-1,-1,-1,-1,-1,-1,-1,-1,-1,-1,-1,-1,-1,-1,-1,-1,-1,-1,-1,-1,-1,-1,-1,-1,-1,-1,-1,-1,-1,-1,-1,-1,-1,-1,-1,-1,-1],"split_conditions":[8E-1,5E-1,7.29E0,4.57E0,5.56E0,6.82E0,7.97E0,4.3E0,1E0,1E0,1E0,6.33E0,1E0,1E0,1E0,-8.995018E-2,1E0,1E0,4.98E0,1E0,7E-1,1E0,7.4E-1,1.52E0,1E0,1E0,7.12E0,1E0,4.53E0,1E0,8.41E0,1E0,-6.85681E-2,1E0,-5.3500034E-2,-5.862933E-2,-2.9486327E-2,1E0,5.9E-1,-5.947108E-2,-3.230259E-2,1E0,7.3E-1,-3.3082325E-2,-2.4551915E-2,1E0,1.0570844E-1,1E0,1E0,1E0,4.25E0,4.2E0,4.64E0,1E0,4.66E0,1E0,1E0,1E0,1.11767784E-1,1E0,6.21E1,-8.362522E-2,-7.1777694E-2,-7.373517E-2,-6.07826E-2,-3.7180454E-2,-1.3462431E-2,-5.2001882E-2,-3.7915193E-2,-8.93992E-3,-2.9579846E-2,-2.890255E-2,-2.0101756E-2,-1.6274614E-3,-2.8130189E-2,2.629596E-2,2.660516E-3,2.4334711E-3,-1.4346003E-2,5.6750424E-2,2.0560784E-2,5.485622E-3,1.9017268E-2,-8.053835E-3,4.1357474E-3,1.9780463E-2,-6.368858E-4,7.675751E-2,4.15728E-2,2.9979307E-2,5.5261858E-2,1.0400964E-2,2.6337612E-2,3.6739107E-2,1.8051898E-2,8.028411E-2,1.01621024E-1,7.15398E-2,3.771938E-2,9.975844E-2,2.3429282E-2],"split_indices":[0,0,4,3,4,4,4,3,21,18,18,4,15,15,15,0,16,16,4,17,0,17,0,0,18,14,4,14,5,20,3,21,0,22,0,0,0,16,0,0,0,14,0,0,0,15,0,13,15,13,5,5,5,13,5,19,18,17,0,18,2,0,0,0,0,0,0,0,0,0,0,0,0,0,0,0,0,0,0,0,0,0,0,0,0,0,0,0,0,0,0,0,0,0,0,0,0,0,0,0,0],"split_type":[0,0,0,0,0,0,0,0,0,0,0,0,0,0,0,0,0,0,0,0,0,0,0,0,0,0,0,0,0,0,0,0,0,0,0,0,0,0,0,0,0,0,0,0,0,0,0,0,0,0,0,0,0,0,0,0,0,0,0,0,0,0,0,0,0,0,0,0,0,0,0,0,0,0,0,0,0,0,0,0,0,0,0,0,0,0,0,0,0,0,0,0,0,0,0,0,0,0,0,0,0],"sum_hessian":[7.546684E3,2.9515132E3,4.595171E3,1.4029336E3,1.5485795E3,3.2514114E3,1.3437594E3,8.5089014E2,5.520435E2,7.679831E2,7.805964E2,2.4636873E3,7.877241E2,8.793665E2,4.6439297E2,2.1747147E2,6.334187E2,4.8168176E2,7.036172E1,6.965055E2,7.1477615E1,6.581405E2,1.2245587E2,7.028043E2,1.760883E3,7.023503E2,8.537384E1,7.8279926E2,9.656726E1,3.662409E2,9.815208E1,5.729776E2,6.0441105E1,4.5074942E2,3.0932356E1,6.682238E1,3.5393384E0,5.222815E2,1.7422395E2,6.68904E1,4.587204E0,4.265044E2,2.3163608E2,8.56995E1,3.675637E1,7.0174713E2,1.0571941E0,1.3372579E3,4.236251E2,5.76329E2,1.2602126E2,6.237015E1,2.3003687E1,6.1626447E2,1.6653473E2,1.8071913E1,7.8495346E1,3.2582666E2,4.0414223E1,6.748359E1,3.0668484E1,4.8516327E2,8.781432E1,3.7911185E2,7.163757E1,5.0116678E2,2.1114752E1,1.4337854E2,3.084542E1,3.691866E2,5.7317783E1,1.5484207E2,7.6794E1,6.697883E2,3.1958796E1,1.0981697E3,2.3908827E2,4.0209784E2,2.152726E1,4.0505273E2,1.7127626E2,4.0523968E1,8.54973E1,1.1842124E1,5.052803E1,2.1461931E1,1.5417562E0,4.2867618E2,1.875883E2,1.025405E2,6.3994244E1,1.4453534E1,3.618379E0,6.876264E1,9.732704E0,2.3535541E2,9.047127E1,4.5936256E1,2.1547337E1,2.846264E1,2.2058432E0],"tree_param":{"num_deleted":"0","num_feature":"23","num_nodes":"101","size_leaf_vector":"1"}},{"base_weights":[-1.0074159E-2,-4.968669E-1,2.8979266E-1,-7.493321E-1,-2.7808666E-1,1.5841055E-1,6.0991275E-1,-8.045806E-1,-6.5845525E-1,-3.9046758E-1,-1.7815173E-1,2.8477691E-2,2.3057687E-1,4.987211E-1,7.6638997E-1,-8.7720275E-2,-7.7925515E-1,-6.3372546E-1,-7.427263E-2,-3.72722E-1,-5.6532986E-2,-2.1753415E-1,-1.1272428E-1,-4.1111257E-2,9.066411E-2,2.0323135E-1,5.33466E-1,5.461496E-1,3.027639E-1,7.338974E-1,9.446007E-1,-7.591779E-1,-8.706433E-2,-6.139845E-1,-7.916233E-2,-3.3783105E-1,-4.7831157E-1,-2.204167E-1,5.9674557E-2,-1.0030044E-1,-3.7233103E-2,-2.4016371E-2,-2.0119868E-1,1.0504122E-1,-2.611954E-1,1.8461922E-1,6.811428E-1,5.5416775E-1,5.488019E-2,5.0269824E-1,8.1725335E-1,2.0979796E-1,3.3942536E-1,6.1533403E-1,7.9361606E-1,1.0193317E0,7.580577E-1,-7.468412E-2,-9.184543E-2,-6.568233E-2,-5.691549E-2,-2.9505914E-2,-3.962626E-2,-5.1115174E-2,-4.2638022E-2,-2.4375932E-2,-1.2740619E-2,-7.922322E-3,-2.546975E-2,-1.0224851E-3,-2.6359169E-2,-2.080491E-2,1.4255029E-4,1.4588471E-2,-1.8510766E-3,-2.9693026E-2,-1.5440332E-2,1.6957216E-2,8.041509E-2,8.11722E-2,4.713487E-2,5.8454275E-2,2.2070073E-2,-1.7309671E-2,1.4345579E-2,4.3279044E-2,7.0723884E-2,9.885343E-2,5.5017788E-2,2.4079671E-2,5.9577427E-3,9.493382E-3,3.5495218E-2,6.351818E-2,1.9885448E-3,8.0691464E-2,4.4948217E-2,4.1352574E-2,1.0329949E-1,6.138735E-2,1.0121079E-1],"categories":[],"categories_nodes":[],"categories_segments":[],"categories_sizes":[],"default_left":[0,0,0,0,0,0,0,0,0,0,0,0,0,0,0,0,0,0,0,0,0,0,0,0,0,0,0,0,0,0,0,0,0,0,0,0,0,0,0,0,0,0,0,0,0,0,0,0,0,0,0,0,0,0,0,0,0,0,0,0,0,0,0,0,0,0,0,0,0,0,0,0,0,0,0,0,0,0,0,0,0,0,0,0,0,0,0,0,0,0,0,0,0,0,0,0,0,0,0,0,0],"id":11,"left_children":[1,3,5,7,9,11,13,15,17,19,21,23,25,27,29,-1,31,33,-1,35,-1,37,39,41,43,45,47,49,51,53,55,57,-1,59,-1,61,63,65,-1,67,-1,69,71,73,75,77,79,81,83,85,87,89,91,93,95,97,99,-1,-1,-1,-1,-1,-1,-1,-1,-1,-1,-1,-1,-1,-1,-1,-1,-1,-1,-1,-1,-1,-1,-1,-1,-1,-1,-1,-1,-1,-1,-1,-1,-1,-1,-1,-1,-1,-1,-1,-1,-1,-1,-1,-1],"loss_changes":[1.0862654E3,1.5647156E2,1.9357764E2,6.0793457E0,1.7015732E1,3.062075E1,2.2926025E1,8.1378174E-1,5.780029E-1,2.0086365E0,2.0550594E0,5.0559893E0,1.7283615E1,7.1397247E0,2.5183716E0,0E0,4.6298218E-1,7.4783325E-1,0E0,2.2414093E0,0E0,1.3115597E0,9.474549E-1,1.5048196E0,3.147883E0,1.7019722E1,1.6861992E0,7.02919E0,4.5847416E-1,2.864853E0,3.7106323E-1,3.163452E-1,0E0,3.1045532E-1,0E0,1.1168518E0,5.4237366E-2,1.0581799E0,0E0,9.325342E-1,0E0,1.6478703E0,7.39851E-2,2.9968834E0,4.7657013E-2,1.7171753E1,1.5865898E0,1.5520935E0,1.9231057E-1,7.514633E0,3.3740463E0,2.025249E-1,3.8327312E-1,1.9147758E0,1.0628662E0,3.3683777E-2,3.8121223E-1,0E0,0E0,0E0,0E0,0E0,0E0,0E0,0E0,0E0,0E0,0E0,0E0,0E0,0E0,0E0,0E0,0E0,0E0,0E0,0E0,0E0,0E0,0E0,0E0,0E0,0E0,0E0,0E0,0E0,0E0,0E0,0E0,0E0,0E0,0E0,0E0,0E0,0E0,0E0,0E0,0E0,0E0,0E0,0E0],"parents":[2147483647,0,0,1,1,2,2,3,3,4,4,5,5,6,6,7,7,8,8,9,9,10,10,11,11,12,12,13,13,14,14,16,16,17,17,19,19,21,21,22,22,23,23,24,24,25,25,26,26,27,27,28,28,29,29,30,30,31,31,33,33,35,35,36,36,37,37,39,39,41,41,42,42,43,43,44,44,45,45,46,46,47,47,48,48,49,49,50,50,51,51,52,52,53,53,54,54,55,55,56,56],"right_children":[2,4,6,8,10,12,14,16,18,20,22,24,26,28,30,-1,32,34,-1,36,-1,38,40,42,44,46,48,50,52,54,56,58,-1,60,-1,62,64,66,-1,68,-1,70,72,74,76,78,80,82,84,86,88,90,92,94,96,98,100,-1,-1,-1,-1,-1,-1,-1,-1,-1,-1,-1,-1,-1,-1,-1,-1,-1,-1,-1,-1,-1,-1,-1,-1,-1,-1,-1,-1,-1,-1,-1,-1,-1,-1,-1,-1,-1,-1,-1,-1,-1,-1,-1,-1],"split_conditions":[5.95E0,5E-1,7.29E0,4.59E0,6.3E-1,6.44E0,7.78E0,4.3E0,1E0,1E0,1E0,6.27E0,1E0,1E0,1E0,-8.7720275E-2,1E0,1E0,-7.427263E-2,1E0,-5.6532986E-2,1.16E0,1E0,1E0,1E0,1E0,1E0,1E0,7.39E0,8.08E0,1E0,1E0,-8.706433E-2,4.76E0,-7.916233E-2,1E0,5.24E0,1E0,5.9674557E-2,1E0,-3.7233103E-2,1E0,1E0,1E0,1E0,1E0,1E0,1E0,6.71E0,1E0,1E0,7.42E0,5.86E1,2.09E0,6.21E1,5.86E1,5.12E0,-7.468412E-2,-9.184543E-2,-6.568233E-2,-5.691549E-2,-2.9505914E-2,-3.962626E-2,-5.1115174E-2,-4.2638022E-2,-2.4375932E-2,-1.2740619E-2,-7.922322E-3,-2.546975E-2,-1.0224851E-3,-2.6359169E-2,-2.080491E-2,1.4255029E-4,1.4588471E-2,-1.8510766E-3,-2.9693026E-2,-1.5440332E-2,1.6957216E-2,8.041509E-2,8.11722E-2,4.713487E-2,5.8454275E-2,2.2070073E-2,-1.7309671E-2,1.4345579E-2,4.3279044E-2,7.0723884E-2,9.885343E-2,5.5017788E-2,2.4079671E-2,5.9577427E-3,9.493382E-3,3.5495218E-2,6.351818E-2,1.9885448E-3,8.0691464E-2,4.4948217E-2,4.1352574E-2,1.0329949E-1,6.138735E-2,1.0121079E-1],"split_indices":[4,0,4,3,0,4,4,3,17,18,7,4,22,18,20,0,17,18,0,17,0,0,15,14,15,21,14,11,4,4,15,18,0,3,0,20,3,10,0,14,0,15,21,18,9,16,12,13,4,12,17,3,1,0,2,1,5,0,0,0,0,0,0,0,0,0,0,0,0,0,0,0,0,0,0,0,0,0,0,0,0,0,0,0,0,0,0,0,0,0,0,0,0,0,0,0,0,0,0,0,0],"split_type":[0,0,0,0,0,0,0,0,0,0,0,0,0,0,0,0,0,0,0,0,0,0,0,0,0,0,0,0,0,0,0,0,0,0,0,0,0,0,0,0,0,0,0,0,0,0,0,0,0,0,0,0,0,0,0,0,0,0,0,0,0,0,0,0,0,0,0,0,0,0,0,0,0,0,0,0,0,0,0,0,0,0,0,0,0,0,0,0,0,0,0,0,0,0,0,0,0,0,0,0,0],"sum_hessian":[7.4395645E3,2.8356377E3,4.603927E3,1.3153463E3,1.5202914E3,3.2652952E3,1.3386315E3,8.13143E2,5.022033E2,7.1421747E2,8.060739E2,1.1664817E3,2.0988135E3,7.8500146E2,5.5363E2,2.0154979E2,6.115932E2,3.9485205E2,1.0735125E2,6.5125726E2,6.2960213E1,5.017394E2,3.0433453E2,5.5063696E2,6.1584467E2,1.9265511E3,1.7226245E2,6.305896E2,1.5441187E2,4.7258353E2,8.104645E1,5.0906317E2,1.0253006E2,3.553175E2,3.9534554E1,4.9266183E2,1.5859541E2,5.0069626E2,1.0431473E0,2.917584E2,1.257615E1,4.9854953E2,5.208744E1,5.923428E2,2.3501879E1,1.855669E3,7.088222E1,1.6496861E2,7.293828E0,5.459425E2,8.4647095E1,4.5572346E1,1.08839516E2,1.6208658E2,3.1049695E2,5.4677685E1,2.636876E1,4.7774823E2,3.1314926E1,1.7471237E2,1.8060513E2,2.8793967E2,2.0472218E2,9.173902E1,6.6856384E1,3.9895163E2,1.0174464E2,2.5804498E2,3.37134E1,4.7239792E2,2.615163E1,5.0358135E1,1.7293062E0,4.450414E2,1.4730138E2,1.6275354E1,7.226525E0,1.812911E3,4.2757915E1,4.1920876E1,2.896134E1,1.505063E2,1.4462324E1,1.7739048E0,5.519923E0,4.0920166E2,1.3674084E2,4.9926735E1,3.4720364E1,3.7277084E1,8.295261E0,6.924102E0,1.0191542E2,1.5679355E2,5.293037E0,2.9764993E2,1.2847018E1,1.8955902E0,5.2782097E1,1.9001148E1,7.367612E0],"tree_param":{"num_deleted":"0","num_feature":"23","num_nodes":"101","size_leaf_vector":"1"}},{"base_weights":[-9.649197E-3,-4.9360123E-1,2.4611162E-1,-7.214244E-1,-2.769729E-1,8.616255E-2,4.8074356E-1,-7.8116834E-1,-6.3333136E-1,-3.7233564E-1,-1.8622033E-1,-5.5781584E-2,1.375924E-1,3.61076E-1,6.472849E-1,-8.7377094E-2,-7.597719E-1,-6.49354E-1,-5.139761E-1,-3.9162636E-1,-2.3601687E-1,-1.6566032E-1,-3.0990463E-1,-4.5139804E-2,-2.5406975E-1,1.15681194E-1,3.9895064E-1,4.0701976E-1,1.8496923E-1,5.6481594E-1,7.522406E-1,-7.382614E-1,-8.579793E-2,-6.66426E-1,-5.4372656E-1,-5.194974E-2,-1.52031975E-2,-4.0805608E-1,-1.8852785E-1,-1.7666103E-1,-3.1398397E-2,-1.2278587E-1,-2.54031E-1,-4.6399705E-2,-2.8694922E-1,-2.8340545E-2,-1.9129954E-1,-3.238397E-2,-2.0413852E-1,1.03929E-1,6.438827E-1,4.798345E-1,2.5332698E-1,3.6602917E-1,6.613996E-1,8.497545E-2,2.2056998E-1,6.0007757E-1,3.1142306E-1,7.6493835E-1,4.267269E-1,-7.2601944E-2,-9.038371E-2,-6.795514E-2,-4.827288E-2,-5.5144012E-2,-1.7974231E-2,-4.176798E-2,-1.4528696E-2,-1.49904555E-2,-3.9509963E-2,-1.5033166E-2,-3.467655E-2,-9.898435E-3,-2.847468E-2,-3.7420068E-2,-2.3463618E-2,-3.0681089E-2,-2.381208E-2,4.4385702E-4,-1.114533E-2,-1.9701105E-2,-3.3515792E-3,-2.2416828E-2,-1.0775934E-2,8.898273E-3,5.1841177E-2,8.032021E-2,3.034986E-2,5.227803E-2,7.845262E-3,1.773611E-2,3.286509E-2,3.287976E-2,6.8231784E-2,7.7126615E-2,3.904677E-2,-1.9364832E-3,1.1609676E-2,1.9527914E-2,3.429129E-2,6.6651054E-2,4.4777516E-2,3.2832675E-2,-1.5931038E-2,1.8850934E-2,7.70063E-2,6.978978E-2,2.4730233E-2],"categories":[],"categories_nodes":[],"categories_segments":[],"categories_sizes":[],"default_left":[0,0,0,0,0,0,0,0,0,0,0,0,0,0,0,0,0,0,0,0,0,0,0,0,0,0,0,0,0,0,0,0,0,0,0,0,0,0,0,0,0,0,0,0,0,0,0,0,0,0,0,0,0,0,0,0,0,0,0,0,0,0,0,0,0,0,0,0,0,0,0,0,0,0,0,0,0,0,0,0,0,0,0,0,0,0,0,0,0,0,0,0,0,0,0,0,0,0,0,0,0,0,0,0,0,0,0,0,0],"id":12,"left_children":[1,3,5,7,9,11,13,15,17,19,21,23,25,27,29,-1,31,33,35,37,39,41,43,45,47,49,51,53,55,57,59,61,-1,63,65,-1,-1,67,69,71,-1,73,75,-1,77,79,81,-1,83,85,87,89,91,93,95,97,99,101,103,105,107,-1,-1,-1,-1,-1,-1,-1,-1,-1,-1,-1,-1,-1,-1,-1,-1,-1,-1,-1,-1,-1,-1,-1,-1,-1,-1,-1,-1,-1,-1,-1,-1,-1,-1,-1,-1,-1,-1,-1,-1,-1,-1,-1,-1,-1,-1,-1,-1],"loss_changes":[9.085208E2,1.2505127E2,1.8018097E2,6.012207E0,1.1203186E1,2.0862616E1,3.855771E1,7.873535E-1,6.318207E-1,1.5751114E0,1.6508884E0,1.5932949E0,1.1964264E1,9.106857E0,6.6083374E0,0E0,6.396179E-1,4.3354797E-1,5.002594E-2,1.7716904E0,3.1997824E-1,2.1516657E0,2.0029259E-1,1.7697697E0,6.808305E-2,1.195369E1,1.7844391E0,9.134201E0,8.236723E-1,3.9146576E0,1.1389313E0,3.6038208E-1,0E0,5.773773E-1,8.8544846E-2,0E0,0E0,1.2332535E0,2.864052E-1,1.6441011E-1,0E0,1.4746785E0,3.486662E-1,0E0,9.048939E-3,1.7703059E0,6.0406208E-2,0E0,2.4408817E-2,1.169644E1,2.031433E0,1.733017E0,2.844739E-1,8.921608E0,3.3765144E0,2.0928368E-1,4.710636E-1,3.7677765E0,5.1504755E-1,8.5905457E-1,5.8505344E-1,0E0,0E0,0E0,0E0,0E0,0E0,0E0,0E0,0E0,0E0,0E0,0E0,0E0,0E0,0E0,0E0,0E0,0E0,0E0,0E0,0E0,0E0,0E0,0E0,0E0,0E0,0E0,0E0,0E0,0E0,0E0,0E0,0E0,0E0,0E0,0E0,0E0,0E0,0E0,0E0,0E0,0E0,0E0,0E0,0E0,0E0,0E0,0E0],"parents":[2147483647,0,0,1,1,2,2,3,3,4,4,5,5,6,6,7,7,8,8,9,9,10,10,11,11,12,12,13,13,14,14,16,16,17,17,18,18,19,19,20,20,21,21,22,22,23,23,24,24,25,25,26,26,27,27,28,28,29,29,30,30,31,31,33,33,34,34,37,37,38,38,39,39,41,41,42,42,44,44,45,45,46,46,48,48,49,49,50,50,51,51,52,52,53,53,54,54,55,55,56,56,57,57,58,58,59,59,60,60],"right_children":[2,4,6,8,10,12,14,16,18,20,22,24,26,28,30,-1,32,34,36,38,40,42,44,46,48,50,52,54,56,58,60,62,-1,64,66,-1,-1,68,70,72,-1,74,76,-1,78,80,82,-1,84,86,88,90,92,94,96,98,100,102,104,106,108,-1,-1,-1,-1,-1,-1,-1,-1,-1,-1,-1,-1,-1,-1,-1,-1,-1,-1,-1,-1,-1,-1,-1,-1,-1,-1,-1,-1,-1,-1,-1,-1,-1,-1,-1,-1,-1,-1,-1,-1,-1,-1,-1,-1,-1,-1,-1,-1],"split_conditions":[7.4E-1,5.02E0,6.89E0,4.56E0,5.43E0,1E0,7.52E0,4.27E0,1E0,1E0,1E0,1E0,1E0,1E0,8.08E0,-8.7377094E-2,1E0,1E0,4.98E0,1E0,1E0,1E0,7E-1,1E0,3.69E0,1E0,1E0,1E0,4.34E0,1E0,6.21E1,1E0,-8.579793E-2,1E0,4.7E-1,-5.194974E-2,-1.52031975E-2,1E0,1E0,1E0,-3.1398397E-2,1E0,7E-1,-4.6399705E-2,1E0,1E0,1E0,-3.238397E-2,1E0,1E0,1E0,1E0,1E0,1E0,1E0,5.99E1,1E0,1E0,2.05E0,5.77E1,8.24E0,-7.2601944E-2,-9.038371E-2,-6.795514E-2,-4.827288E-2,-5.5144012E-2,-1.7974231E-2,-4.176798E-2,-1.4528696E-2,-1.49904555E-2,-3.9509963E-2,-1.5033166E-2,-3.467655E-2,-9.898435E-3,-2.847468E-2,-3.7420068E-2,-2.3463618E-2,-3.0681089E-2,-2.381208E-2,4.4385702E-4,-1.114533E-2,-1.9701105E-2,-3.3515792E-3,-2.2416828E-2,-1.0775934E-2,8.898273E-3,5.1841177E-2,8.032021E-2,3.034986E-2,5.227803E-2,7.845262E-3,1.773611E-2,3.286509E-2,3.287976E-2,6.8231784E-2,7.7126615E-2,3.904677E-2,-1.9364832E-3,1.1609676E-2,1.9527914E-2,3.429129E-2,6.6651054E-2,4.4777516E-2,3.2832675E-2,-1.5931038E-2,1.8850934E-2,7.70063E-2,6.978978E-2,2.4730233E-2],"split_indices":[0,4,4,3,4,0,4,3,21,22,18,15,22,18,4,0,17,22,3,21,12,17,0,14,5,16,12,11,5,15,2,18,0,16,0,0,0,16,14,13,0,14,0,0,7,18,21,0,19,21,12,13,7,10,17,1,10,18,0,1,3,0,0,0,0,0,0,0,0,0,0,0,0,0,0,0,0,0,0,0,0,0,0,0,0,0,0,0,0,0,0,0,0,0,0,0,0,0,0,0,0,0,0,0,0,0,0,0,0],"split_type":[0,0,0,0,0,0,0,0,0,0,0,0,0,0,0,0,0,0,0,0,0,0,0,0,0,0,0,0,0,0,0,0,0,0,0,0,0,0,0,0,0,0,0,0,0,0,0,0,0,0,0,0,0,0,0,0,0,0,0,0,0,0,0,0,0,0,0,0,0,0,0,0,0,0,0,0,0,0,0,0,0,0,0,0,0,0,0,0,0,0,0,0,0,0,0,0,0,0,0,0,0,0,0,0,0,0,0,0,0],"sum_hessian":[7.3380605E3,2.5368635E3,4.8011973E3,1.2353467E3,1.3015167E3,2.855776E3,1.9454211E3,7.314301E2,5.039166E2,6.331258E2,6.683909E2,7.5950134E2,2.0962747E3,1.1338595E3,8.115616E2,1.29805E2,6.016251E2,4.4036072E2,6.355589E1,5.529973E2,8.012852E1,5.751271E2,9.326388E1,7.219815E2,3.7519833E1,1.9354563E3,1.6081822E2,8.9821643E2,2.3564311E2,4.5803885E2,3.5352274E2,5.0051437E2,1.0111073E2,3.7451965E2,6.584107E1,6.217218E1,1.3837075E0,5.1067673E2,4.232055E1,4.7348366E1,3.278015E1,3.8885654E2,1.8627052E2,9.6011915E0,8.366268E1,6.486241E2,7.3357445E1,1.3362473E1,2.4157362E1,1.8945015E3,4.0954872E1,1.01915955E2,5.8902264E1,7.756652E2,1.225512E2,6.275805E1,1.7288506E2,4.0088443E2,5.7154408E1,3.3895087E2,1.4571873E1,4.7107016E2,2.9444187E1,3.4702502E2,2.7494637E1,6.39704E1,1.8706683E0,4.9206567E2,1.8611053E1,3.7108036E1,5.212514E0,4.263321E1,4.715157E0,3.4043753E2,4.8419003E1,2.3343195E1,1.6292732E2,5.571594E1,2.7946747E1,4.6584464E2,1.8277943E2,7.055487E1,2.802574E0,1.8902996E1,5.2543654E0,1.8297358E3,6.476566E1,2.6971134E1,1.398374E1,9.1792206E1,1.0123746E1,3.099637E1,2.7905895E1,6.957994E2,7.986583E1,8.587929E1,3.6671917E1,1.4504992E1,4.825306E1,1.4541989E2,2.7465172E1,2.7677942E2,1.2410502E2,5.5465218E1,1.6891903E0,3.3197901E0,3.3563107E2,4.6517973E0,9.920075E0],"tree_param":{"num_deleted":"0","num_feature":"23","num_nodes":"109","size_leaf_vector":"1"}},{"base_weights":[-9.250094E-3,-5.000998E-1,2.0551334E-1,-7.0023715E-1,-2.9173508E-1,5.894239E-2,4.2875817E-1,-7.6923364E-1,-6.3078E-1,-3.7368035E-1,-2.1809515E-1,-6.353442E-2,1.2208578E-1,3.3079413E-1,6.1181474E-1,-7.820406E-1,-6.1677873E-2,-6.720768E-1,-5.8111894E-1,-3.561932E-1,-5.420966E-2,-2.2092268E-1,6.6525094E-2,-5.336651E-2,-2.7184877E-1,1.6179566E-1,-4.765344E-3,3.5873884E-1,9.5327444E-2,5.296683E-1,6.9254637E-1,-8.006579E-2,-6.861071E-2,-6.4725775E-1,-7.594436E-2,-5.981243E-1,-4.6922576E-2,-3.2475376E-1,-4.5376778E-2,-2.1101578E-1,-4.585053E-2,-3.6820207E-2,-2.0094995E-1,-3.2874104E-2,-2.1270372E-1,1.797067E-1,-1.9582823E-1,6.9730347E-3,-1.20741695E-1,4.0556547E-1,1.5392995E-1,-1.3830874E-2,1.5459959E-1,4.733658E-1,7.306638E-1,7.261785E-1,5.727204E-1,-6.292694E-2,-8.1133336E-2,-6.0823884E-2,-4.1300848E-2,-3.1319212E-2,-5.3940173E-2,-2.224186E-2,-3.8190414E-3,-4.5403275E-3,2.4548702E-2,-2.308477E-2,-1.5156321E-2,-1.8001346E-2,-2.9591156E-2,2.0870535E-2,-7.823501E-3,-2.917893E-2,-1.2999828E-2,-8.513149E-3,2.0686632E-3,-1.0292693E-2,-2.4141995E-2,4.923718E-2,1.8746724E-2,4.6573966E-3,1.8285777E-2,-4.8137885E-3,4.9283574E-3,1.2160561E-2,2.5881002E-2,4.1339207E-2,7.903013E-2,7.8364074E-2,3.9807674E-2,6.771456E-2,8.7976836E-2,3.4573928E-2,6.915889E-2],"categories":[],"categories_nodes":[],"categories_segments":[],"categories_sizes":[],"default_left":[0,0,0,0,0,0,0,0,0,0,0,0,0,0,0,0,0,0,0,0,0,0,0,0,0,0,0,0,0,0,0,0,0,0,0,0,0,0,0,0,0,0,0,0,0,0,0,0,0,0,0,0,0,0,0,0,0,0,0,0,0,0,0,0,0,0,0,0,0,0,0,0,0,0,0,0,0,0,0,0,0,0,0,0,0,0,0,0,0,0,0,0,0,0,0],"id":13,"left_children":[1,3,5,7,9,11,13,15,17,19,21,23,25,27,29,31,-1,33,35,37,-1,39,-1,41,43,45,47,49,51,53,55,-1,-1,57,-1,59,-1,61,-1,63,-1,65,67,-1,69,71,73,75,77,79,81,83,85,87,89,91,93,-1,-1,-1,-1,-1,-1,-1,-1,-1,-1,-1,-1,-1,-1,-1,-1,-1,-1,-1,-1,-1,-1,-1,-1,-1,-1,-1,-1,-1,-1,-1,-1,-1,-1,-1,-1,-1,-1],"loss_changes":[7.635855E2,9.17334E1,1.648527E2,4.9004517E0,6.446823E0,2.354072E1,3.5608337E1,6.095276E-1,7.693939E-1,1.3108139E0,1.5761414E0,2.179431E0,1.0116341E1,8.539413E0,4.2419434E0,3.6541748E-1,0E0,1.6418457E-1,2.2203064E-1,1.2807274E0,0E0,1.2475071E0,0E0,2.4072926E0,9.1457605E-2,9.831753E0,6.5394324E-1,1.11045685E1,9.052987E-1,3.6003036E0,9.8350525E-1,0E0,0E0,2.0453644E-1,0E0,1.713562E-1,0E0,7.1354675E-1,0E0,1.075613E0,0E0,2.1685705E0,1.1187315E-1,0E0,1.8399954E-2,1.0914593E1,4.2589355E-1,5.5320996E-1,7.006246E-2,1.7838272E1,6.694002E-1,1.1072496E-1,2.7986622E-1,4.9050713E0,1.0000954E0,1.4181061E0,1.9418736E0,0E0,0E0,0E0,0E0,0E0,0E0,0E0,0E0,0E0,0E0,0E0,0E0,0E0,0E0,0E0,0E0,0E0,0E0,0E0,0E0,0E0,0E0,0E0,0E0,0E0,0E0,0E0,0E0,0E0,0E0,0E0,0E0,0E0,0E0,0E0,0E0,0E0,0E0],"parents":[2147483647,0,0,1,1,2,2,3,3,4,4,5,5,6,6,7,7,8,8,9,9,10,10,11,11,12,12,13,13,14,14,15,15,17,17,18,18,19,19,21,21,23,23,24,24,25,25,26,26,27,27,28,28,29,29,30,30,33,33,35,35,37,37,39,39,41,41,42,42,44,44,45,45,46,46,47,47,48,48,49,49,50,50,51,51,52,52,53,53,54,54,55,55,56,56],"right_children":[2,4,6,8,10,12,14,16,18,20,22,24,26,28,30,32,-1,34,36,38,-1,40,-1,42,44,46,48,50,52,54,56,-1,-1,58,-1,60,-1,62,-1,64,-1,66,68,-1,70,72,74,76,78,80,82,84,86,88,90,92,94,-1,-1,-1,-1,-1,-1,-1,-1,-1,-1,-1,-1,-1,-1,-1,-1,-1,-1,-1,-1,-1,-1,-1,-1,-1,-1,-1,-1,-1,-1,-1,-1,-1,-1,-1,-1,-1,-1],"split_conditions":[5.75E0,4.5E-1,6.87E0,4.46E0,5.6E-1,6.3E0,1.67E0,1E0,4.72E0,1E0,1.16E0,1E0,1E0,1E0,8.08E0,1E0,-6.1677873E-2,1E0,1E0,1E0,-5.420966E-2,1E0,6.6525094E-2,1E0,3.69E0,1E0,1E0,1E0,7.12E0,1E0,1E0,-8.006579E-2,-6.861071E-2,1E0,-7.594436E-2,1E0,-4.6922576E-2,1E0,-4.5376778E-2,1E0,-4.585053E-2,1E0,6.09E0,-3.2874104E-2,9.7E-1,1E0,1.06E0,3.9E0,6.11E1,1E0,4.32E0,1E0,1E0,1E0,1E0,1E0,5.05E0,-6.292694E-2,-8.1133336E-2,-6.0823884E-2,-4.1300848E-2,-3.1319212E-2,-5.3940173E-2,-2.224186E-2,-3.8190414E-3,-4.5403275E-3,2.4548702E-2,-2.308477E-2,-1.5156321E-2,-1.8001346E-2,-2.9591156E-2,2.0870535E-2,-7.823501E-3,-2.917893E-2,-1.2999828E-2,-8.513149E-3,2.0686632E-3,-1.0292693E-2,-2.4141995E-2,4.923718E-2,1.8746724E-2,4.6573966E-3,1.8285777E-2,-4.8137885E-3,4.9283574E-3,1.2160561E-2,2.5881002E-2,4.1339207E-2,7.903013E-2,7.8364074E-2,3.9807674E-2,6.771456E-2,8.7976836E-2,3.4573928E-2,6.915889E-2],"split_indices":[4,0,4,3,0,4,0,16,3,18,0,15,18,15,4,21,0,17,21,17,0,15,0,14,5,15,14,14,4,20,15,0,0,18,0,16,0,14,0,21,0,21,4,0,0,14,0,5,2,13,5,7,19,19,15,17,5,0,0,0,0,0,0,0,0,0,0,0,0,0,0,0,0,0,0,0,0,0,0,0,0,0,0,0,0,0,0,0,0,0,0,0,0,0,0],"split_type":[0,0,0,0,0,0,0,0,0,0,0,0,0,0,0,0,0,0,0,0,0,0,0,0,0,0,0,0,0,0,0,0,0,0,0,0,0,0,0,0,0,0,0,0,0,0,0,0,0,0,0,0,0,0,0,0,0,0,0,0,0,0,0,0,0,0,0,0,0,0,0,0,0,0,0,0,0,0,0,0,0,0,0,0,0,0,0,0,0,0,0,0,0,0,0],"sum_hessian":[7.241531E3,2.203659E3,5.037872E3,1.1228165E3,1.0808425E3,3.0419497E3,1.9959221E3,5.5822174E2,5.6459485E2,5.0964444E2,5.71198E2,1.0347938E3,2.007156E3,1.3019705E3,6.9395166E2,5.111529E2,4.7068836E1,3.0141373E2,2.6318112E2,4.645263E2,4.511814E1,5.70123E2,1.0750233E0,9.878334E2,4.696042E1,1.5284193E3,4.7873676E2,1.1633795E3,1.38591E2,3.4770932E2,3.4624234E2,4.21926E2,8.9226875E1,2.4127966E2,6.0134075E1,2.2468784E2,3.849329E1,3.5459927E2,1.09927025E2,5.491138E2,2.1009214E1,8.8937115E2,9.846224E1,2.1612698E1,2.5347721E1,1.4559955E3,7.242374E1,4.355891E2,4.3147648E1,9.4608936E2,2.172901E2,4.9041172E1,8.954983E1,2.742438E2,7.3465515E1,2.66408E2,7.983433E1,2.2179816E2,1.9481499E1,2.108799E2,1.3807926E1,3.3880902E2,1.5790255E1,5.148571E2,3.4256683E1,8.639436E2,2.5427553E1,5.9043945E1,3.9418297E1,2.0469276E1,4.8784447E0,1.309022E3,1.4697362E2,2.8071348E1,4.435239E1,5.5775665E1,3.7981345E2,3.9211994E1,3.9356506E0,6.7583826E2,2.7025113E2,4.6676334E1,1.7061375E2,3.192503E1,1.711614E1,6.966133E1,1.9888496E1,2.3254384E2,4.1699974E1,6.2201405E1,1.1264107E1,2.0603946E2,6.036854E1,2.8782436E1,5.1051888E1],"tree_param":{"num_deleted":"0","num_feature":"23","num_nodes":"95","size_leaf_vector":"1"}},{"base_weights":[-8.845118E-3,-4.8468694E-1,1.8020861E-1,-6.708909E-1,-2.7966562E-1,5.111794E-2,3.923194E-1,-7.286857E-1,-5.8190125E-1,-3.440888E-1,-2.0854607E-1,-5.012417E-2,1.2121811E-1,3.1569773E-1,5.9672266E-1,-8.403104E-2,-7.0618105E-1,-5.561859E-1,-6.694144E-2,-3.2733175E-1,-5.0938036E-2,-2.2575296E-1,-5.5024207E-2,-9.788857E-2,1.1141031E-2,1.01561196E-1,3.5050073E-1,3.5871246E-1,1.5409999E-1,5.654614E-1,7.7115244E-1,-6.8293405E-1,-8.143764E-2,-5.354772E-1,-7.342267E-2,-2.9602054E-1,-4.2354796E-2,-2.408808E-1,-3.2129437E-2,-2.8451663E-2,-2.0544614E-1,-8.735013E-2,-3.044051E-2,2.211592E-2,-2.233328E-1,9.05073E-2,5.683577E-1,4.2584944E-1,2.1613304E-1,3.2337177E-1,5.826974E-1,9.1753595E-2,2.1110155E-1,5.11887E-1,6.932618E-1,8.4402615E-1,5.9912235E-1,-6.694504E-2,-8.685559E-2,-5.0692E-2,-6.0095876E-2,-2.8555665E-2,-5.00153E-2,-2.5059944E-2,6.8327324E-3,2.6932892E-3,-2.6035422E-2,-1.1162077E-4,-2.3435917E-2,-2.63591E-2,-8.712105E-3,-6.2949844E-3,-1.762048E-2,3.7936491E-3,-1.4144011E-2,-1.53884245E-2,-3.2333136E-2,7.7085444E-3,4.4283617E-2,7.107962E-2,2.5961453E-2,4.5046646E-2,-1.3992968E-2,1.4848937E-2,2.7522584E-2,2.6752913E-2,4.754783E-2,6.84757E-2,3.6086585E-2,-1.2689452E-2,9.994852E-3,2.3358E-2,1.0322719E-2,4.7144737E-2,8.3303176E-2,7.751628E-2,3.6934894E-2,5.0632935E-2,8.7978065E-2,4.5585636E-2,8.252195E-2],"categories":[],"categories_nodes":[],"categories_segments":[],"categories_sizes":[],"default_left":[0,0,0,0,0,0,0,0,0,0,0,0,0,0,0,0,0,0,0,0,0,0,0,0,0,0,0,0,0,0,0,0,0,0,0,0,0,0,0,0,0,0,0,0,0,0,0,0,0,0,0,0,0,0,0,0,0,0,0,0,0,0,0,0,0,0,0,0,0,0,0,0,0,0,0,0,0,0,0,0,0,0,0,0,0,0,0,0,0,0,0,0,0,0,0,0,0,0,0,0,0],"id":14,"left_children":[1,3,5,7,9,11,13,15,17,19,21,23,25,27,29,-1,31,33,-1,35,-1,37,39,41,43,45,47,49,51,53,55,57,-1,59,-1,61,-1,63,65,67,69,71,-1,73,75,77,79,81,83,85,87,89,91,93,95,97,99,-1,-1,-1,-1,-1,-1,-1,-1,-1,-1,-1,-1,-1,-1,-1,-1,-1,-1,-1,-1,-1,-1,-1,-1,-1,-1,-1,-1,-1,-1,-1,-1,-1,-1,-1,-1,-1,-1,-1,-1,-1,-1,-1,-1],"loss_changes":[6.4356696E2,7.746652E1,1.4016948E2,5.0547485E0,4.3718796E0,2.2602877E1,3.0146881E1,1.0190125E0,5.827637E-1,1.238514E0,1.2119999E0,3.8150423E0,8.444824E0,9.752213E0,2.4374847E0,0E0,8.031616E-1,8.380203E-1,0E0,1.2708168E0,0E0,1.2121506E0,1.8616317E-1,1.5675201E0,1.4765528E0,8.898163E0,1.4080887E0,8.626297E0,1.0409765E0,2.730545E0,4.6391678E-1,5.474396E-1,0E0,2.6164246E-1,0E0,6.11145E-1,0E0,1.1774998E0,4.293905E-1,2.3605907E-1,2.5547504E-2,1.5028887E0,0E0,1.4213042E0,1.2845063E-1,7.9837914E0,1.5715857E0,1.3708992E0,1.8004441E-1,8.061508E0,3.1604195E0,2.7118826E-1,3.519702E-1,3.7806168E0,3.1700058E0,1.8096542E-1,4.8091602E-1,0E0,0E0,0E0,0E0,0E0,0E0,0E0,0E0,0E0,0E0,0E0,0E0,0E0,0E0,0E0,0E0,0E0,0E0,0E0,0E0,0E0,0E0,0E0,0E0,0E0,0E0,0E0,0E0,0E0,0E0,0E0,0E0,0E0,0E0,0E0,0E0,0E0,0E0,0E0,0E0,0E0,0E0,0E0,0E0],"parents":[2147483647,0,0,1,1,2,2,3,3,4,4,5,5,6,6,7,7,8,8,9,9,10,10,11,11,12,12,13,13,14,14,16,16,17,17,19,19,21,21,22,22,23,23,24,24,25,25,26,26,27,27,28,28,29,29,30,30,31,31,33,33,35,35,37,37,38,38,39,39,40,40,41,41,43,43,44,44,45,45,46,46,47,47,48,48,49,49,50,50,51,51,52,52,53,53,54,54,55,55,56,56],"right_children":[2,4,6,8,10,12,14,16,18,20,22,24,26,28,30,-1,32,34,-1,36,-1,38,40,42,44,46,48,50,52,54,56,58,-1,60,-1,62,-1,64,66,68,70,72,-1,74,76,78,80,82,84,86,88,90,92,94,96,98,100,-1,-1,-1,-1,-1,-1,-1,-1,-1,-1,-1,-1,-1,-1,-1,-1,-1,-1,-1,-1,-1,-1,-1,-1,-1,-1,-1,-1,-1,-1,-1,-1,-1,-1,-1,-1,-1,-1,-1,-1,-1,-1,-1,-1],"split_conditions":[7.1E-1,4.94E0,6.89E0,4.56E0,5.31E0,3.94E0,7.78E0,4.26E0,1E0,1E0,1E0,3.8E0,1E0,1E0,1E0,-8.403104E-2,1E0,1E0,-6.694144E-2,1E0,-5.0938036E-2,1E0,1E0,1E0,1E0,1E0,1E0,1E0,1.51E0,1E0,1E0,1E0,-8.143764E-2,1E0,-7.342267E-2,1E0,-4.2354796E-2,1E0,1E0,1E0,3.46E0,1E0,-3.044051E-2,1E0,1E0,1E0,1E0,1E0,1E0,1E0,1E0,5.84E1,1E0,1E0,1E0,4.8E0,2.14E0,-6.694504E-2,-8.685559E-2,-5.0692E-2,-6.0095876E-2,-2.8555665E-2,-5.00153E-2,-2.5059944E-2,6.8327324E-3,2.6932892E-3,-2.6035422E-2,-1.1162077E-4,-2.3435917E-2,-2.63591E-2,-8.712105E-3,-6.2949844E-3,-1.762048E-2,3.7936491E-3,-1.4144011E-2,-1.53884245E-2,-3.2333136E-2,7.7085444E-3,4.4283617E-2,7.107962E-2,2.5961453E-2,4.5046646E-2,-1.3992968E-2,1.4848937E-2,2.7522584E-2,2.6752913E-2,4.754783E-2,6.84757E-2,3.6086585E-2,-1.2689452E-2,9.994852E-3,2.3358E-2,1.0322719E-2,4.7144737E-2,8.3303176E-2,7.751628E-2,3.6934894E-2,5.0632935E-2,8.7978065E-2,4.5585636E-2,8.252195E-2],"split_indices":[0,3,4,3,3,5,4,3,17,18,22,5,22,18,20,0,17,18,0,17,0,21,13,15,15,16,12,11,0,17,15,18,0,20,0,14,0,16,14,14,5,18,0,14,0,21,12,15,7,12,17,1,14,19,15,5,0,0,0,0,0,0,0,0,0,0,0,0,0,0,0,0,0,0,0,0,0,0,0,0,0,0,0,0,0,0,0,0,0,0,0,0,0,0,0,0,0,0,0,0,0],"split_type":[0,0,0,0,0,0,0,0,0,0,0,0,0,0,0,0,0,0,0,0,0,0,0,0,0,0,0,0,0,0,0,0,0,0,0,0,0,0,0,0,0,0,0,0,0,0,0,0,0,0,0,0,0,0,0,0,0,0,0,0,0,0,0,0,0,0,0,0,0,0,0,0,0,0,0,0,0,0,0,0,0,0,0,0,0,0,0,0,0,0,0,0,0,0,0,0,0,0,0,0,0],"sum_hessian":[7.1519785E3,2.0331202E3,5.1188584E3,1.0642643E3,9.688559E2,3.1829534E3,1.935905E3,6.408639E2,4.234004E2,5.0634683E2,4.625091E2,1.3023379E3,1.8806155E3,1.4099297E3,5.259753E2,1.0142909E2,5.394348E2,3.3292682E2,9.047358E1,4.624451E2,4.3901733E1,4.1547208E2,4.7037018E1,7.3146533E2,5.708726E2,1.7334462E3,1.4716928E2,1.1125635E3,2.9736624E2,4.4963382E2,7.634148E1,4.500487E2,8.938608E1,3.0182764E2,3.1099176E1,3.519788E2,1.1046629E2,3.8513718E2,3.0334898E1,4.098587E1,6.051147E0,6.973051E2,3.4160164E1,5.4621204E2,2.466057E1,1.6945134E3,3.893275E1,9.290316E1,5.426612E1,9.630549E2,1.4950859E2,1.4327095E2,1.5409529E2,3.2034814E2,1.2928566E2,5.088135E1,2.5460123E1,4.2386557E2,2.6183147E1,2.1625688E2,8.557076E1,3.3709793E2,1.4880883E1,3.7358466E2,1.1552508E1,2.479912E1,5.5357785E0,3.7070023E1,3.9158468E0,3.234186E0,2.816961E0,5.484142E2,1.4889096E2,4.987378E2,4.7474236E1,1.6051641E1,8.60893E0,1.6335044E3,6.1009056E1,2.5750532E1,1.3182219E1,8.92248E1,3.6783576E0,2.6940306E1,2.7325817E1,7.0645435E2,2.5660056E2,1.00968475E2,4.854011E1,4.652534E0,1.3861842E2,1.2655827E2,2.7537024E1,2.8671234E2,3.3635807E1,1.020814E2,2.7204273E1,6.32297E0,4.455838E1,1.7431122E1,8.029E0],"tree_param":{"num_deleted":"0","num_feature":"23","num_nodes":"101","size_leaf_vector":"1"}},{"base_weights":[-8.3735E-3,-4.8049933E-1,1.5417351E-1,-6.4367676E-1,-2.7942687E-1,5.4829773E-2,3.926597E-1,-7.2464794E-1,-5.78022E-1,-3.3584434E-1,-2.2880913E-1,-6.861415E-2,1.174761E-1,3.1696463E-1,5.6151074E-1,-7.389838E-1,-5.566786E-2,-6.2175953E-1,-5.230676E-1,-3.5502982E-1,-2.0262176E-1,5.6085195E-2,-2.3284335E-1,-1.1415918E-1,-2.4775388E-2,6.635397E-2,2.1344283E-1,2.7789077E-1,5.254567E-1,5.928949E-1,3.532648E-1,-8.236823E-2,-7.125114E-1,-6.370632E-1,-4.913896E-2,-5.40527E-1,-4.1111425E-1,-3.7044346E-1,-1.6783847E-1,-1.41864E-1,-2.654822E-2,-2.4914631E-1,-9.997168E-2,-1.2711531E-1,4.5230243E-2,-3.0762848E-2,2.750877E-1,5.835869E-2,4.852904E-1,2.5094292E-1,5.1982384E-2,2.1398912E-1,4.2769152E-1,4.8833284E-1,1.09065905E-1,6.2555313E-1,4.6683198E-1,3.0086446E-1,7.282231E-1,-7.351085E-2,-5.8402527E-2,-6.522606E-2,-4.6258572E-2,-5.6035858E-2,-4.324278E-2,-4.3035958E-2,-2.5237698E-2,-3.7990768E-2,-1.2394377E-2,-2.0412339E-2,6.8341657E-3,-1.1737758E-2,-3.3575863E-2,-2.5888978E-2,1.2287799E-3,-7.6493444E-3,-2.4386982E-2,-1.3868188E-2,6.077111E-3,1.0352012E-2,-1.6628914E-2,-4.5913397E-3,8.0312E-3,3.175355E-2,1.5448969E-3,4.9443035E-3,3.8844552E-2,6.149968E-2,2.1014307E-2,3.0481756E-2,1.0936546E-2,1.2198032E-3,9.252317E-3,1.7527573E-2,6.1960597E-2,4.863596E-2,1.6526785E-2,4.3749418E-2,9.4152115E-2,5.770793E-2,7.613094E-2,3.704078E-2,7.541919E-2,1.0393511E-2,4.4798713E-2,7.9221256E-2,2.0306077E-2],"categories":[],"categories_nodes":[],"categories_segments":[],"categories_sizes":[],"default_left":[0,0,0,0,0,0,0,0,0,0,0,0,0,0,1,0,0,0,0,0,0,0,0,0,0,0,0,0,0,0,0,0,0,0,0,0,0,0,0,0,0,0,0,0,0,0,0,0,0,0,0,0,0,0,0,0,0,0,0,0,0,0,0,0,0,0,0,0,0,0,0,0,0,0,0,0,0,0,0,0,0,0,0,0,0,0,0,0,0,0,0,0,0,0,0,0,0,0,0,0,0,0,0,0,0,0,0],"id":15,"left_children":[1,3,5,7,9,11,13,15,17,19,21,23,25,27,29,31,-1,33,35,37,39,-1,41,43,45,47,49,51,53,55,57,-1,59,61,-1,63,65,67,69,71,-1,73,75,77,79,81,83,85,87,89,91,93,95,97,-1,99,101,103,105,-1,-1,-1,-1,-1,-1,-1,-1,-1,-1,-1,-1,-1,-1,-1,-1,-1,-1,-1,-1,-1,-1,-1,-1,-1,-1,-1,-1,-1,-1,-1,-1,-1,-1,-1,-1,-1,-1,-1,-1,-1,-1,-1,-1,-1,-1,-1,-1],"loss_changes":[5.425352E2,5.922632E1,1.24575E2,4.890442E0,2.2445145E0,2.8727013E1,1.958583E1,6.559601E-1,1.0122681E0,9.051399E-1,1.505518E0,2.494604E0,1.2073547E1,8.570648E0,2.910263E0,3.219452E-1,0E0,2.9457092E-1,2.721176E-1,8.981285E-1,1.5502477E-1,0E0,9.0680313E-1,1.272037E0,1.1550622E0,5.3609347E0,5.16914E0,8.554611E0,2.9873009E0,1.409729E0,1.0578432E0,0E0,4.888153E-1,4.1205597E-1,0E0,2.1990204E-1,8.38232E-3,6.683655E-1,2.4661034E-1,9.258938E-2,0E0,9.773483E-1,1.4579678E-1,1.2414131E0,5.946584E-1,1.0588696E0,1.339885E-1,4.630559E0,9.412317E-1,5.262432E0,2.6109198E-1,9.864906E0,4.062378E0,3.2565727E0,0E0,1.7017136E0,2.1864548E0,1.6548986E0,8.326602E-2,0E0,0E0,0E0,0E0,0E0,0E0,0E0,0E0,0E0,0E0,0E0,0E0,0E0,0E0,0E0,0E0,0E0,0E0,0E0,0E0,0E0,0E0,0E0,0E0,0E0,0E0,0E0,0E0,0E0,0E0,0E0,0E0,0E0,0E0,0E0,0E0,0E0,0E0,0E0,0E0,0E0,0E0,0E0,0E0,0E0,0E0,0E0,0E0],"parents":[2147483647,0,0,1,1,2,2,3,3,4,4,5,5,6,6,7,7,8,8,9,9,10,10,11,11,12,12,13,13,14,14,15,15,17,17,18,18,19,19,20,20,22,22,23,23,24,24,25,25,26,26,27,27,28,28,29,29,30,30,32,32,33,33,35,35,36,36,37,37,38,38,39,39,41,41,42,42,43,43,44,44,45,45,46,46,47,47,48,48,49,49,50,50,51,51,52,52,53,53,55,55,56,56,57,57,58,58],"right_children":[2,4,6,8,10,12,14,16,18,20,22,24,26,28,30,32,-1,34,36,38,40,-1,42,44,46,48,50,52,54,56,58,-1,60,62,-1,64,66,68,70,72,-1,74,76,78,80,82,84,86,88,90,92,94,96,98,-1,100,102,104,106,-1,-1,-1,-1,-1,-1,-1,-1,-1,-1,-1,-1,-1,-1,-1,-1,-1,-1,-1,-1,-1,-1,-1,-1,-1,-1,-1,-1,-1,-1,-1,-1,-1,-1,-1,-1,-1,-1,-1,-1,-1,-1,-1,-1,-1,-1,-1,-1],"split_conditions":[5.66E0,4.5E-1,4.39E0,4.43E0,5.4E-1,6.3E0,2E0,1E0,4.71E0,1E0,4.16E0,5.93E0,1E0,1E0,6.33E1,4.26E0,-5.566786E-2,1E0,1E0,1E0,1E0,5.6085195E-2,1E0,1E0,1E0,1E0,1E0,1E0,1E0,1E0,1E0,-8.236823E-2,1E0,1E0,-4.913896E-2,1E0,1E0,1E0,1E0,1E0,-2.654822E-2,1E0,1E0,1E0,1E0,1E0,1E0,1E0,1E0,1E0,4.08E0,1E0,1E0,1E0,1.09065905E-1,1E0,5.19E0,1E0,5.91E1,-7.351085E-2,-5.8402527E-2,-6.522606E-2,-4.6258572E-2,-5.6035858E-2,-4.324278E-2,-4.3035958E-2,-2.5237698E-2,-3.7990768E-2,-1.2394377E-2,-2.0412339E-2,6.8341657E-3,-1.1737758E-2,-3.3575863E-2,-2.5888978E-2,1.2287799E-3,-7.6493444E-3,-2.4386982E-2,-1.3868188E-2,6.077111E-3,1.0352012E-2,-1.6628914E-2,-4.5913397E-3,8.0312E-3,3.175355E-2,1.5448969E-3,4.9443035E-3,3.8844552E-2,6.149968E-2,2.1014307E-2,3.0481756E-2,1.0936546E-2,1.2198032E-3,9.252317E-3,1.7527573E-2,6.1960597E-2,4.863596E-2,1.6526785E-2,4.3749418E-2,9.4152115E-2,5.770793E-2,7.613094E-2,3.704078E-2,7.541919E-2,1.0393511E-2,4.4798713E-2,7.9221256E-2,2.0306077E-2],"split_indices":[4,0,5,3,0,4,0,16,3,22,4,4,7,19,1,3,0,21,21,21,12,0,22,22,21,16,18,20,10,15,20,0,21,16,0,22,10,16,10,14,0,16,13,21,14,19,14,21,12,17,5,22,14,11,0,17,5,18,2,0,0,0,0,0,0,0,0,0,0,0,0,0,0,0,0,0,0,0,0,0,0,0,0,0,0,0,0,0,0,0,0,0,0,0,0,0,0,0,0,0,0,0,0,0,0,0,0],"split_type":[0,0,0,0,0,0,0,0,0,0,0,0,0,0,0,0,0,0,0,0,0,0,0,0,0,0,0,0,0,0,0,0,0,0,0,0,0,0,0,0,0,0,0,0,0,0,0,0,0,0,0,0,0,0,0,0,0,0,0,0,0,0,0,0,0,0,0,0,0,0,0,0,0,0,0,0,0,0,0,0,0,0,0,0,0,0,0,0,0,0,0,0,0,0,0,0,0,0,0,0,0,0,0,0,0,0,0],"sum_hessian":[7.0675747E3,1.809586E3,5.257989E3,9.9770886E2,8.1187726E2,3.7126702E3,1.5453187E3,4.4225006E2,5.554588E2,3.8127792E2,4.305993E2,1.2498192E3,2.4628508E3,1.0689784E3,4.7634033E2,4.0434076E2,3.790931E1,3.0355173E2,2.5190706E2,3.3182645E2,4.9451492E1,1.4871073E0,4.291122E2,6.121938E2,6.376255E2,1.6079672E3,8.5488367E2,9.022239E2,1.6675449E2,4.1234933E2,6.3991013E1,8.9111946E1,3.1522882E2,2.6818405E2,3.536769E1,2.1460997E2,3.7297085E1,3.0567752E2,2.6148928E1,2.680242E1,2.2649073E1,3.8143607E2,4.767616E1,5.663592E2,4.5834583E1,6.260229E2,1.1602581E1,1.5789723E3,2.899491E1,6.933054E2,1.6157822E2,6.341417E2,2.6808215E2,1.5822583E2,8.52866E0,3.243579E2,8.799142E1,5.772619E1,6.264827E0,2.6406583E2,5.1163E1,2.4417728E2,2.4006767E1,1.7780637E2,3.6803616E1,3.173802E1,5.5590653E0,2.9385394E2,1.1823572E1,2.278426E1,3.3646688E0,2.5222506E1,1.579914E0,3.677404E2,1.3695677E1,4.2305264E1,5.3708944E0,5.337619E2,3.2597305E1,3.6332714E1,9.501872E0,5.51399E2,7.4623886E1,9.780585E0,1.8219957E0,1.5385653E3,4.0406906E1,1.8866129E1,1.012878E1,5.0136673E2,1.919387E2,8.220648E1,7.937174E1,5.801979E2,5.394386E1,2.1840228E2,4.967987E1,1.4403352E2,1.4192308E1,2.4288345E2,8.147446E1,6.759784E1,2.0393581E1,2.5414436E1,3.2311752E1,5.131107E0,1.1337197E0],"tree_param":{"num_deleted":"0","num_feature":"23","num_nodes":"107","size_leaf_vector":"1"}},{"base_weights":[-7.856824E-3,-4.6850687E-1,1.3437504E-1,-6.171839E-1,-2.7330974E-1,2.2143988E-2,3.133716E-1,-7.056428E-1,-5.562845E-1,-2.5612074E-1,-4.5241274E-2,-8.9547E-2,7.360748E-2,2.2585957E-1,4.5852202E-1,-7.202604E-1,-5.3075552E-2,-5.968439E-1,-4.9701345E-1,