{"learner":{"attributes":{},"feature_names":["carat","depth","table","x","y","z","cut_good","cut_ideal","cut_premium","cut_very_good","color_e","color_f","color_g","color_h","color_i","color_j","clarity_if","clarity_si1","clarity_si2","clarity_vs1","clarity_vs2","clarity_vvs1","clarity_vvs2"],"feature_types":["float","float","float","float","float","float","i","i","i","i","i","i","i","i","i","i","i","i","i","i","i","i","i"],"gradient_booster":{"model":{"gbtree_model_param":{"num_parallel_tree":"1","num_trees":"100"},"iteration_indptr":[0,1,2,3,4,5,6,7,8,9,10,11,12,13,14,15,16,17,18,19,20,21,22,23,24,25,26,27,28,29,30,31,32,33,34,35,36,37,38,39,40,41,42,43,44,45,46,47,48,49,50,51,52,53,54,55,56,57,58,59,60,61,62,63,64,65,66,67,68,69,70,71,72,73,74,75,76,77,78,79,80,81,82,83,84,85,86,87,88,89,90,91,92,93,94,95,96,97,98,99,100],"tree_info":[0,0,0,0,0,0,0,0,0,0,0,0,0,0,0,0,0,0,0,0,0,0,0,0,0,0,0,0,0,0,0,0,0,0,0,0,0,0,0,0,0,0,0,0,0,0,0,0,0,0,0,0,0,0,0,0,0,0,0,0,0,0,0,0,0,0,0,0,0,0,0,0,0,0,0,0,0,0,0,0,0,0,0,0,0,0,0,0,0,0,0,0,0,0,0,0,0,0,0,0],"trees":[{"base_weights":[-8.277273E-5,-2.300093E3,4.209094E3,-2.880675E3,-8.741206E2,2.2221775E3,8.416223E3,-3.1464888E3,-2.2473972E3,-1.2210026E3,-1.8423387E0,2.7457231E3,7.416998E2,7.0468184E3,1.1004005E4,-3.2319673E3,-2.963873E3,-2.1918542E3,-2.7414462E2,-1.5068749E3,-1.063796E3,1.7066806E2,-4.051659E2,3.462738E3,1.4738367E3,3.8602786E2,1.7486643E3,7.6346387E3,4.934979E3,1.1319466E4,9.731165E3,-3.3533167E2,-3.1917937E3,-2.9946353E3,-2.7397653E2,-2.0761963E3,-2.5174978E3,-1.4374637E3,-1.867354E3,-9.615741E2,-1.5015276E3,2.3861578E2,-8.3183264E2,-6.981699E2,-2.9080334E2,2.9086372E3,4.5659897E3,1.0933154E3,2.623893E3,2.399202E2,6.892701E2,1.5039237E3,3.0152058E3,8.111325E3,4.306281E3,4.386949E3,6.574006E3,1.1360046E4,5.217108E3,8.756521E3,1.1196139E4,-3.2119882E2,-2.979829E2,-3.011297E2,-2.6910202E2,-1.937575E2,-2.2614038E2,-2.6024374E2,-2.3901321E2,-1.3109795E2,-1.6576591E2,-2.4106187E2,-1.8165576E2,-9.043798E1,-1.8535497E2,-1.6039427E2,-1.248006E2,3.456283E1,-4.863521E1,-1.0899672E2,-6.633273E1,-9.468165E1,-5.8875393E1,-5.2204426E1,-1.891975E1,2.7559192E2,7.118016E2,4.9170334E2,1.6496156E2,1.1405023E2,1.1097353E1,2.2911621E2,4.7087628E2,-1.5197472E1,3.198589E1,5.5013508E1,9.39639E1,1.5980101E2,6.330083E1,2.870663E2,8.755467E2,8.663068E2,6.1123444E2,3.9757224E2,5.394423E2,4.5170557E2,2.3711717E2,5.894447E2,7.485119E2,1.1079822E3,1.2158823E3,6.1836224E2,2.4339603E2,8.830566E2,3.19936E2,1.1245892E3,1.4686002E2],"categories":[],"categories_nodes":[],"categories_segments":[],"categories_sizes":[],"default_left":[0,0,0,0,0,0,0,0,0,0,0,0,0,0,0,0,0,0,0,0,0,0,0,0,0,0,0,0,0,1,0,0,0,0,0,0,0,0,0,0,0,0,0,0,0,0,0,0,0,0,0,0,0,0,0,0,0,0,0,1,1,0,0,0,0,0,0,0,0,0,0,0,0,0,0,0,0,0,0,0,0,0,0,0,0,0,0,0,0,0,0,0,0,0,0,0,0,0,0,0,0,0,0,0,0,0,0,0,0,0,0,0,0,0,0,0,0],"id":0,"left_children":[1,3,5,7,9,11,13,15,17,19,21,23,25,27,29,31,33,35,-1,37,39,41,43,45,47,49,51,53,55,57,59,-1,61,63,-1,65,67,69,71,73,75,77,79,81,83,85,87,89,91,93,95,97,99,101,103,105,107,109,111,113,115,-1,-1,-1,-1,-1,-1,-1,-1,-1,-1,-1,-1,-1,-1,-1,-1,-1,-1,-1,-1,-1,-1,-1,-1,-1,-1,-1,-1,-1,-1,-1,-1,-1,-1,-1,-1,-1,-1,-1,-1,-1,-1,-1,-1,-1,-1,-1,-1,-1,-1,-1,-1,-1,-1,-1,-1],"loss_changes":[5.2222912E11,2.8875244E10,1.5931625E11,4.1655992E9,3.0542167E9,1.0033922E10,2.158877E10,2.6289766E8,1.9518669E8,3.2295936E8,1.9996531E8,8.717812E9,1.2113011E9,4.929077E9,7.3867264E8,4.721869E7,3.0253056E7,2.4319795E8,0E0,6.137037E7,2.0720589E8,1.373193E8,2.8647952E7,3.7255086E9,1.5069235E9,1.1068822E8,2.69173E8,4.9279304E9,7.5621786E8,3.5874406E8,5.1163955E8,0E0,2.8729344E7,1.665024E7,0E0,1.2072755E8,1.243136E7,5.773517E7,6.935424E6,1.91317E8,2.087296E7,1.4648518E8,4.844616E6,5.999192E6,1.4491892E7,2.5993462E9,2.0834591E9,1.2011494E8,5.837133E8,5.2992184E7,2.7804032E7,5.97888E7,9.268531E7,2.963538E9,1.202729E8,1.618606E8,9.02359E7,2.404352E8,1.991872E7,7.914291E7,6.43072E7,0E0,0E0,0E0,0E0,0E0,0E0,0E0,0E0,0E0,0E0,0E0,0E0,0E0,0E0,0E0,0E0,0E0,0E0,0E0,0E0,0E0,0E0,0E0,0E0,0E0,0E0,0E0,0E0,0E0,0E0,0E0,0E0,0E0,0E0,0E0,0E0,0E0,0E0,0E0,0E0,0E0,0E0,0E0,0E0,0E0,0E0,0E0,0E0,0E0,0E0,0E0,0E0,0E0,0E0,0E0,0E0],"parents":[2147483647,0,0,1,1,2,2,3,3,4,4,5,5,6,6,7,7,8,8,9,9,10,10,11,11,12,12,13,13,14,14,15,15,16,16,17,17,19,19,20,20,21,21,22,22,23,23,24,24,25,25,26,26,27,27,28,28,29,29,30,30,32,32,33,33,35,35,36,36,37,37,38,38,39,39,40,40,41,41,42,42,43,43,44,44,45,45,46,46,47,47,48,48,49,49,50,50,51,51,52,52,53,53,54,54,55,55,56,56,57,57,58,58,59,59,60,60],"right_children":[2,4,6,8,10,12,14,16,18,20,22,24,26,28,30,32,34,36,-1,38,40,42,44,46,48,50,52,54,56,58,60,-1,62,64,-1,66,68,70,72,74,76,78,80,82,84,86,88,90,92,94,96,98,100,102,104,106,108,110,112,114,116,-1,-1,-1,-1,-1,-1,-1,-1,-1,-1,-1,-1,-1,-1,-1,-1,-1,-1,-1,-1,-1,-1,-1,-1,-1,-1,-1,-1,-1,-1,-1,-1,-1,-1,-1,-1,-1,-1,-1,-1,-1,-1,-1,-1,-1,-1,-1,-1,-1,-1,-1,-1,-1,-1,-1,-1],"split_conditions":[1E0,6.3E-1,7.21E0,4.98E0,8.6E-1,1E0,7.88E0,4.63E0,1E0,5.73E0,1E0,1E0,1.2E0,1E0,1E0,4.3E0,1E0,1E0,-2.7414462E2,1E0,1E0,1E0,6.14E0,6.76E0,1.2E0,1.07E0,1.37E0,1E0,1.67E0,6.63E1,8.31E0,-3.3533167E2,1E0,1E0,-2.7397653E2,1E0,5.24E0,1E0,7E-1,1E0,7.9E-1,1E0,6.16E0,6.04E0,3.8E0,1E0,1E0,1E0,1.37E0,6.33E0,1E0,1E0,1.57E0,1E0,4.69E0,1E0,1.78E0,1E0,6.72E1,6.55E1,6.82E1,-3.2119882E2,-2.979829E2,-3.011297E2,-2.6910202E2,-1.937575E2,-2.2614038E2,-2.6024374E2,-2.3901321E2,-1.3109795E2,-1.6576591E2,-2.4106187E2,-1.8165576E2,-9.043798E1,-1.8535497E2,-1.6039427E2,-1.248006E2,3.456283E1,-4.863521E1,-1.0899672E2,-6.633273E1,-9.468165E1,-5.8875393E1,-5.2204426E1,-1.891975E1,2.7559192E2,7.118016E2,4.9170334E2,1.6496156E2,1.1405023E2,1.1097353E1,2.2911621E2,4.7087628E2,-1.5197472E1,3.198589E1,5.5013508E1,9.39639E1,1.5980101E2,6.330083E1,2.870663E2,8.755467E2,8.663068E2,6.1123444E2,3.9757224E2,5.394423E2,4.5170557E2,2.3711717E2,5.894447E2,7.485119E2,1.1079822E3,1.2158823E3,6.1836224E2,2.4339603E2,8.830566E2,3.19936E2,1.1245892E3,1.4686002E2],"split_indices":[0,0,4,4,0,18,4,3,18,4,18,17,0,18,15,3,21,17,0,18,18,15,4,4,0,0,0,15,0,1,3,0,16,16,0,20,3,17,0,15,0,14,4,4,5,16,15,15,0,4,7,15,0,14,5,15,0,17,1,1,1,0,0,0,0,0,0,0,0,0,0,0,0,0,0,0,0,0,0,0,0,0,0,0,0,0,0,0,0,0,0,0,0,0,0,0,0,0,0,0,0,0,0,0,0,0,0,0,0,0,0,0,0,0,0,0,0],"split_type":[0,0,0,0,0,0,0,0,0,0,0,0,0,0,0,0,0,0,0,0,0,0,0,0,0,0,0,0,0,0,0,0,0,0,0,0,0,0,0,0,0,0,0,0,0,0,0,0,0,0,0,0,0,0,0,0,0,0,0,0,0,0,0,0,0,0,0,0,0,0,0,0,0,0,0,0,0,0,0,0,0,0,0,0,0,0,0,0,0,0,0,0,0,0,0,0,0,0,0,0,0,0,0,0,0,0,0,0,0,0,0,0,0,0,0,0,0],"sum_hessian":[5.394E4,3.488E4,1.906E4,2.4787E4,1.0093E4,1.2947E4,6.113E3,1.7456E4,7.331E3,7.221E3,2.872E3,9.564E3,3.383E3,4E3,2.113E3,1.1879E4,5.577E3,6.595E3,7.36E2,2.559E3,4.662E3,2.012E3,8.6E2,6.115E3,3.449E3,2.501E3,8.82E2,3.127E3,8.73E2,1.687E3,4.26E2,2.934E3,8.945E3,4.893E3,6.84E2,4.872E3,1.723E3,2.15E3,4.09E2,3.782E3,8.8E2,1.885E3,1.27E2,2.4E2,6.2E2,4.073E3,2.042E3,2.593E3,8.56E2,1.689E3,8.12E2,7.41E2,1.41E2,2.734E3,3.93E2,6.57E2,2.16E2,1.675E3,1.2E1,2.6E2,1.66E2,8.154E3,7.91E2,4.63E3,2.63E2,2.793E3,2.079E3,1.022E3,7.01E2,1.37E3,7.8E2,3.1E1,3.78E2,3.556E3,2.26E2,6.23E2,2.57E2,1.643E3,2.42E2,4.8E1,7.9E1,7.1E1,1.69E2,1.88E2,4.32E2,3.932E3,1.41E2,1.822E3,2.2E2,2.474E3,1.19E2,7.4E2,1.16E2,2.86E2,1.403E3,5.24E2,2.88E2,6.68E2,7.3E1,1.39E2,2E0,2.14E3,5.94E2,3.05E2,8.8E1,6.16E2,4.1E1,1.28E2,8.8E1,1.251E3,4.24E2,8E0,4E0,2.56E2,4E0,1.65E2,1E0],"tree_param":{"num_deleted":"0","num_feature":"23","num_nodes":"117","size_leaf_vector":"1"}},{"base_weights":[1.7484722E-1,-2.070218E3,3.7889255E3,-2.590719E3,-7.8015173E2,2.0002703E3,7.576253E3,-2.8323591E3,-2.0194355E3,-1.1129165E3,-4.050696E1,1.7883794E3,4.9654077E3,6.3432466E3,9.906281E3,-2.914183E3,-2.6796147E3,-2.0733472E3,-1.5993425E3,-1.3852444E3,-9.9982684E2,-5.992245E2,6.7398834E1,1.6627134E3,5.853697E3,4.237532E3,5.821083E3,6.871947E3,4.4438003E3,1.0189406E4,8.763843E3,-3.0180994E2,-2.8776406E3,-2.7089233E3,-2.4654797E2,-2.1146157E3,-1.5135107E3,-1.6892269E3,-1.3560015E3,-1.4216907E3,-7.1133075E2,-9.1407916E2,-1.3719323E3,-6.215231E2,2.3434785E2,2.2529445E2,-3.1020276E2,1.570847E3,6.6925723E3,4.7977476E3,6.733419E3,4.399818E3,1.7106807E3,5.9798965E3,1.695372E3,7.300733E3,3.878031E3,3.9365579E3,5.94292E3,1.0225428E4,4.761686E3,7.885478E3,1.0084139E4,-2.849544E2,-3.0125345E2,-2.726369E2,-2.420916E2,-2.1407617E2,-1.2907596E2,-1.4247026E2,-2.0505972E2,-1.5799132E2,-1.8213503E2,-1.3058173E2,-1.7053214E2,-1.3630542E2,-1.7142723E2,-5.2048367E1,-1.2785342E2,-7.613788E1,-1.1838586E2,-1.4576964E2,-1.1028245E2,-5.541465E1,-1.4514851E2,2.859574E1,-6.876638E1,-2.7228046E1,-8.8776764E1,1.161403E2,2.6021112E2,7.683689E2,5.0192673E2,4.3049976E2,6.425998E2,6.9276935E2,2.4465697E2,4.9416245E2,3.4985574E2,9.148672E0,1.9562688E2,6.2448285E2,3.3622885E2,1.7537563E2,4.098042E1,7.797167E2,5.5021375E2,3.5794495E2,4.8610416E2,4.0492984E2,2.1919861E2,6.147016E2,3.4710165E2,1.0050828E3,1.1470819E3,5.6339667E2,2.2392435E2,7.954856E2,2.742363E2,1.01280774E3,1.3951701E2],"categories":[],"categories_nodes":[],"categories_segments":[],"categories_sizes":[],"default_left":[0,0,0,0,0,0,0,0,0,0,0,0,0,0,0,0,0,0,0,0,0,0,0,0,0,0,0,0,0,1,0,0,0,0,0,0,0,0,0,0,0,0,0,0,0,0,0,0,0,0,0,0,0,0,1,0,0,0,0,0,0,0,1,0,0,0,0,0,0,0,0,0,0,0,0,0,0,0,0,0,0,0,0,0,0,0,0,0,0,0,0,0,0,0,0,0,0,0,0,0,0,0,0,0,0,0,0,0,0,0,0,0,0,0,0,0,0,0,0,0,0],"id":1,"left_children":[1,3,5,7,9,11,13,15,17,19,21,23,25,27,29,31,33,35,37,39,41,43,45,47,49,51,53,55,57,59,61,-1,63,65,-1,67,69,71,73,75,77,79,81,83,-1,85,87,89,91,93,95,97,99,101,103,105,107,109,111,113,115,117,119,-1,-1,-1,-1,-1,-1,-1,-1,-1,-1,-1,-1,-1,-1,-1,-1,-1,-1,-1,-1,-1,-1,-1,-1,-1,-1,-1,-1,-1,-1,-1,-1,-1,-1,-1,-1,-1,-1,-1,-1,-1,-1,-1,-1,-1,-1,-1,-1,-1,-1,-1,-1,-1,-1,-1,-1,-1,-1],"loss_changes":[4.23132E11,2.3419896E10,1.29108345E11,3.425108E9,2.46837E9,8.126165E9,1.7502274E10,2.104361E8,1.6407347E8,2.1164134E8,1.8771962E8,6.1646643E9,5.128315E8,3.9874068E9,5.9447706E8,3.445555E7,3.1629312E7,1.4805811E8,1.6191488E7,4.877491E7,1.5480371E8,3.452803E7,1.5568237E8,5.407314E9,3.0397133E8,1.8520678E8,2.4801894E8,3.9872758E9,6.412104E8,2.8136243E8,4.156764E8,0E0,2.33472E7,2.0324352E7,0E0,1.2852634E8,1.8685632E7,5.975936E6,1.857728E6,3.0637056E7,1.0808952E7,1.6297395E8,1.9487488E7,2.7211584E7,0E0,1.0215625E8,1.6623272E7,4.8595497E9,3.0970573E8,1.0712576E8,1.4545203E8,1.9805594E8,1.1750672E7,2.4183398E8,4.82216E5,2.399142E9,9.824256E7,1.2014899E8,8.914995E7,2.4911872E8,1.5987808E7,7.131341E7,4.962611E7,0E0,0E0,0E0,0E0,0E0,0E0,0E0,0E0,0E0,0E0,0E0,0E0,0E0,0E0,0E0,0E0,0E0,0E0,0E0,0E0,0E0,0E0,0E0,0E0,0E0,0E0,0E0,0E0,0E0,0E0,0E0,0E0,0E0,0E0,0E0,0E0,0E0,0E0,0E0,0E0,0E0,0E0,0E0,0E0,0E0,0E0,0E0,0E0,0E0,0E0,0E0,0E0,0E0,0E0,0E0,0E0,0E0,0E0],"parents":[2147483647,0,0,1,1,2,2,3,3,4,4,5,5,6,6,7,7,8,8,9,9,10,10,11,11,12,12,13,13,14,14,15,15,16,16,17,17,18,18,19,19,20,20,21,21,22,22,23,23,24,24,25,25,26,26,27,27,28,28,29,29,30,30,32,32,33,33,35,35,36,36,37,37,38,38,39,39,40,40,41,41,42,42,43,43,45,45,46,46,47,47,48,48,49,49,50,50,51,51,52,52,53,53,54,54,55,55,56,56,57,57,58,58,59,59,60,60,61,61,62,62],"right_children":[2,4,6,8,10,12,14,16,18,20,22,24,26,28,30,32,34,36,38,40,42,44,46,48,50,52,54,56,58,60,62,-1,64,66,-1,68,70,72,74,76,78,80,82,84,-1,86,88,90,92,94,96,98,100,102,104,106,108,110,112,114,116,118,120,-1,-1,-1,-1,-1,-1,-1,-1,-1,-1,-1,-1,-1,-1,-1,-1,-1,-1,-1,-1,-1,-1,-1,-1,-1,-1,-1,-1,-1,-1,-1,-1,-1,-1,-1,-1,-1,-1,-1,-1,-1,-1,-1,-1,-1,-1,-1,-1,-1,-1,-1,-1,-1,-1,-1,-1,-1,-1],"split_conditions":[1E0,5.52E0,7.21E0,4.7E-1,6.02E0,1E0,7.88E0,4.59E0,1E0,5.71E0,9E-1,1E0,1.1E0,1E0,1E0,4.3E0,1E0,1E0,5.32E0,1E0,1E0,1E0,1E0,1E0,1.1E0,1E0,1E0,1E0,7.59E0,6.63E1,8.31E0,-3.0180994E2,1E0,1E0,-2.4654797E2,1E0,1E0,1E0,1E0,1E0,1E0,1E0,7.9E-1,1E0,2.3434785E2,1E0,1E0,1.2E0,1E0,1E0,1E0,1E0,6.32E0,1E0,6.37E1,1E0,4.69E0,1E0,1E0,1E0,6.72E1,5.29E0,6.82E1,-2.849544E2,-3.0125345E2,-2.726369E2,-2.420916E2,-2.1407617E2,-1.2907596E2,-1.4247026E2,-2.0505972E2,-1.5799132E2,-1.8213503E2,-1.3058173E2,-1.7053214E2,-1.3630542E2,-1.7142723E2,-5.2048367E1,-1.2785342E2,-7.613788E1,-1.1838586E2,-1.4576964E2,-1.1028245E2,-5.541465E1,-1.4514851E2,2.859574E1,-6.876638E1,-2.7228046E1,-8.8776764E1,1.161403E2,2.6021112E2,7.683689E2,5.0192673E2,4.3049976E2,6.425998E2,6.9276935E2,2.4465697E2,4.9416245E2,3.4985574E2,9.148672E0,1.9562688E2,6.2448285E2,3.3622885E2,1.7537563E2,4.098042E1,7.797167E2,5.5021375E2,3.5794495E2,4.8610416E2,4.0492984E2,2.1919861E2,6.147016E2,3.4710165E2,1.0050828E3,1.1470819E3,5.6339667E2,2.2392435E2,7.954856E2,2.742363E2,1.01280774E3,1.3951701E2],"split_indices":[0,4,4,0,4,22,4,3,22,4,0,21,0,18,15,3,21,21,4,21,18,16,18,16,0,13,15,15,4,1,3,0,17,16,0,16,14,12,13,18,14,17,0,15,0,15,14,0,12,10,14,12,4,13,1,14,5,15,15,20,1,5,1,0,0,0,0,0,0,0,0,0,0,0,0,0,0,0,0,0,0,0,0,0,0,0,0,0,0,0,0,0,0,0,0,0,0,0,0,0,0,0,0,0,0,0,0,0,0,0,0,0,0,0,0,0,0,0,0,0,0],"split_type":[0,0,0,0,0,0,0,0,0,0,0,0,0,0,0,0,0,0,0,0,0,0,0,0,0,0,0,0,0,0,0,0,0,0,0,0,0,0,0,0,0,0,0,0,0,0,0,0,0,0,0,0,0,0,0,0,0,0,0,0,0,0,0,0,0,0,0,0,0,0,0,0,0,0,0,0,0,0,0,0,0,0,0,0,0,0,0,0,0,0,0,0,0,0,0,0,0,0,0,0,0,0,0,0,0,0,0,0,0,0,0,0,0,0,0,0,0,0,0,0,0],"sum_hessian":[5.394E4,3.488E4,1.906E4,2.4852E4,1.0028E4,1.2947E4,6.113E3,1.7462E4,7.39E3,6.916E3,3.112E3,1.2085E4,8.62E2,4E3,2.113E3,1.1359E4,6.103E3,6.546E3,8.44E2,2.026E3,4.89E3,5.03E2,2.609E3,1.1724E4,3.61E2,4.69E2,3.93E2,3.127E3,8.73E2,1.687E3,4.26E2,2.934E3,8.425E3,5.358E3,7.45E2,6.094E3,4.52E2,6.12E2,2.32E2,1.921E3,1.05E2,3.977E3,9.13E2,5E2,3E0,1.84E3,7.69E2,1.1515E4,2.09E2,1.67E2,1.94E2,4.4E2,2.9E1,3.78E2,1.5E1,2.734E3,3.93E2,6.55E2,2.18E2,1.675E3,1.2E1,2.6E2,1.66E2,6.991E3,1.434E3,5.044E3,3.14E2,5.905E3,1.89E2,3.91E2,6.1E1,3.42E2,2.7E2,2.07E2,2.5E1,1.605E3,3.16E2,8E1,2.5E1,2.542E3,1.435E3,6.89E2,2.24E2,4.64E2,3.6E1,1.726E3,1.14E2,7.23E2,4.6E1,8.244E3,3.271E3,1.29E2,8E1,1.31E2,3.6E1,1.85E2,9E0,2.72E2,1.68E2,4E0,2.5E1,3.42E2,3.6E1,1.4E1,1E0,2.14E3,5.94E2,3.05E2,8.8E1,6.14E2,4.1E1,2E2,1.8E1,1.477E3,1.98E2,8E0,4E0,2.56E2,4E0,1.65E2,1E0],"tree_param":{"num_deleted":"0","num_feature":"23","num_nodes":"121","size_leaf_vector":"1"}},{"base_weights":[3.5688603E-1,-1.788019E3,3.561242E3,-2.3340088E3,-5.710402E2,1.889852E3,6.818708E3,-2.545137E3,-1.8090513E3,-9.815269E2,2.2206146E2,2.3516646E3,5.7401526E2,5.6246426E3,8.768152E3,-2.6158784E3,-2.3874006E3,-1.7605817E3,-2.2416531E2,-1.1238116E3,-7.5322986E2,4.2274567E2,-2.641963E2,2.9599583E3,1.245967E3,2.734652E2,1.2808575E3,6.1121787E3,3.791789E3,7.4297607E3,9.037948E3,-2.7033853E3,-2.5776995E3,-2.3464785E3,-2.5279085E2,-1.6595248E3,-2.0399528E3,-1.2198647E3,-8.635473E2,-8.4038776E2,-3.8075317E2,1.4768356E2,9.9091315E2,-2.8634918E2,7.998295E2,2.6894114E3,4.5592314E3,1.0493606E3,2.8012654E3,1.636515E2,4.75653E2,1.055083E3,2.1650327E3,6.491731E3,3.4338977E3,3.413657E3,4.572928E3,7.7657827E3,5.164036E3,9.295483E3,8.028399E3,-2.758342E2,-2.661108E2,-2.594951E2,-2.3935982E2,-2.3129619E2,-2.615766E2,-1.5427351E2,-1.8113965E2,-2.1036333E2,-1.9277454E2,-1.19095146E2,-1.7977226E2,-7.5797516E1,-1.1833575E2,-8.014573E1,-1.6561937E2,-2.4417458E1,-8.232378E1,-3.767024E1,2.5497292E1,1.4266551E2,4.417281E1,-5.2435955E1,-1.651734E1,2.4875652E2,5.3629425E2,4.1519455E2,5.7492255E2,8.546489E1,1.5096468E2,3.1862027E2,1.05852295E2,1.9902683E1,-5.0679867E1,5.2194313E1,4.2824597E0,1.1288607E2,2.8678898E1,2.2900781E2,1.06752625E2,6.9596216E2,4.7556274E2,3.14947E2,4.151669E2,3.228486E2,4.321962E2,4.7550146E2,2.68568E2,8.5354755E2,6.52236E2,5.254267E2,1.9088917E1,9.0347296E2,1.0049466E3,7.05802E2,8.885535E2],"categories":[],"categories_nodes":[],"categories_segments":[],"categories_sizes":[],"default_left":[0,0,0,0,0,0,0,0,0,0,0,0,0,0,0,0,0,0,0,0,0,0,0,0,0,0,0,0,0,0,0,0,0,0,0,0,0,0,0,0,0,0,0,0,0,0,0,0,0,0,0,0,0,0,0,0,0,0,0,0,0,0,0,0,0,0,0,0,0,0,0,0,0,0,0,0,0,0,0,0,0,0,0,0,0,0,0,0,0,0,0,0,0,0,0,0,0,0,0,0,0,0,0,0,0,0,0,0,0,0,0,0,0,0,0,0,0],"id":2,"left_children":[1,3,5,7,9,11,13,15,17,19,21,23,25,27,29,31,33,35,-1,37,39,41,43,45,47,49,51,53,55,57,59,61,63,65,-1,67,69,71,73,75,77,79,81,83,-1,85,87,89,91,93,95,97,99,101,103,105,107,109,111,113,115,-1,-1,-1,-1,-1,-1,-1,-1,-1,-1,-1,-1,-1,-1,-1,-1,-1,-1,-1,-1,-1,-1,-1,-1,-1,-1,-1,-1,-1,-1,-1,-1,-1,-1,-1,-1,-1,-1,-1,-1,-1,-1,-1,-1,-1,-1,-1,-1,-1,-1,-1,-1,-1,-1,-1,-1],"loss_changes":[3.435135E11,2.3858029E10,9.817316E10,2.742616E9,3.6210698E9,7.242076E9,1.4184972E10,1.909801E8,1.451991E8,2.3722342E8,3.703463E8,5.9305574E9,6.577935E8,3.367977E9,7.709491E8,3.375923E7,2.5602048E7,1.7733018E8,0E0,1.1176806E8,9.11319E7,4.1962534E8,2.0527974E8,2.4501125E9,9.550751E8,4.8213664E7,1.8216858E8,3.0232904E9,2.2068838E8,2.6062438E8,4.263772E8,1.21856E6,2.0819968E7,3.2407552E7,0E0,8.067584E7,8.063488E6,5.289472E7,4.029395E7,7.114816E7,3.2191568E7,1.0198475E8,2.0899923E8,3.184048E7,0E0,2.6147185E9,3.7452595E8,2.4813056E8,2.3209446E8,3.3566108E7,1.5304944E7,4.150816E7,2.321888E7,2.097578E9,6.327859E7,7.737446E7,7.588915E7,2.7164058E8,2.3228544E7,2.098217E8,2.691502E8,0E0,0E0,0E0,0E0,0E0,0E0,0E0,0E0,0E0,0E0,0E0,0E0,0E0,0E0,0E0,0E0,0E0,0E0,0E0,0E0,0E0,0E0,0E0,0E0,0E0,0E0,0E0,0E0,0E0,0E0,0E0,0E0,0E0,0E0,0E0,0E0,0E0,0E0,0E0,0E0,0E0,0E0,0E0,0E0,0E0,0E0,0E0,0E0,0E0,0E0,0E0,0E0,0E0,0E0,0E0,0E0],"parents":[2147483647,0,0,1,1,2,2,3,3,4,4,5,5,6,6,7,7,8,8,9,9,10,10,11,11,12,12,13,13,14,14,15,15,16,16,17,17,19,19,20,20,21,21,22,22,23,23,24,24,25,25,26,26,27,27,28,28,29,29,30,30,31,31,32,32,33,33,35,35,36,36,37,37,38,38,39,39,40,40,41,41,42,42,43,43,45,45,46,46,47,47,48,48,49,49,50,50,51,51,52,52,53,53,54,54,55,55,56,56,57,57,58,58,59,59,60,60],"right_children":[2,4,6,8,10,12,14,16,18,20,22,24,26,28,30,32,34,36,-1,38,40,42,44,46,48,50,52,54,56,58,60,62,64,66,-1,68,70,72,74,76,78,80,82,84,-1,86,88,90,92,94,96,98,100,102,104,106,108,110,112,114,116,-1,-1,-1,-1,-1,-1,-1,-1,-1,-1,-1,-1,-1,-1,-1,-1,-1,-1,-1,-1,-1,-1,-1,-1,-1,-1,-1,-1,-1,-1,-1,-1,-1,-1,-1,-1,-1,-1,-1,-1,-1,-1,-1,-1,-1,-1,-1,-1,-1,-1,-1,-1,-1,-1,-1,-1],"split_conditions":[6.35E0,6.3E-1,7.21E0,5E-1,9E-1,1E0,7.78E0,4.65E0,1E0,1E0,1E0,1E0,6.76E0,1E0,7.97E0,4.32E0,1E0,1E0,-2.2416531E2,5.85E0,5.93E0,1E0,1.23E0,1E0,1.26E0,1.07E0,1.34E0,1E0,1.59E0,1E0,1E0,4.24E0,1E0,1E0,-2.5279085E2,1E0,5.26E0,1E0,1E0,1E0,1E0,6.09E0,1E0,6.18E0,7.998295E2,1E0,4.21E0,6.68E0,1E0,1E0,1E0,1E0,1E0,1E0,7.52E0,1E0,1E0,1E0,2.05E0,1E0,8.22E0,-2.758342E2,-2.661108E2,-2.594951E2,-2.3935982E2,-2.3129619E2,-2.615766E2,-1.5427351E2,-1.8113965E2,-2.1036333E2,-1.9277454E2,-1.19095146E2,-1.7977226E2,-7.5797516E1,-1.1833575E2,-8.014573E1,-1.6561937E2,-2.4417458E1,-8.232378E1,-3.767024E1,2.5497292E1,1.4266551E2,4.417281E1,-5.2435955E1,-1.651734E1,2.4875652E2,5.3629425E2,4.1519455E2,5.7492255E2,8.546489E1,1.5096468E2,3.1862027E2,1.05852295E2,1.9902683E1,-5.0679867E1,5.2194313E1,4.2824597E0,1.1288607E2,2.8678898E1,2.2900781E2,1.06752625E2,6.9596216E2,4.7556274E2,3.14947E2,4.151669E2,3.228486E2,4.321962E2,4.7550146E2,2.68568E2,8.5354755E2,6.52236E2,5.254267E2,1.9088917E1,9.0347296E2,1.0049466E3,7.05802E2,8.885535E2],"split_indices":[4,0,4,0,0,18,4,3,18,7,18,17,4,18,4,3,17,17,0,4,4,0,0,22,0,0,0,15,0,15,15,3,16,18,0,20,3,15,18,15,18,4,17,4,0,21,5,4,15,15,14,15,15,14,4,10,15,18,0,17,4,0,0,0,0,0,0,0,0,0,0,0,0,0,0,0,0,0,0,0,0,0,0,0,0,0,0,0,0,0,0,0,0,0,0,0,0,0,0,0,0,0,0,0,0,0,0,0,0,0,0,0,0,0,0,0,0],"split_type":[0,0,0,0,0,0,0,0,0,0,0,0,0,0,0,0,0,0,0,0,0,0,0,0,0,0,0,0,0,0,0,0,0,0,0,0,0,0,0,0,0,0,0,0,0,0,0,0,0,0,0,0,0,0,0,0,0,0,0,0,0,0,0,0,0,0,0,0,0,0,0,0,0,0,0,0,0,0,0,0,0,0,0,0,0,0,0,0,0,0,0,0,0,0,0,0,0,0,0,0,0,0,0,0,0,0,0,0,0,0,0,0,0,0,0,0,0],"sum_hessian":[5.394E4,3.5907E4,1.8033E4,2.4786E4,1.1121E4,1.1919E4,6.114E3,1.7674E4,7.112E3,7.328E3,3.793E3,8.822E3,3.097E3,3.794E3,2.32E3,1.2191E4,5.483E3,6.4E3,7.12E2,4.512E3,2.816E3,2.685E3,1.108E3,5.69E3,3.132E3,2.174E3,9.23E2,2.995E3,7.99E2,3.94E2,1.926E3,3.682E3,8.509E3,4.26E3,1.223E3,4.705E3,1.695E3,3.293E3,1.219E3,2.281E3,5.35E2,1.81E3,8.75E2,1.106E3,2E0,4.869E3,8.21E2,2.782E3,3.5E2,1.41E3,7.64E2,7.37E2,1.86E2,2.622E3,3.73E2,5.42E2,2.57E2,3.41E2,5.3E1,1.528E3,3.98E2,1.573E3,2.109E3,7.768E3,7.41E2,3.797E3,4.63E2,2.666E3,2.039E3,1.07E3,6.25E2,3.139E3,1.54E2,9.19E2,3E2,2.179E3,1.02E2,4.1E2,1.25E2,3.07E2,1.503E3,4.87E2,3.88E2,3.72E2,7.34E2,4.529E3,3.4E2,6.15E2,2.06E2,1.957E3,8.25E2,2.86E2,6.4E1,1.34E3,7E1,6.9E2,7.4E1,6.72E2,6.5E1,1.66E2,2E1,2.063E3,5.59E2,2.71E2,1.02E2,4.54E2,8.8E1,2.33E2,2.4E1,2.07E2,1.34E2,5.2E1,1E0,1.145E3,3.83E2,1.91E2,2.07E2],"tree_param":{"num_deleted":"0","num_feature":"23","num_nodes":"117","size_leaf_vector":"1"}},{"base_weights":[4.918621E-1,-1.5948837E3,3.2360215E3,-2.08867E3,-4.590023E2,1.6709917E3,6.0542886E3,-2.2911763E3,-1.6121396E3,-8.580843E2,2.3060724E2,2.085592E3,4.8635522E2,4.834685E3,7.6597017E3,-2.3485662E3,-2.1343228E3,-1.5675536E3,-2.0168898E3,-9.8634204E2,-6.52213E2,6.7137003E0,6.295148E2,2.6379028E3,1.0821647E3,2.5394554E2,1.0612382E3,5.287896E3,3.174076E3,6.5283677E3,8.135971E3,-2.4046663E3,-2.29627E3,-2.1602034E3,-1.9543744E3,-1.4758721E3,-1.8272004E3,-2.0647734E2,-1.9047972E3,-1.0649294E3,-7.478751E2,-5.7647217E2,-1.0339106E3,1.306876E2,-2.9691504E2,9.3162756E2,-1.03633934E2,2.8441746E3,7.7927844E2,8.3919366E2,1.8210397E3,-8.9412796E1,3.128999E2,8.604728E2,1.5491581E3,5.627469E3,2.925475E3,1.7688848E3,3.3325952E3,6.8406187E3,4.2943867E3,8.367184E3,7.229555E3,-2.4178255E2,-2.227755E2,-2.3174336E2,-2.1409471E2,-2.187513E2,-2.0094681E2,-1.9181264E2,-2.1932555E2,-1.5673875E2,-1.2870343E2,-1.8813618E2,-1.7007164E2,-1.9155644E2,-4.3360924E1,-1.0905645E2,-4.3403606E1,-6.9155464E1,-1.4125397E2,-4.9980186E1,-1.072759E2,-1.1708904E2,-7.8687805E1,1.8564455E1,-6.967411E1,-2.6119125E1,-8.2265434E1,8.781579E1,5.0141452E2,-1.5744941E1,7.4650757E2,3.0251547E2,3.6339275E1,8.114972E0,1.2544423E2,9.278572E1,2.62745E1,2.033756E2,6.257965E1,-4.9437927E1,-1.3622793E0,3.48167E1,-2.9906336E1,9.250719E1,2.3194616E1,1.2038787E2,1.8339192E2,6.06469E2,3.890892E2,2.3144377E2,3.136589E2,6.633071E1,2.0308221E2,3.498161E2,2.4058397E2,7.399314E2,5.5043134E2,2.0008931E2,4.519484E2,8.217012E2,9.511723E2,6.6348065E2,8.4511066E2],"categories":[],"categories_nodes":[],"categories_segments":[],"categories_sizes":[],"default_left":[0,0,0,0,0,0,0,0,0,0,0,0,0,0,0,0,0,0,0,0,0,0,0,0,0,0,0,0,0,0,0,0,0,0,0,0,0,0,0,0,0,0,0,0,0,0,0,0,0,0,0,0,0,0,0,0,0,0,0,0,0,0,0,0,0,0,0,0,0,0,0,0,0,0,0,0,0,0,0,0,0,0,0,0,0,0,0,0,0,0,0,0,0,0,0,0,0,0,0,0,0,0,0,0,0,0,0,0,0,0,0,0,0,0,0,0,0,0,0,0,0,0,0,0,0],"id":3,"left_children":[1,3,5,7,9,11,13,15,17,19,21,23,25,27,29,31,33,35,37,39,41,43,45,47,49,51,53,55,57,59,61,63,65,67,69,71,73,-1,75,77,79,81,83,85,87,89,91,93,95,97,99,101,103,105,107,109,111,113,115,117,119,121,123,-1,-1,-1,-1,-1,-1,-1,-1,-1,-1,-1,-1,-1,-1,-1,-1,-1,-1,-1,-1,-1,-1,-1,-1,-1,-1,-1,-1,-1,-1,-1,-1,-1,-1,-1,-1,-1,-1,-1,-1,-1,-1,-1,-1,-1,-1,-1,-1,-1,-1,-1,-1,-1,-1,-1,-1,-1,-1,-1,-1,-1,-1],"loss_changes":[2.784424E11,2.0262617E10,7.856159E10,2.4262738E9,3.0132052E9,5.6251167E9,1.2415648E10,1.5405056E8,1.3241958E8,1.824727E8,3.5849744E8,4.699558E9,3.9668096E8,2.7053916E9,1.425408E9,3.239936E7,1.7872896E7,1.5851008E8,4.9408E4,7.924429E7,7.644941E7,9.6854136E7,3.197118E8,2.0956529E9,5.3956096E8,4.288128E7,8.242061E7,2.2618276E9,1.6740352E8,5.4122906E8,3.433513E8,9.080832E6,1.71008E7,1.2638208E7,1.048832E6,8.456294E7,8.878592E6,0E0,2.891968E6,5.1441664E7,3.877824E7,8.416416E7,1.3967584E7,8.320842E7,1.3796056E7,2.1869005E8,1.7306173E8,2.210087E9,1.816838E8,1.1577587E8,1.8814182E8,9.538604E6,3.910309E7,2.4471584E7,2.2176064E7,1.8609111E9,3.905101E7,2.2109888E7,9.868442E7,4.938281E8,4.413171E7,1.8465587E8,2.3380787E8,0E0,0E0,0E0,0E0,0E0,0E0,0E0,0E0,0E0,0E0,0E0,0E0,0E0,0E0,0E0,0E0,0E0,0E0,0E0,0E0,0E0,0E0,0E0,0E0,0E0,0E0,0E0,0E0,0E0,0E0,0E0,0E0,0E0,0E0,0E0,0E0,0E0,0E0,0E0,0E0,0E0,0E0,0E0,0E0,0E0,0E0,0E0,0E0,0E0,0E0,0E0,0E0,0E0,0E0,0E0,0E0,0E0,0E0,0E0,0E0,0E0,0E0],"parents":[2147483647,0,0,1,1,2,2,3,3,4,4,5,5,6,6,7,7,8,8,9,9,10,10,11,11,12,12,13,13,14,14,15,15,16,16,17,17,18,18,19,19,20,20,21,21,22,22,23,23,24,24,25,25,26,26,27,27,28,28,29,29,30,30,31,31,32,32,33,33,34,34,35,35,36,36,38,38,39,39,40,40,41,41,42,42,43,43,44,44,45,45,46,46,47,47,48,48,49,49,50,50,51,51,52,52,53,53,54,54,55,55,56,56,57,57,58,58,59,59,60,60,61,61,62,62],"right_children":[2,4,6,8,10,12,14,16,18,20,22,24,26,28,30,32,34,36,38,40,42,44,46,48,50,52,54,56,58,60,62,64,66,68,70,72,74,-1,76,78,80,82,84,86,88,90,92,94,96,98,100,102,104,106,108,110,112,114,116,118,120,122,124,-1,-1,-1,-1,-1,-1,-1,-1,-1,-1,-1,-1,-1,-1,-1,-1,-1,-1,-1,-1,-1,-1,-1,-1,-1,-1,-1,-1,-1,-1,-1,-1,-1,-1,-1,-1,-1,-1,-1,-1,-1,-1,-1,-1,-1,-1,-1,-1,-1,-1,-1,-1,-1,-1,-1,-1,-1,-1,-1,-1,-1,-1],"split_conditions":[6.36E0,7E-1,7.16E0,5.02E0,9E-1,1E0,7.64E0,4.69E0,1E0,1E0,1E0,1E0,6.76E0,1E0,7.97E0,4.38E0,1E0,1E0,5.6E-1,7.6E-1,1E0,1E0,1E0,1E0,6.78E0,3.91E0,6.98E0,1E0,1.5E0,1E0,1E0,1E0,1E0,1E0,1E0,5.6E-1,5.31E0,-2.0647734E2,6.33E1,1E0,1E0,1E0,5.89E0,1E0,1E0,1E0,1.23E0,1E0,6.7E0,1E0,1E0,3.78E0,1E0,1E0,4.34E0,1E0,7.31E0,4.3E0,1E0,1E0,1.7E0,1E0,8.41E0,-2.4178255E2,-2.227755E2,-2.3174336E2,-2.1409471E2,-2.187513E2,-2.0094681E2,-1.9181264E2,-2.1932555E2,-1.5673875E2,-1.2870343E2,-1.8813618E2,-1.7007164E2,-1.9155644E2,-4.3360924E1,-1.0905645E2,-4.3403606E1,-6.9155464E1,-1.4125397E2,-4.9980186E1,-1.072759E2,-1.1708904E2,-7.8687805E1,1.8564455E1,-6.967411E1,-2.6119125E1,-8.2265434E1,8.781579E1,5.0141452E2,-1.5744941E1,7.4650757E2,3.0251547E2,3.6339275E1,8.114972E0,1.2544423E2,9.278572E1,2.62745E1,2.033756E2,6.257965E1,-4.9437927E1,-1.3622793E0,3.48167E1,-2.9906336E1,9.250719E1,2.3194616E1,1.2038787E2,1.8339192E2,6.06469E2,3.890892E2,2.3144377E2,3.136589E2,6.633071E1,2.0308221E2,3.498161E2,2.4058397E2,7.399314E2,5.5043134E2,2.0008931E2,4.519484E2,8.217012E2,9.511723E2,6.6348065E2,8.4511066E2],"split_indices":[4,0,4,4,0,18,4,3,18,7,0,17,4,18,4,3,21,17,0,0,18,18,18,14,4,5,4,15,0,15,15,16,21,22,14,0,3,0,2,21,15,14,4,15,14,16,0,15,4,14,15,5,15,15,5,14,4,5,14,18,0,20,3,0,0,0,0,0,0,0,0,0,0,0,0,0,0,0,0,0,0,0,0,0,0,0,0,0,0,0,0,0,0,0,0,0,0,0,0,0,0,0,0,0,0,0,0,0,0,0,0,0,0,0,0,0,0,0,0,0,0,0,0,0,0],"split_type":[0,0,0,0,0,0,0,0,0,0,0,0,0,0,0,0,0,0,0,0,0,0,0,0,0,0,0,0,0,0,0,0,0,0,0,0,0,0,0,0,0,0,0,0,0,0,0,0,0,0,0,0,0,0,0,0,0,0,0,0,0,0,0,0,0,0,0,0,0,0,0,0,0,0,0,0,0,0,0,0,0,0,0,0,0,0,0,0,0,0,0,0,0,0,0,0,0,0,0,0,0,0,0,0,0,0,0,0,0,0,0,0,0,0,0,0,0,0,0,0,0,0,0,0,0],"sum_hessian":[5.394E4,3.6127E4,1.7813E4,2.518E4,1.0947E4,1.1454E4,6.359E3,1.7668E4,7.512E3,6.934E3,4.013E3,8.484E3,2.97E3,3.616E3,2.743E3,1.2925E4,4.743E3,6.771E3,7.41E2,4.27E3,2.664E3,2.571E3,1.442E3,5.471E3,3.013E3,2.116E3,8.54E2,2.839E3,7.77E2,8.17E2,1.926E3,6.214E3,6.711E3,4.137E3,6.06E2,5.009E3,1.762E3,5.07E2,2.34E2,3.209E3,1.061E3,2.225E3,4.39E2,1.826E3,7.45E2,1.021E3,4.21E2,4.924E3,5.47E2,2.269E3,7.44E2,3.1E2,1.806E3,6.07E2,2.47E2,2.481E3,3.58E2,8E1,6.97E2,7.15E2,1.02E2,1.528E3,3.98E2,5.772E3,4.42E2,5.894E3,8.17E2,3.491E3,6.46E2,5.34E2,7.2E1,3.369E3,1.64E3,1.224E3,5.38E2,2.32E2,2E0,3.083E3,1.26E2,9.8E2,8.1E1,1.929E3,2.96E2,2.8E2,1.59E2,1.713E3,1.13E2,6.99E2,4.6E1,1.009E3,1.2E1,4.19E2,2E0,4.589E3,3.35E2,2.22E2,3.25E2,1.966E3,3.03E2,6.31E2,1.13E2,4.8E1,2.62E2,1.708E3,9.8E1,5.5E2,5.7E1,1.14E2,1.33E2,1.98E3,5.01E2,9.5E1,2.63E2,1.6E1,6.4E1,5.89E2,1.08E2,5.01E2,2.14E2,1E1,9.2E1,1.358E3,1.7E2,2.72E2,1.26E2],"tree_param":{"num_deleted":"0","num_feature":"23","num_nodes":"125","size_leaf_vector":"1"}},{"base_weights":[5.626743E-1,-1.0400446E3,4.022861E3,-1.6786183E3,6.547227E2,2.32306E3,5.7256187E3,-2.0344833E3,-1.1288148E3,-1.1594091E2,1.0172207E3,2.7230156E3,1.0864355E3,4.7944736E3,7.2303545E3,-2.100015E3,-1.8165781E3,-1.4162291E3,-8.169182E2,-4.6319092E2,4.9871845E1,8.71269E2,3.2215422E3,3.1971704E3,1.6840029E3,7.873656E2,2.2350427E3,5.1780127E3,3.3744336E3,7.433145E3,6.4112817E3,-2.1559045E3,-2.0415441E3,-1.8962701E3,-1.6510752E3,-1.458744E3,-1.0798223E3,-7.839119E2,-1.4561424E2,-3.5510745E2,-7.525243E2,1.7149142E2,-2.3322957E2,8.053082E2,5.090343E3,3.3128416E3,-7.293237E2,3.449252E3,9.9490704E2,1.3464642E3,3.0899858E3,2.6640488E2,8.8044885E2,1.6450271E3,2.4881167E3,5.4932227E3,2.9646165E3,2.943662E3,4.381221E3,7.188704E3,8.1432275E3,5.607193E3,7.230937E3,-2.1692357E2,-1.9915962E2,-2.0263394E2,-2.2522012E2,-1.8601585E2,-2.0200378E2,-1.6912401E2,-1.2996713E2,-1.4946046E2,-9.870549E1,-9.784309E1,-1.2474218E2,-7.1309845E1,-1.1285073E2,-3.188793E1,-1.376981E2,-8.5248886E1,-5.713153E1,2.5154581E1,-4.3397457E1,-4.309903E1,-1.4072174E1,7.318553E1,3.7516476E2,6.2851074E2,2.864083E2,3.4615405E2,1.0282538E2,-1.0571195E2,1.9054762E1,3.8159564E2,1.4031483E2,5.3343983E1,1.9124533E2,1.4715453E2,4.3744835E1,3.2523837E2,1.3981554E2,3.118133E1,-2.4563E1,7.810403E1,1.2711373E2,1.7627866E2,5.6200092E1,2.620802E2,1.6754094E2,6.060362E2,4.4247876E2,2.7164786E2,3.6942392E2,3.0642062E2,1.3035448E2,4.0002817E2,5.4049884E2,6.933502E2,8.520923E2,8.5890216E2,7.424013E2,5.6875824E2,-1.557212E1,7.4005145E2,3.8444702E2],"categories":[],"categories_nodes":[],"categories_segments":[],"categories_sizes":[],"default_left":[0,0,0,0,0,0,0,0,0,0,0,0,0,0,0,0,0,0,0,0,0,0,0,0,0,0,0,0,0,0,0,0,0,0,0,0,0,0,0,1,0,0,0,0,0,0,0,0,0,0,0,0,0,0,0,0,0,0,0,0,0,0,0,0,0,0,0,0,0,0,0,0,0,0,0,0,0,0,0,0,0,0,0,0,0,0,0,0,0,0,0,0,0,0,0,0,0,0,0,0,0,0,0,0,0,0,0,0,0,0,0,0,0,0,0,0,0,0,0,0,0,0,0,0,0],"id":4,"left_children":[1,3,5,7,9,11,13,15,17,19,21,23,25,27,29,31,33,35,37,39,41,43,45,47,49,51,53,55,57,59,61,63,65,67,69,71,73,75,-1,77,79,81,83,85,87,89,91,93,95,97,99,101,103,105,107,109,111,113,115,117,119,121,123,-1,-1,-1,-1,-1,-1,-1,-1,-1,-1,-1,-1,-1,-1,-1,-1,-1,-1,-1,-1,-1,-1,-1,-1,-1,-1,-1,-1,-1,-1,-1,-1,-1,-1,-1,-1,-1,-1,-1,-1,-1,-1,-1,-1,-1,-1,-1,-1,-1,-1,-1,-1,-1,-1,-1,-1,-1,-1,-1,-1,-1,-1],"loss_changes":[2.257814E11,4.6380237E10,3.2076366E10,6.0878766E9,3.276778E9,2.7420406E9,7.7247775E9,2.6599424E8,1.0954527E9,2.1611517E8,2.5635896E9,2.0603105E9,4.6473203E8,1.8473779E9,3.0364467E8,4.304896E7,5.4585344E7,8.945971E7,1.2268493E8,3.7665904E7,8.7528344E7,2.0783688E9,1.8096794E8,1.5942881E9,6.2037786E8,5.208915E7,3.771597E7,1.8632704E9,3.0413414E8,2.3462707E8,2.4087962E8,1.1902976E7,1.8225152E7,9.414656E6,1.7985024E7,9.406054E7,1.0980608E7,1.3543168E8,0E0,3.2324144E7,5.472624E6,8.628918E7,1.3916284E7,1.5920333E9,2.878825E8,1.6086374E8,3.8197905E6,1.9319603E9,1.2473482E8,1.202199E8,6.523904E7,3.912956E6,3.4543744E7,1.0104992E7,1.6529024E7,1.4014218E9,5.115853E7,9.782477E7,6.300672E7,3.710034E8,7.250125E7,1.0280653E8,9.099674E7,0E0,0E0,0E0,0E0,0E0,0E0,0E0,0E0,0E0,0E0,0E0,0E0,0E0,0E0,0E0,0E0,0E0,0E0,0E0,0E0,0E0,0E0,0E0,0E0,0E0,0E0,0E0,0E0,0E0,0E0,0E0,0E0,0E0,0E0,0E0,0E0,0E0,0E0,0E0,0E0,0E0,0E0,0E0,0E0,0E0,0E0,0E0,0E0,0E0,0E0,0E0,0E0,0E0,0E0,0E0,0E0,0E0,0E0,0E0,0E0,0E0,0E0],"parents":[2147483647,0,0,1,1,2,2,3,3,4,4,5,5,6,6,7,7,8,8,9,9,10,10,11,11,12,12,13,13,14,14,15,15,16,16,17,17,18,18,19,19,20,20,21,21,22,22,23,23,24,24,25,25,26,26,27,27,28,28,29,29,30,30,31,31,32,32,33,33,34,34,35,35,36,36,37,37,39,39,40,40,41,41,42,42,43,43,44,44,45,45,46,46,47,47,48,48,49,49,50,50,51,51,52,52,53,53,54,54,55,55,56,56,57,57,58,58,59,59,60,60,61,61,62,62],"right_children":[2,4,6,8,10,12,14,16,18,20,22,24,26,28,30,32,34,36,38,40,42,44,46,48,50,52,54,56,58,60,62,64,66,68,70,72,74,76,-1,78,80,82,84,86,88,90,92,94,96,98,100,102,104,106,108,110,112,114,116,118,120,122,124,-1,-1,-1,-1,-1,-1,-1,-1,-1,-1,-1,-1,-1,-1,-1,-1,-1,-1,-1,-1,-1,-1,-1,-1,-1,-1,-1,-1,-1,-1,-1,-1,-1,-1,-1,-1,-1,-1,-1,-1,-1,-1,-1,-1,-1,-1,-1,-1,-1,-1,-1,-1,-1,-1,-1,-1,-1,-1,-1,-1,-1,-1],"split_conditions":[6.68E0,8E-1,7.29E0,5.11E0,1E0,1E0,7.88E0,4.76E0,5.59E0,6.09E0,1E0,1E0,1.37E0,1E0,1E0,4.41E0,4.98E0,1E0,1E0,1E0,1E0,1E0,1E0,1E0,1.37E0,4.1E0,7.16E0,1E0,1.67E0,1E0,8.22E0,1E0,1E0,1E0,1E0,1E0,1E0,1E0,-1.4561424E2,6.63E1,9E-1,1E0,3.8E0,1E0,1E0,1E0,1.03E0,1E0,1.31E0,1E0,1E0,1E0,6.98E0,1E0,1E0,1E0,1.7E0,1E0,2E0,1E0,1E0,2.22E0,6.21E1,-2.1692357E2,-1.9915962E2,-2.0263394E2,-2.2522012E2,-1.8601585E2,-2.0200378E2,-1.6912401E2,-1.2996713E2,-1.4946046E2,-9.870549E1,-9.784309E1,-1.2474218E2,-7.1309845E1,-1.1285073E2,-3.188793E1,-1.376981E2,-8.5248886E1,-5.713153E1,2.5154581E1,-4.3397457E1,-4.309903E1,-1.4072174E1,7.318553E1,3.7516476E2,6.2851074E2,2.864083E2,3.4615405E2,1.0282538E2,-1.0571195E2,1.9054762E1,3.8159564E2,1.4031483E2,5.3343983E1,1.9124533E2,1.4715453E2,4.3744835E1,3.2523837E2,1.3981554E2,3.118133E1,-2.4563E1,7.810403E1,1.2711373E2,1.7627866E2,5.6200092E1,2.620802E2,1.6754094E2,6.060362E2,4.4247876E2,2.7164786E2,3.6942392E2,3.0642062E2,1.3035448E2,4.0002817E2,5.4049884E2,6.933502E2,8.520923E2,8.5890216E2,7.424013E2,5.6875824E2,-1.557212E1,7.4005145E2,3.8444702E2],"split_indices":[4,0,4,3,0,18,4,3,4,4,22,17,0,18,15,3,3,22,15,18,18,16,15,15,0,5,4,15,0,17,4,16,18,17,22,21,12,18,0,1,0,14,5,21,12,13,0,14,0,15,15,14,4,15,14,17,0,15,0,20,14,0,2,0,0,0,0,0,0,0,0,0,0,0,0,0,0,0,0,0,0,0,0,0,0,0,0,0,0,0,0,0,0,0,0,0,0,0,0,0,0,0,0,0,0,0,0,0,0,0,0,0,0,0,0,0,0,0,0,0,0,0,0,0,0],"split_type":[0,0,0,0,0,0,0,0,0,0,0,0,0,0,0,0,0,0,0,0,0,0,0,0,0,0,0,0,0,0,0,0,0,0,0,0,0,0,0,0,0,0,0,0,0,0,0,0,0,0,0,0,0,0,0,0,0,0,0,0,0,0,0,0,0,0,0,0,0,0,0,0,0,0,0,0,0,0,0,0,0,0,0,0,0,0,0,0,0,0,0,0,0,0,0,0,0,0,0,0,0,0,0,0,0,0,0,0,0,0,0,0,0,0,0,0,0,0,0,0,0,0,0,0,0],"sum_hessian":[5.394E4,4.2854E4,1.1086E4,3.1126E4,1.1728E4,5.549E3,5.537E3,1.8894E4,1.2232E4,3.752E3,7.976E3,4.192E3,1.357E3,3.423E3,2.114E3,1.4519E4,4.375E3,6.364E3,5.868E3,1.212E3,2.54E3,7.482E3,4.94E2,2.877E3,1.315E3,1.078E3,2.79E2,2.693E3,7.3E2,1.688E3,4.26E2,7.405E3,7.114E3,2.946E3,1.429E3,5.647E3,7.17E2,5.582E3,2.86E2,8.84E2,3.28E2,1.777E3,7.63E2,7.368E3,1.14E2,4.83E2,1.1E1,2.581E3,2.96E2,1.062E3,2.53E2,1.64E2,9.14E2,8.6E1,1.93E2,2.356E3,3.37E2,5.14E2,2.16E2,1.264E3,4.24E2,2.19E2,2.07E2,6.838E3,5.67E2,6.645E3,4.69E2,2.293E3,6.53E2,1.279E3,1.5E2,5.246E3,4.01E2,4.51E2,2.66E2,4.633E3,9.49E2,8.55E2,2.9E1,2.09E2,1.19E2,1.57E3,2.07E2,2.42E2,5.21E2,7.19E3,1.78E2,7.3E1,4.1E1,4.53E2,3E1,8E0,3E0,2.188E3,3.93E2,1.98E2,9.8E1,9.33E2,1.29E2,2.3E2,2.3E1,1.51E2,1.3E1,7.31E2,1.83E2,7.7E1,9E0,1.64E2,2.9E1,1.536E3,8.2E2,2.55E2,8.2E1,4.78E2,3.6E1,1.61E2,5.5E1,1.066E3,1.98E2,2.55E2,1.69E2,2.16E2,3E0,1.96E2,1.1E1],"tree_param":{"num_deleted":"0","num_feature":"23","num_nodes":"125","size_leaf_vector":"1"}},{"base_weights":[6.768832E-1,-8.3484796E2,4.077936E3,-1.4770114E3,7.9534467E2,3.0936719E3,6.106538E3,-1.7681316E3,-8.5746094E2,6.7966754E2,2.8121277E3,2.0444963E3,3.7635444E3,5.32459E3,6.688296E3,-1.863727E3,-1.4167467E3,-1.1578507E3,-6.55022E2,6.248587E2,4.479402E3,1.7923458E3,3.2675635E3,2.4008064E3,8.4645935E2,4.1576406E3,2.3647397E3,5.5678706E3,3.5822634E3,6.8730547E3,5.991447E3,-1.9174994E3,-1.7688726E3,-1.3810088E3,-1.7206909E3,-1.1787717E3,-4.6036453E2,-6.2197253E2,-1.2598356E3,5.591371E2,3.2778186E3,5.4317075E3,2.7757769E3,1.9436498E3,-6.965574E2,3.4023767E3,1.0862063E3,2.6647053E3,6.0309564E2,5.559601E2,1.01029614E3,4.437946E3,2.2166724E3,1.3463849E3,2.5816284E3,5.9824785E3,4.6143584E3,3.6897085E3,-4.8647754E2,6.638328E3,7.5827593E3,5.4648906E3,7.1415083E3,-1.9308466E2,-1.762026E2,-1.7367479E2,-1.878878E2,-1.3119292E2,-1.5669128E2,-1.7238132E2,-6.413284E1,-1.2193294E2,-8.371929E1,-5.6416378E1,4.5334938E1,-5.713557E1,-1.0359196E2,-1.3173526E2,-1.1703585E2,4.103479E1,1.61566E2,1.8399004E2,3.8299823E2,5.7535736E2,6.891775E1,2.1475171E2,3.2818457E2,1.1013976E2,2.5100105E2,-2.4251688E1,-1.0510897E2,3.9092798E2,2.5593904E2,1.22318825E2,-7.572717E0,3.0738364E2,9.341023E1,-5.1113715E0,6.763614E1,6.3172207E1,1.6302698E1,1.0935873E2,3.1165537E1,4.8320224E2,2.81452E2,1.239986E2,2.4111604E2,8.817214E1,1.5888931E2,2.4099304E2,3.3847742E2,5.611717E2,7.384107E2,3.75468E2,5.3548676E2,3.0600107E2,4.67311E2,-5.396763E1,-1.3684131E1,6.4554474E2,7.698658E2,7.614582E2,3.1015134E2,6.0397577E2,4.2373373E2,7.274989E2,1.7187857E2],"categories":[],"categories_nodes":[],"categories_segments":[],"categories_sizes":[],"default_left":[0,0,0,0,0,0,0,0,0,0,0,0,0,0,0,0,0,0,0,0,0,0,0,0,0,0,0,0,0,0,0,0,0,0,0,0,1,0,0,0,0,0,0,0,0,0,0,0,0,0,0,0,0,0,0,0,0,0,1,0,1,0,1,0,0,0,0,0,0,0,0,0,0,0,0,0,0,0,0,0,0,0,0,0,0,0,0,0,0,0,0,0,0,0,0,0,0,0,0,0,0,0,0,0,0,0,0,0,0,0,0,0,0,0,0,0,0,0,0,0,0,0,0,0,0,0,0],"id":5,"left_children":[1,3,5,7,9,11,13,15,17,19,21,23,25,27,29,31,33,35,37,39,41,43,45,47,49,51,53,55,57,59,61,63,65,67,69,71,73,75,77,79,81,83,85,87,89,91,93,95,97,99,101,103,105,107,109,111,113,115,117,119,121,123,125,-1,-1,-1,-1,-1,-1,-1,-1,-1,-1,-1,-1,-1,-1,-1,-1,-1,-1,-1,-1,-1,-1,-1,-1,-1,-1,-1,-1,-1,-1,-1,-1,-1,-1,-1,-1,-1,-1,-1,-1,-1,-1,-1,-1,-1,-1,-1,-1,-1,-1,-1,-1,-1,-1,-1,-1,-1,-1,-1,-1,-1,-1,-1,-1],"loss_changes":[1.8376158E11,4.6866563E10,1.8298634E10,5.7912197E9,2.9497467E9,4.3349934E9,1.3272842E9,7.3127936E8,6.237046E8,2.4894362E9,3.1275213E8,1.026731E9,2.0684308E9,5.238907E8,1.7949491E8,8.420147E7,4.8425984E7,5.9766784E7,1.2188749E8,2.0552279E9,2.6072576E8,8.194214E7,1.354025E8,8.7937946E8,2.5805632E7,1.5897108E9,1.8006682E8,4.1674752E8,7.17417E7,1.7422336E8,1.8321715E8,1.9316736E7,1.87392E7,5.175296E7,5.39008E5,5.4560256E7,1.1826584E7,1.2137344E8,8.9632E4,1.8093286E9,2.192338E8,1.6089293E8,1.298256E7,9.359328E7,1.8377295E6,1.8014874E8,4.70838E6,1.1434516E9,1.1490112E7,5.910428E6,2.0200448E7,1.6292864E9,6.786278E7,1.5276384E7,8.616602E7,3.6390707E8,1.9952128E8,8.230272E7,1.9151E4,1.4828749E8,2.3156736E7,1.5506227E8,6.856448E7,0E0,0E0,0E0,0E0,0E0,0E0,0E0,0E0,0E0,0E0,0E0,0E0,0E0,0E0,0E0,0E0,0E0,0E0,0E0,0E0,0E0,0E0,0E0,0E0,0E0,0E0,0E0,0E0,0E0,0E0,0E0,0E0,0E0,0E0,0E0,0E0,0E0,0E0,0E0,0E0,0E0,0E0,0E0,0E0,0E0,0E0,0E0,0E0,0E0,0E0,0E0,0E0,0E0,0E0,0E0,0E0,0E0,0E0,0E0,0E0,0E0,0E0,0E0,0E0],"parents":[2147483647,0,0,1,1,2,2,3,3,4,4,5,5,6,6,7,7,8,8,9,9,10,10,11,11,12,12,13,13,14,14,15,15,16,16,17,17,18,18,19,19,20,20,21,21,22,22,23,23,24,24,25,25,26,26,27,27,28,28,29,29,30,30,31,31,32,32,33,33,34,34,35,35,36,36,37,37,38,38,39,39,40,40,41,41,42,42,43,43,44,44,45,45,46,46,47,47,48,48,49,49,50,50,51,51,52,52,53,53,54,54,55,55,56,56,57,57,58,58,59,59,60,60,61,61,62,62],"right_children":[2,4,6,8,10,12,14,16,18,20,22,24,26,28,30,32,34,36,38,40,42,44,46,48,50,52,54,56,58,60,62,64,66,68,70,72,74,76,78,80,82,84,86,88,90,92,94,96,98,100,102,104,106,108,110,112,114,116,118,120,122,124,126,-1,-1,-1,-1,-1,-1,-1,-1,-1,-1,-1,-1,-1,-1,-1,-1,-1,-1,-1,-1,-1,-1,-1,-1,-1,-1,-1,-1,-1,-1,-1,-1,-1,-1,-1,-1,-1,-1,-1,-1,-1,-1,-1,-1,-1,-1,-1,-1,-1,-1,-1,-1,-1,-1,-1,-1,-1,-1,-1,-1,-1,-1,-1,-1],"split_conditions":[6.82E0,9E-1,7.59E0,5.25E0,1E0,7.07E0,8.03E0,4.5E-1,5.66E0,1E0,6.42E0,1E0,1E0,1E0,1E0,4.56E0,1E0,1E0,1E0,1E0,1E0,1E0,1E0,1E0,4.22E0,1E0,1.5E0,1E0,2.09E0,1E0,5.19E0,1E0,1E0,1E0,5.9E-1,1E0,6.23E1,1E0,3.59E0,1E0,1.01E0,1E0,6.52E0,6.3E0,9.7E-1,1E0,6.78E0,1E0,4.15E0,1E0,1E0,1E0,1.5E0,4.34E0,1E0,1E0,2E0,4.93E0,6.67E1,1E0,6.37E1,1E0,6.63E1,-1.9308466E2,-1.762026E2,-1.7367479E2,-1.878878E2,-1.3119292E2,-1.5669128E2,-1.7238132E2,-6.413284E1,-1.2193294E2,-8.371929E1,-5.6416378E1,4.5334938E1,-5.713557E1,-1.0359196E2,-1.3173526E2,-1.1703585E2,4.103479E1,1.61566E2,1.8399004E2,3.8299823E2,5.7535736E2,6.891775E1,2.1475171E2,3.2818457E2,1.1013976E2,2.5100105E2,-2.4251688E1,-1.0510897E2,3.9092798E2,2.5593904E2,1.22318825E2,-7.572717E0,3.0738364E2,9.341023E1,-5.1113715E0,6.763614E1,6.3172207E1,1.6302698E1,1.0935873E2,3.1165537E1,4.8320224E2,2.81452E2,1.239986E2,2.4111604E2,8.817214E1,1.5888931E2,2.4099304E2,3.3847742E2,5.611717E2,7.384107E2,3.75468E2,5.3548676E2,3.0600107E2,4.67311E2,-5.396763E1,-1.3684131E1,6.4554474E2,7.698658E2,7.614582E2,3.1015134E2,6.0397577E2,4.2373373E2,7.274989E2,1.7187857E2],"split_indices":[4,0,4,3,22,4,4,0,4,16,4,18,18,15,15,3,18,16,15,21,12,15,13,15,5,15,0,18,0,17,5,16,17,17,0,22,1,14,5,19,0,13,3,4,0,12,4,14,5,14,15,14,0,5,10,12,0,5,1,20,1,18,1,0,0,0,0,0,0,0,0,0,0,0,0,0,0,0,0,0,0,0,0,0,0,0,0,0,0,0,0,0,0,0,0,0,0,0,0,0,0,0,0,0,0,0,0,0,0,0,0,0,0,0,0,0,0,0,0,0,0,0,0,0,0,0,0],"split_type":[0,0,0,0,0,0,0,0,0,0,0,0,0,0,0,0,0,0,0,0,0,0,0,0,0,0,0,0,0,0,0,0,0,0,0,0,0,0,0,0,0,0,0,0,0,0,0,0,0,0,0,0,0,0,0,0,0,0,0,0,0,0,0,0,0,0,0,0,0,0,0,0,0,0,0,0,0,0,0,0,0,0,0,0,0,0,0,0,0,0,0,0,0,0,0,0,0,0,0,0,0,0,0,0,0,0,0,0,0,0,0,0,0,0,0,0,0,0,0,0,0,0,0,0,0,0,0],"sum_hessian":[5.394E4,4.4767E4,9.173E3,3.2116E4,1.2651E4,6.178E3,2.995E3,2.1848E4,1.0268E4,1.1966E4,6.85E2,2.409E3,3.769E3,1.282E3,1.713E3,1.7172E4,4.676E3,4.132E3,6.136E3,1.1797E4,1.69E2,2.13E2,4.72E2,1.856E3,5.53E2,2.939E3,8.3E2,1.123E3,1.59E2,1.347E3,3.66E2,1.0947E4,6.225E3,4.189E3,4.87E2,4.011E3,1.21E2,5.82E3,3.16E2,1.1513E4,2.84E2,1.07E2,6.2E1,2.01E2,1.2E1,4.44E2,2.8E1,1.618E3,2.38E2,2.01E2,3.52E2,2.567E3,3.72E2,1.47E2,6.83E2,7.79E2,3.44E2,1.55E2,4E0,1.02E3,3.27E2,2.55E2,1.11E2,1.0071E4,8.76E2,4.831E3,1.394E3,3.06E3,1.129E3,4.85E2,2E0,3.583E3,4.28E2,1.09E2,1.2E1,5.188E3,6.32E2,1.84E2,1.32E2,1.0093E4,1.42E3,8E1,2.04E2,1E2,7E0,3E1,3.2E1,8.2E1,1.19E2,6E0,6E0,2.75E2,1.69E2,2.5E1,3E0,1.308E3,3.1E2,2.4E1,2.14E2,1.68E2,3.3E1,3.14E2,3.8E1,2.064E3,5.03E2,6.3E1,3.09E2,5.2E1,9.5E1,5.66E2,1.17E2,6.2E2,1.59E2,1.62E2,1.82E2,9.7E1,5.8E1,3E0,1E0,8.76E2,1.44E2,3.24E2,3E0,1.71E2,8.4E1,1.08E2,3E0],"tree_param":{"num_deleted":"0","num_feature":"23","num_nodes":"127","size_leaf_vector":"1"}},{"base_weights":[8.1384426E-1,-1.146886E3,2.4205464E3,-1.5242618E3,-3.137996E2,1.2755039E3,4.464877E3,-1.6713218E3,-1.1778107E3,-5.918828E2,2.5221542E2,1.6028188E3,3.343711E2,3.5604673E3,5.6132964E3,-1.7116736E3,-1.5481488E3,-1.1409198E3,-1.5111195E2,-5.975403E2,3.0588958E3,4.377463E2,-1.960851E2,2.0305515E3,7.9884454E2,1.1613472E2,7.5233655E2,3.8836711E3,2.3713474E3,5.006975E3,6.0949883E3,-1.8269688E2,-1.6930442E3,-1.5720953E3,-1.3904437E3,-1.0639341E3,-1.3519556E3,-6.795998E2,-3.4384143E2,6.1358022E3,7.5346735E2,1.3712265E2,7.714252E2,-2.0478053E2,4.6844424E2,2.2574167E3,7.679023E2,6.210204E2,1.1895234E3,2.2769499E1,3.131332E2,6.044565E2,1.1134297E3,4.392766E3,2.9391604E3,2.458151E3,1.0243816E3,5.2402344E3,3.473061E3,6.156044E3,4.581356E3,-1.6678879E2,-1.8057062E2,-1.5881279E2,-1.3074121E2,-1.3570827E2,-1.6241295E2,-9.6361786E1,-1.1973142E2,-1.3345706E2,-1.6473631E2,-7.088207E1,-8.394096E0,-3.7055935E1,8.870998E1,7.956177E1,7.271944E2,-1.1945516E2,1.601899E2,1.9288198E1,-6.7662865E1,1.1363041E2,2.9527542E1,-1.8424871E1,-8.4309395E1,2.4930643E2,5.106024E1,3.1136007E1,1.327529E2,6.704661E1,-3.0207678E1,1.3172318E2,4.336909E1,5.1846595E0,-5.224409E1,3.55262E1,-1.7386932E1,6.593962E1,6.5879245E0,8.296013E1,1.3742374E2,4.0902084E2,6.496336E2,3.170435E2,2.040996E2,2.630807E2,1.5813548E2,7.811535E1,1.446814E2,4.968608E2,6.365344E2,3.5739926E2,-4.5136005E1,6.315458E2,5.581169E2,6.1153705E2,3.7256433E2],"categories":[],"categories_nodes":[],"categories_segments":[],"categories_sizes":[],"default_left":[0,0,0,0,0,0,0,0,0,0,0,0,0,0,0,0,0,0,0,0,0,0,0,0,0,0,0,0,0,0,0,0,0,0,0,0,0,0,0,0,0,0,0,0,0,0,0,0,0,0,0,0,0,0,0,0,0,0,0,0,0,0,0,0,0,0,0,0,0,0,0,0,0,0,0,0,0,0,0,0,0,0,0,0,0,0,0,0,0,0,0,0,0,0,0,0,0,0,0,0,0,0,0,0,0,0,0,0,0,0,0,0,0,0,0,0,0],"id":6,"left_children":[1,3,5,7,9,11,13,15,17,19,21,23,25,27,29,31,33,35,-1,37,39,41,43,45,47,49,51,53,55,57,59,-1,61,63,65,67,69,71,73,75,77,79,81,83,-1,85,87,89,91,93,95,97,99,101,103,105,107,109,111,113,115,-1,-1,-1,-1,-1,-1,-1,-1,-1,-1,-1,-1,-1,-1,-1,-1,-1,-1,-1,-1,-1,-1,-1,-1,-1,-1,-1,-1,-1,-1,-1,-1,-1,-1,-1,-1,-1,-1,-1,-1,-1,-1,-1,-1,-1,-1,-1,-1,-1,-1,-1,-1,-1,-1,-1,-1],"loss_changes":[1.4980376E11,1.1502305E10,4.0617337E10,1.2809871E9,1.7957603E9,3.4264863E9,6.4507494E9,8.51968E7,9.058202E7,1.5983206E8,3.1273542E8,2.8368118E9,2.6188288E8,1.3313229E9,7.7060506E8,2.5485312E7,1.432576E7,1.084375E8,0E0,1.5879834E8,8.0499944E7,2.6662314E8,4.7683824E7,1.5413821E9,1.9850752E8,3.471849E7,5.192448E7,1.305088E9,8.493952E7,4.1831834E8,1.1264E8,0E0,2.9487104E7,1.3997056E7,2.356608E6,6.5212416E7,7.066368E6,1.0038861E8,6.179675E7,2.4550336E7,1.5135638E7,6.365445E7,2.1857325E8,1.4260956E7,0E0,1.8782392E9,2.0960205E8,9.025658E7,8.591603E7,2.0350808E7,1.2515472E7,2.0698608E7,1.9956928E7,1.1056783E9,1.935657E8,1.0211123E8,3.698944E6,2.9140173E8,6.6573184E7,9.873408E7,5.991488E7,0E0,0E0,0E0,0E0,0E0,0E0,0E0,0E0,0E0,0E0,0E0,0E0,0E0,0E0,0E0,0E0,0E0,0E0,0E0,0E0,0E0,0E0,0E0,0E0,0E0,0E0,0E0,0E0,0E0,0E0,0E0,0E0,0E0,0E0,0E0,0E0,0E0,0E0,0E0,0E0,0E0,0E0,0E0,0E0,0E0,0E0,0E0,0E0,0E0,0E0,0E0,0E0,0E0,0E0,0E0,0E0],"parents":[2147483647,0,0,1,1,2,2,3,3,4,4,5,5,6,6,7,7,8,8,9,9,10,10,11,11,12,12,13,13,14,14,15,15,16,16,17,17,19,19,20,20,21,21,22,22,23,23,24,24,25,25,26,26,27,27,28,28,29,29,30,30,32,32,33,33,34,34,35,35,36,36,37,37,38,38,39,39,40,40,41,41,42,42,43,43,45,45,46,46,47,47,48,48,49,49,50,50,51,51,52,52,53,53,54,54,55,55,56,56,57,57,58,58,59,59,60,60],"right_children":[2,4,6,8,10,12,14,16,18,20,22,24,26,28,30,32,34,36,-1,38,40,42,44,46,48,50,52,54,56,58,60,-1,62,64,66,68,70,72,74,76,78,80,82,84,-1,86,88,90,92,94,96,98,100,102,104,106,108,110,112,114,116,-1,-1,-1,-1,-1,-1,-1,-1,-1,-1,-1,-1,-1,-1,-1,-1,-1,-1,-1,-1,-1,-1,-1,-1,-1,-1,-1,-1,-1,-1,-1,-1,-1,-1,-1,-1,-1,-1,-1,-1,-1,-1,-1,-1,-1,-1,-1,-1,-1,-1,-1,-1,-1,-1,-1,-1],"split_conditions":[6.38E0,7E-1,1.5E0,5E-1,6.13E0,1E0,7.64E0,4.71E0,1E0,1.04E0,1E0,1E0,1.16E0,1E0,8.08E0,4.26E0,1E0,1E0,-1.5111195E2,5.93E0,3.94E0,1E0,1.17E0,1E0,6.74E0,1E0,6.98E0,1E0,1E0,1E0,6.21E1,-1.8269688E2,1E0,1E0,1E0,1E0,1E0,1E0,1E0,1.16E0,1E0,1E0,1E0,1E0,4.6844424E2,1E0,4.17E0,1E0,1E0,1E0,1E0,1E0,4.34E0,1E0,1E0,1E0,4.64E0,1E0,2.09E0,1E0,8.24E0,-1.6678879E2,-1.8057062E2,-1.5881279E2,-1.3074121E2,-1.3570827E2,-1.6241295E2,-9.6361786E1,-1.1973142E2,-1.3345706E2,-1.6473631E2,-7.088207E1,-8.394096E0,-3.7055935E1,8.870998E1,7.956177E1,7.271944E2,-1.1945516E2,1.601899E2,1.9288198E1,-6.7662865E1,1.1363041E2,2.9527542E1,-1.8424871E1,-8.4309395E1,2.4930643E2,5.106024E1,3.1136007E1,1.327529E2,6.704661E1,-3.0207678E1,1.3172318E2,4.336909E1,5.1846595E0,-5.224409E1,3.55262E1,-1.7386932E1,6.593962E1,6.5879245E0,8.296013E1,1.3742374E2,4.0902084E2,6.496336E2,3.170435E2,2.040996E2,2.630807E2,1.5813548E2,7.811535E1,1.446814E2,4.968608E2,6.365344E2,3.5739926E2,-4.5136005E1,6.315458E2,5.581169E2,6.1153705E2,3.7256433E2],"split_indices":[4,0,0,0,4,18,4,3,18,0,18,17,0,18,4,3,21,17,0,4,3,0,0,13,4,7,4,17,15,15,2,0,17,16,14,20,14,21,21,0,13,15,17,15,0,14,5,15,15,15,14,15,5,11,13,14,5,20,0,15,3,0,0,0,0,0,0,0,0,0,0,0,0,0,0,0,0,0,0,0,0,0,0,0,0,0,0,0,0,0,0,0,0,0,0,0,0,0,0,0,0,0,0,0,0,0,0,0,0,0,0,0,0,0,0,0,0],"split_type":[0,0,0,0,0,0,0,0,0,0,0,0,0,0,0,0,0,0,0,0,0,0,0,0,0,0,0,0,0,0,0,0,0,0,0,0,0,0,0,0,0,0,0,0,0,0,0,0,0,0,0,0,0,0,0,0,0,0,0,0,0,0,0,0,0,0,0,0,0,0,0,0,0,0,0,0,0,0,0,0,0,0,0,0,0,0,0,0,0,0,0,0,0,0,0,0,0,0,0,0,0,0,0,0,0,0,0,0,0,0,0,0,0,0,0,0,0],"sum_hessian":[5.394E4,3.6587E4,1.7353E4,2.518E4,1.1407E4,1.1124E4,6.229E3,1.7674E4,7.506E3,7.649E3,3.758E3,8.253E3,2.871E3,3.487E3,2.742E3,1.3303E4,4.371E3,6.762E3,7.44E2,7.638E3,1.1E1,2.658E3,1.1E3,5.386E3,2.867E3,1.887E3,9.84E2,2.74E3,7.47E2,1.219E3,1.523E3,1.837E3,1.1466E4,3.787E3,5.84E2,4.959E3,1.803E3,5.77E3,1.868E3,4E0,7E0,1.399E3,1.259E3,1.099E3,1E0,4.565E3,8.21E2,1.972E3,8.95E2,1.281E3,6.06E2,7E2,2.84E2,1.778E3,9.62E2,7.01E2,4.6E1,1.056E3,1.63E2,1.461E3,6.2E1,9.386E3,2.08E3,3.566E3,2.21E2,5.17E2,6.7E1,2.835E3,2.124E3,1.708E3,9.5E1,5.5E3,2.7E2,1.829E3,3.9E1,1E0,3E0,2E0,5E0,1.31E3,8.9E1,7.12E2,5.47E2,1.066E3,3.3E1,4.022E3,5.43E2,4.53E2,3.68E2,1.872E3,1E2,7.65E2,1.3E2,1.217E3,6.4E1,5.58E2,4.8E1,6.35E2,6.5E1,1.38E2,1.46E2,1.557E3,2.21E2,7.63E2,1.99E2,5.84E2,1.17E2,3.1E1,1.5E1,8.55E2,2.01E2,1.59E2,4E0,1.136E3,3.25E2,2E1,4.2E1],"tree_param":{"num_deleted":"0","num_feature":"23","num_nodes":"117","size_leaf_vector":"1"}},{"base_weights":[8.489003E-1,-7.902358E2,2.857938E3,-1.224805E3,4.2638702E2,1.8221663E3,4.40778E3,-1.4846499E3,-8.212898E2,-1.18019936E2,7.034455E2,1.4276246E3,2.7565496E3,3.671961E3,5.287176E3,-1.5362554E3,-1.3389209E3,-1.0377893E3,-6.0280084E2,-3.5426593E2,-5.1076055E0,9.6419476E2,5.3791237E0,1.2724476E3,3.3661902E3,3.0968008E3,1.6090195E3,3.8790935E3,2.066525E3,5.3223506E3,1.0952645E3,-1.60869E3,-1.5101879E3,-1.3846909E3,-1.2067034E3,-1.00564294E3,-1.3241128E3,-5.447077E2,-8.937632E2,-3.8312143E2,5.732261E2,4.9079197E1,-5.0143826E2,1.2996912E3,4.4602396E2,-4.339985E0,6.492711E2,1.1529711E3,4.0049878E3,3.567703E3,1.4254857E3,3.556522E3,2.1036802E3,1.4602227E3,2.4145334E3,4.216885E3,2.7400322E3,1.7491506E3,2.6467866E3,5.4683887E3,4.72031E3,3.614808E2,3.9692465E2,-1.6820126E2,-1.586836E2,-1.4973792E2,-1.7135365E2,-1.3655942E2,-1.5827965E2,-1.2414208E2,-9.341463E1,-9.427661E1,-1.180229E2,-1.343574E2,-1.0188863E2,-4.1015064E1,-7.84937E1,-9.4327324E1,-7.724718E1,-4.0048042E1,9.015189E1,7.227398E1,-3.1971815E1,9.347981E0,-6.954419E1,-5.6611206E1,-3.2001556E1,1.2131512E2,3.8352185E2,5.2020374E1,-1.8086536E1,2.3375678E0,-6.45755E1,1.07158424E2,4.7346906E2,3.6768607E2,6.358471E2,3.6992517E2,5.58557E1,1.8128262E2,3.8036434E1,3.873166E2,1.5816743E2,1.9250494E2,3.3405524E2,8.733168E1,1.6198906E2,1.8994951E2,2.7919528E2,4.6089453E2,3.0136362E2,2.2434538E2,3.3056003E2,1.8583766E2,7.660442E1,2.384473E2,3.603049E2,5.2474945E2,6.1040326E2,4.3939917E2,6.316598E2,-5.6992004E1,3.439939E2],"categories":[],"categories_nodes":[],"categories_segments":[],"categories_sizes":[],"default_left":[0,0,0,0,0,0,0,0,0,0,0,0,0,0,1,0,0,0,0,0,0,0,0,0,0,0,0,0,0,0,0,0,0,0,0,0,0,0,0,0,0,0,0,0,0,1,0,0,0,0,0,0,0,0,0,0,0,0,0,0,0,0,0,0,0,0,0,0,0,0,0,0,0,0,0,0,0,0,0,0,0,0,0,0,0,0,0,0,0,0,0,0,0,0,0,0,0,0,0,0,0,0,0,0,0,0,0,0,0,0,0,0,0,0,0,0,0,0,0,0,0,0,0],"id":7,"left_children":[1,3,5,7,9,11,13,15,17,19,21,23,25,27,29,31,33,35,37,39,41,43,45,47,49,51,53,55,57,59,61,63,65,67,69,71,73,75,77,79,81,83,85,87,89,91,-1,93,95,97,99,101,103,105,107,109,111,113,115,117,119,-1,121,-1,-1,-1,-1,-1,-1,-1,-1,-1,-1,-1,-1,-1,-1,-1,-1,-1,-1,-1,-1,-1,-1,-1,-1,-1,-1,-1,-1,-1,-1,-1,-1,-1,-1,-1,-1,-1,-1,-1,-1,-1,-1,-1,-1,-1,-1,-1,-1,-1,-1,-1,-1,-1,-1,-1,-1,-1,-1,-1,-1],"loss_changes":[1.2191967E11,2.2335744E10,1.8768953E10,3.2624927E9,1.6771901E9,2.5814282E9,3.0121329E9,1.4032486E8,5.762314E8,1.0005643E8,1.341302E9,1.4796667E9,8.075387E8,8.412856E8,3.085394E8,2.3957504E7,2.8338176E7,5.503539E7,1.0214758E8,3.268344E7,6.830993E7,9.32096E8,1.264456E8,1.4870436E9,1.3765709E8,7.248384E8,5.37664E7,8.583967E8,4.951347E7,1.600471E8,3.1995654E7,3.232768E6,2.4244224E7,1.1749376E7,1.0980736E7,5.9373056E7,2.28416E6,1.6336947E8,5.33056E6,2.6608176E7,5.170847E6,7.576598E7,2.752156E6,7.097943E8,9.821434E7,3.5622908E7,0E0,1.2714266E9,1.2411904E8,1.2856422E8,1.3883904E7,6.7860275E8,1.0625024E8,3.6631616E7,8.886848E6,8.07893E8,1.3862554E8,1.9300928E7,1.6994368E7,2.0596736E8,1.9102208E8,0E0,4.9034444E7,0E0,0E0,0E0,0E0,0E0,0E0,0E0,0E0,0E0,0E0,0E0,0E0,0E0,0E0,0E0,0E0,0E0,0E0,0E0,0E0,0E0,0E0,0E0,0E0,0E0,0E0,0E0,0E0,0E0,0E0,0E0,0E0,0E0,0E0,0E0,0E0,0E0,0E0,0E0,0E0,0E0,0E0,0E0,0E0,0E0,0E0,0E0,0E0,0E0,0E0,0E0,0E0,0E0,0E0,0E0,0E0,0E0,0E0,0E0,0E0],"parents":[2147483647,0,0,1,1,2,2,3,3,4,4,5,5,6,6,7,7,8,8,9,9,10,10,11,11,12,12,13,13,14,14,15,15,16,16,17,17,18,18,19,19,20,20,21,21,22,22,23,23,24,24,25,25,26,26,27,27,28,28,29,29,30,30,31,31,32,32,33,33,34,34,35,35,36,36,37,37,38,38,39,39,40,40,41,41,42,42,43,43,44,44,45,45,47,47,48,48,49,49,50,50,51,51,52,52,53,53,54,54,55,55,56,56,57,57,58,58,59,59,60,60,62,62],"right_children":[2,4,6,8,10,12,14,16,18,20,22,24,26,28,30,32,34,36,38,40,42,44,46,48,50,52,54,56,58,60,62,64,66,68,70,72,74,76,78,80,82,84,86,88,90,92,-1,94,96,98,100,102,104,106,108,110,112,114,116,118,120,-1,122,-1,-1,-1,-1,-1,-1,-1,-1,-1,-1,-1,-1,-1,-1,-1,-1,-1,-1,-1,-1,-1,-1,-1,-1,-1,-1,-1,-1,-1,-1,-1,-1,-1,-1,-1,-1,-1,-1,-1,-1,-1,-1,-1,-1,-1,-1,-1,-1,-1,-1,-1,-1,-1,-1,-1,-1,-1,-1,-1,-1],"split_conditions":[6.64E0,8E-1,7.37E0,5.1E-1,1E0,7.07E0,7.9E0,4.74E0,5.56E0,6.09E0,1E0,1E0,1E0,1E0,6.63E1,4.32E0,5.02E0,1E0,1E0,1E0,1E0,1E0,1.28E0,1E0,1E0,1E0,1E0,1E0,1.7E0,1E0,5.41E1,4.09E0,1E0,1E0,1E0,1E0,7E-1,1E0,7.4E-1,1E0,1E0,1E0,1E0,1E0,1E0,6.48E1,6.492711E2,1E0,1E0,1E0,5.71E1,1E0,1E0,4.42E0,7.24E0,1E0,4.64E0,6.01E1,1E0,1E0,2.38E0,3.614808E2,1E0,-1.6820126E2,-1.586836E2,-1.4973792E2,-1.7135365E2,-1.3655942E2,-1.5827965E2,-1.2414208E2,-9.341463E1,-9.427661E1,-1.180229E2,-1.343574E2,-1.0188863E2,-4.1015064E1,-7.84937E1,-9.4327324E1,-7.724718E1,-4.0048042E1,9.015189E1,7.227398E1,-3.1971815E1,9.347981E0,-6.954419E1,-5.6611206E1,-3.2001556E1,1.2131512E2,3.8352185E2,5.2020374E1,-1.8086536E1,2.3375678E0,-6.45755E1,1.07158424E2,4.7346906E2,3.6768607E2,6.358471E2,3.6992517E2,5.58557E1,1.8128262E2,3.8036434E1,3.873166E2,1.5816743E2,1.9250494E2,3.3405524E2,8.733168E1,1.6198906E2,1.8994951E2,2.7919528E2,4.6089453E2,3.0136362E2,2.2434538E2,3.3056003E2,1.8583766E2,7.660442E1,2.384473E2,3.603049E2,5.2474945E2,6.1040326E2,4.3939917E2,6.316598E2,-5.6992004E1,3.439939E2],"split_indices":[4,0,4,0,0,4,3,3,4,4,18,22,18,15,1,3,4,18,18,22,14,17,0,21,13,17,10,18,0,15,2,3,18,18,22,17,0,17,0,16,14,15,7,16,14,1,0,16,10,15,2,15,10,5,4,13,5,2,19,17,0,0,18,0,0,0,0,0,0,0,0,0,0,0,0,0,0,0,0,0,0,0,0,0,0,0,0,0,0,0,0,0,0,0,0,0,0,0,0,0,0,0,0,0,0,0,0,0,0,0,0,0,0,0,0,0,0,0,0,0,0,0,0],"split_type":[0,0,0,0,0,0,0,0,0,0,0,0,0,0,0,0,0,0,0,0,0,0,0,0,0,0,0,0,0,0,0,0,0,0,0,0,0,0,0,0,0,0,0,0,0,0,0,0,0,0,0,0,0,0,0,0,0,0,0,0,0,0,0,0,0,0,0,0,0,0,0,0,0,0,0,0,0,0,0,0,0,0,0,0,0,0,0,0,0,0,0,0,0,0,0,0,0,0,0,0,0,0,0,0,0,0,0,0,0,0,0,0,0,0,0,0,0,0,0,0,0,0,0],"sum_hessian":[5.394E4,4.2244E4,1.1696E4,3.1126E4,1.1118E4,7.012E3,4.684E3,1.8932E4,1.2194E4,3.75E3,7.368E3,4.932E3,2.08E3,2.553E3,2.131E3,1.3974E4,4.958E3,6.123E3,6.071E3,1.212E3,2.538E3,5.364E3,2.004E3,4.568E3,3.64E2,1.603E3,4.77E2,2.26E3,2.93E2,2.113E3,1.8E1,3.682E3,1.0292E4,3.676E3,1.282E3,5.509E3,6.14E2,5.063E3,1.008E3,1.176E3,3.6E1,2.289E3,2.49E2,3.255E3,2.109E3,2.002E3,2E0,4.378E3,1.9E2,3.29E2,3.5E1,1.094E3,5.09E2,4.05E2,7.2E1,1.741E3,5.19E2,1.92E2,1.01E2,1.694E3,4.19E2,3E0,1.5E1,8.28E2,2.854E3,9.69E3,6.02E2,3.36E3,3.16E2,1.134E3,1.48E2,4.055E3,1.454E3,5.74E2,4E1,3.247E3,1.816E3,7.11E2,2.97E2,1.161E3,1.5E1,3.1E1,5E0,2.161E3,1.28E2,1.82E2,6.7E1,3.149E3,1.06E2,1.886E3,2.23E2,1.92E3,8.2E1,4.282E3,9.6E1,1.69E2,2.1E1,3.15E2,1.4E1,2.5E1,1E1,9.42E2,1.52E2,4.47E2,6.2E1,8.8E1,3.17E2,3.3E1,3.9E1,1.311E3,4.3E2,2.79E2,2.4E2,1.72E2,2E1,8.2E1,1.9E1,1.264E3,4.3E2,3.51E2,6.8E1,1.2E1,3E0],"tree_param":{"num_deleted":"0","num_feature":"23","num_nodes":"123","size_leaf_vector":"1"}},{"base_weights":[9.1643924E-1,-6.026075E2,3.0434097E3,-1.0710348E3,6.004982E2,2.3241262E3,4.4894414E3,-1.2780615E3,-5.860826E2,5.0380444E2,2.2114915E3,1.6702977E3,2.8243582E3,3.8223594E3,4.8473203E3,-1.36087E3,-1.0287968E3,-7.852228E2,-4.5945963E2,4.603799E2,3.4979001E3,1.4297806E3,2.5432043E3,1.4983025E3,3.4876536E3,3.0997646E3,1.8140585E3,3.5189539E3,5.187526E3,4.77448E3,6.1433335E3,-1.4116764E3,-1.3042225E3,-1.0591422E3,-7.966281E2,-7.9346423E2,4.5130415E3,-4.2922903E2,-1.0097747E3,4.046356E2,2.6128904E3,4.406971E3,1.9233925E3,1.551023E3,-7.5048694E2,2.9135935E3,1.8568059E3,1.3648881E3,4.329923E3,3.6815579E3,9.2142535E2,3.5769175E3,2.2235452E3,1.5477335E3,2.2352036E3,3.2208638E3,4.465161E3,5.4299805E3,-9.1614386E2,4.93361E3,4.0884001E3,6.2263867E3,1.410168E2,-1.430756E2,-1.3076498E2,-1.2778967E2,-1.3991898E2,-1.0839214E2,-7.579367E1,-7.7356476E1,-1.3746135E2,-8.114056E1,-9.239032E0,6.5035736E2,3.5465267E1,-3.804274E1,-8.2665276E1,-1.065105E2,-9.4598114E1,2.8348532E1,1.2536767E2,2.8820453E2,4.5405064E1,4.7277866E2,3.8833385E1,1.4988634E2,2.3840703E2,1.7596767E2,2.3122791E1,-1.2225342E1,-1.1817604E2,3.0589594E2,-2.751811E1,1.4550096E2,2.1419188E2,1.2731765E2,4.9532944E2,4.4962582E2,7.069023E0,3.94523E2,1.6042172E2,4.6643196E1,1.374989E2,3.9155435E2,2.0465404E2,2.3629263E2,1.0047396E2,9.130033E1,1.6960037E2,2.3366585E2,8.045301E1,2.9251532E2,4.6384317E2,3.9572934E2,7.479863E2,6.2893665E2,3.193621E2,-2.0498296E2,1.6566087E2,4.733103E2,5.4930426E2,3.741406E2,5.4723865E2,1.4999146E2,6.259997E2],"categories":[],"categories_nodes":[],"categories_segments":[],"categories_sizes":[],"default_left":[0,0,0,0,0,0,0,0,0,0,0,0,0,0,0,0,0,0,0,0,0,0,0,0,0,0,0,0,1,0,0,0,0,0,0,0,0,0,0,0,0,0,0,0,0,0,0,0,0,0,0,0,0,0,0,0,0,0,0,0,0,0,0,0,0,0,0,0,0,0,0,0,0,0,0,0,0,0,0,0,0,0,0,0,0,0,0,0,0,0,0,0,0,0,0,0,0,0,0,0,0,0,0,0,0,0,0,0,0,0,0,0,0,0,0,0,0,0,0,0,0,0,0,0,0],"id":8,"left_children":[1,3,5,7,9,11,13,15,17,19,21,23,25,27,29,31,33,35,37,39,41,43,45,47,49,51,53,55,57,59,61,63,65,67,69,71,73,75,77,79,81,83,85,87,89,91,93,95,97,99,101,103,105,107,109,111,113,115,117,119,121,123,-1,-1,-1,-1,-1,-1,-1,-1,-1,-1,-1,-1,-1,-1,-1,-1,-1,-1,-1,-1,-1,-1,-1,-1,-1,-1,-1,-1,-1,-1,-1,-1,-1,-1,-1,-1,-1,-1,-1,-1,-1,-1,-1,-1,-1,-1,-1,-1,-1,-1,-1,-1,-1,-1,-1,-1,-1,-1,-1,-1,-1,-1,-1],"loss_changes":[9.904924E10,2.5368506E10,9.276678E9,3.252052E9,1.9639634E9,1.9462328E9,6.8931584E8,4.672594E8,2.4410573E8,1.5458545E9,1.815063E8,8.0372224E8,9.342812E8,4.1251226E8,1.5248998E8,4.7202304E7,3.9074304E7,1.680686E8,9.820365E7,1.4067881E9,2.3485133E8,5.799728E7,1.2170726E8,8.87915E8,1.0757325E8,1.1012424E9,7.796966E7,2.2649344E8,2.8170906E8,1.794048E8,3.0137344E7,1.5935488E7,1.8386944E7,3.655629E7,7.721312E6,4.724403E7,4.7357896E7,1.0872384E8,7.9616E4,1.1761748E9,1.706857E8,1.3611302E8,8.943136E6,5.5770656E7,3.10681E6,1.5056486E8,1.7274624E7,7.377848E8,7.477926E7,1.0705254E8,2.866926E6,8.812626E8,1.5697203E8,4.061357E7,3.8616704E7,2.6016307E8,2.796764E8,3.2585523E8,2.6729308E7,1.3989888E8,1.4760806E8,6.01984E6,0E0,0E0,0E0,0E0,0E0,0E0,0E0,0E0,0E0,0E0,0E0,0E0,0E0,0E0,0E0,0E0,0E0,0E0,0E0,0E0,0E0,0E0,0E0,0E0,0E0,0E0,0E0,0E0,0E0,0E0,0E0,0E0,0E0,0E0,0E0,0E0,0E0,0E0,0E0,0E0,0E0,0E0,0E0,0E0,0E0,0E0,0E0,0E0,0E0,0E0,0E0,0E0,0E0,0E0,0E0,0E0,0E0,0E0,0E0,0E0,0E0,0E0,0E0],"parents":[2147483647,0,0,1,1,2,2,3,3,4,4,5,5,6,6,7,7,8,8,9,9,10,10,11,11,12,12,13,13,14,14,15,15,16,16,17,17,18,18,19,19,20,20,21,21,22,22,23,23,24,24,25,25,26,26,27,27,28,28,29,29,30,30,31,31,32,32,33,33,34,34,35,35,36,36,37,37,38,38,39,39,40,40,41,41,42,42,43,43,44,44,45,45,46,46,47,47,48,48,49,49,50,50,51,51,52,52,53,53,54,54,55,55,56,56,57,57,58,58,59,59,60,60,61,61],"right_children":[2,4,6,8,10,12,14,16,18,20,22,24,26,28,30,32,34,36,38,40,42,44,46,48,50,52,54,56,58,60,62,64,66,68,70,72,74,76,78,80,82,84,86,88,90,92,94,96,98,100,102,104,106,108,110,112,114,116,118,120,122,124,-1,-1,-1,-1,-1,-1,-1,-1,-1,-1,-1,-1,-1,-1,-1,-1,-1,-1,-1,-1,-1,-1,-1,-1,-1,-1,-1,-1,-1,-1,-1,-1,-1,-1,-1,-1,-1,-1,-1,-1,-1,-1,-1,-1,-1,-1,-1,-1,-1,-1,-1,-1,-1,-1,-1,-1,-1,-1,-1,-1,-1,-1,-1],"split_conditions":[6.84E0,6.09E0,1.67E0,5.6E-1,1E0,4.42E0,7.97E0,4.9E0,5.69E0,1E0,6.42E0,1E0,1E0,1E0,1E0,4.46E0,1E0,1.16E0,1E0,1E0,1E0,1E0,1E0,1E0,1E0,1E0,7.39E0,1E0,6.56E1,1E0,6.54E1,1E0,1E0,1E0,1E0,1E0,3.94E0,1E0,5.83E0,1E0,1E0,1E0,6.53E0,1E0,9.7E-1,1E0,1E0,1E0,1E0,1E0,1.26E0,1E0,1E0,7.16E0,1E0,1E0,1E0,1E0,1E0,1E0,2.38E0,1.78E0,1.410168E2,-1.430756E2,-1.3076498E2,-1.2778967E2,-1.3991898E2,-1.0839214E2,-7.579367E1,-7.7356476E1,-1.3746135E2,-8.114056E1,-9.239032E0,6.5035736E2,3.5465267E1,-3.804274E1,-8.2665276E1,-1.065105E2,-9.4598114E1,2.8348532E1,1.2536767E2,2.8820453E2,4.5405064E1,4.7277866E2,3.8833385E1,1.4988634E2,2.3840703E2,1.7596767E2,2.3122791E1,-1.2225342E1,-1.1817604E2,3.0589594E2,-2.751811E1,1.4550096E2,2.1419188E2,1.2731765E2,4.9532944E2,4.4962582E2,7.069023E0,3.94523E2,1.6042172E2,4.6643196E1,1.374989E2,3.9155435E2,2.0465404E2,2.3629263E2,1.0047396E2,9.130033E1,1.6960037E2,2.3366585E2,8.045301E1,2.9251532E2,4.6384317E2,3.9572934E2,7.479863E2,6.2893665E2,3.193621E2,-2.0498296E2,1.6566087E2,4.733103E2,5.4930426E2,3.741406E2,5.4723865E2,1.4999146E2,6.259997E2],"split_indices":[4,4,0,0,22,5,4,3,4,16,4,22,18,12,19,3,22,0,15,21,12,15,12,21,15,17,4,20,1,15,2,21,17,21,14,16,3,14,4,19,13,13,3,13,0,14,7,16,15,13,0,14,15,4,15,19,11,18,18,17,0,0,0,0,0,0,0,0,0,0,0,0,0,0,0,0,0,0,0,0,0,0,0,0,0,0,0,0,0,0,0,0,0,0,0,0,0,0,0,0,0,0,0,0,0,0,0,0,0,0,0,0,0,0,0,0,0,0,0,0,0,0,0,0,0],"split_type":[0,0,0,0,0,0,0,0,0,0,0,0,0,0,0,0,0,0,0,0,0,0,0,0,0,0,0,0,0,0,0,0,0,0,0,0,0,0,0,0,0,0,0,0,0,0,0,0,0,0,0,0,0,0,0,0,0,0,0,0,0,0,0,0,0,0,0,0,0,0,0,0,0,0,0,0,0,0,0,0,0,0,0,0,0,0,0,0,0,0,0,0,0,0,0,0,0,0,0,0,0,0,0,0,0,0,0,0,0,0,0,0,0,0,0,0,0,0,0,0,0,0,0,0,0],"sum_hessian":[5.394E4,4.5012E4,8.928E3,3.2398E4,1.2614E4,5.964E3,2.964E3,2.2704E4,9.694E3,1.1901E4,7.13E2,2.587E3,3.377E3,1.039E3,1.925E3,1.7039E4,5.665E3,3.766E3,5.928E3,1.1732E4,1.69E2,2.14E2,4.99E2,2.365E3,2.22E2,2.652E3,7.25E2,8.53E2,1.86E2,1.827E3,9.8E1,8.97E3,8.069E3,5.007E3,6.58E2,3.761E3,5E0,5.621E3,3.07E2,1.1437E4,2.95E2,1.06E2,6.3E1,2.03E2,1.1E1,3.22E2,1.77E2,2.26E3,1.05E2,2.06E2,1.6E1,1.715E3,9.37E2,4.47E2,2.78E2,6.52E2,2.01E2,1.79E2,7E0,1.478E3,3.49E2,9.6E1,2E0,7.569E3,1.401E3,6.329E3,1.74E3,4.624E3,3.83E2,6.35E2,2.3E1,3.667E3,9.4E1,3E0,2E0,5.008E3,6.13E2,1.56E2,1.51E2,1.001E4,1.427E3,2.62E2,3.3E1,9.8E1,8E0,3.5E1,2.8E1,1.75E2,2.8E1,5E0,6E0,3.08E2,1.4E1,7.6E1,1.01E2,2.205E3,5.5E1,1.01E2,4E0,1.82E2,2.4E1,9E0,7E0,1.403E3,3.12E2,8.4E2,9.7E1,8.6E1,3.61E2,2.59E2,1.9E1,5.42E2,1.1E2,1.74E2,2.7E1,1.28E2,5.1E1,5E0,2E0,1.095E3,3.83E2,2.82E2,6.7E1,1E0,9.5E1],"tree_param":{"num_deleted":"0","num_feature":"23","num_nodes":"125","size_leaf_vector":"1"}},{"base_weights":[1.017978E0,-7.885193E2,1.8959572E3,-1.1123855E3,-1.5611931E2,1.0842185E3,3.4094531E3,-1.2194369E3,-8.6071375E2,-4.020374E2,3.1029315E2,1.3469724E3,3.2626987E2,2.8120085E3,4.2363237E3,-1.255873E3,-1.1416567E3,-8.7699994E2,-3.2401102E2,-4.056185E2,5.7239204E3,4.9471228E2,-1.3688892E2,1.6670944E3,7.3014453E2,1.6825972E2,1.0309675E3,2.9924854E3,1.4018403E3,4.288737E3,2.1541833E3,-1.2440292E3,-1.4052959E2,-1.1247979E3,-1.312919E2,-9.027225E2,-5.1470984E2,-1.9719412E2,-7.0779364E2,-4.8928717E2,-2.0246225E2,6.415975E2,1.4778514E2,5.874067E2,-5.3895056E2,-1.4331946E2,4.1114108E2,1.8764727E3,5.660544E2,5.923899E2,1.5514332E3,2.9450825E1,3.065317E2,7.524825E2,1.4008947E3,3.2956584E3,1.8393739E3,7.551526E2,1.5823528E3,2.9720208E3,4.380136E3,2.5512021E3,-1.1595563E2,-1.23459045E2,-1.4329865E2,-1.0909119E2,-1.22890564E2,-9.44589E1,-6.1947834E1,-6.292303E1,-1.3978525E1,-9.341495E0,-9.6567825E1,-7.187305E1,-5.860266E0,-4.337138E1,-7.503014E1,-1.1183014E1,-4.6223156E1,6.6122574E1,-8.585862E1,-5.1003494E1,-1.2887047E2,-1.1920707E1,-6.7683044E1,2.0607552E2,-2.32952E0,1.7001184E1,9.261168E1,6.912993E1,1.0150901E1,1.7261722E2,5.002091E1,6.30539E0,-4.3771313E1,3.724644E1,-8.723734E0,8.218792E1,1.1760664E0,1.4666182E2,3.0222467E1,3.8671384E2,1.9333614E2,1.4622885E2,2.3589978E2,6.5186424E1,1.7686906E2,1.6715887E2,8.94644E1,2.5849844E2,4.4340012E2,4.2507623E2,5.1277844E2,1.9533955E2,3.4399133E2],"categories":[],"categories_nodes":[],"categories_segments":[],"categories_sizes":[],"default_left":[0,0,0,0,0,0,0,0,0,0,0,0,0,0,1,0,0,0,0,0,0,0,0,0,0,0,0,0,0,0,0,0,0,0,0,0,0,0,0,0,0,0,0,0,0,0,0,0,0,0,0,0,0,0,0,0,0,0,0,0,0,0,0,0,0,0,0,0,0,0,0,0,0,0,0,0,0,0,0,0,0,0,0,0,0,0,0,0,0,0,0,0,0,0,0,0,0,0,0,0,0,0,0,0,0,0,0,0,0,0,0,0,0,0,0],"id":9,"left_children":[1,3,5,7,9,11,13,15,17,19,21,23,25,27,29,31,33,35,37,39,41,43,45,47,49,51,53,55,57,59,61,63,-1,65,-1,67,69,71,73,75,77,-1,-1,79,81,83,-1,85,87,89,91,93,95,97,99,101,103,105,107,109,111,113,-1,-1,-1,-1,-1,-1,-1,-1,-1,-1,-1,-1,-1,-1,-1,-1,-1,-1,-1,-1,-1,-1,-1,-1,-1,-1,-1,-1,-1,-1,-1,-1,-1,-1,-1,-1,-1,-1,-1,-1,-1,-1,-1,-1,-1,-1,-1,-1,-1,-1,-1,-1,-1],"loss_changes":[8.070399E10,7.798489E9,1.9487457E10,6.773719E8,1.4794012E9,2.0564224E9,2.7239137E9,4.8623616E7,6.5430016E7,1.8758349E8,3.673019E8,1.5131054E9,2.9601587E8,8.1479475E8,2.4404787E8,1.9523584E7,1.4825472E7,6.752614E7,1.0713862E7,1.4337946E8,5.210704E6,3.0242054E8,3.613112E7,1.1626721E9,2.9572454E8,4.1717388E7,4.911619E7,9.9097395E8,4.164691E7,2.5933414E8,8.057965E7,1.8106368E7,0E0,1.6817152E7,0E0,8.018278E7,2.0779192E7,1.3387986E7,3.48384E5,8.63881E7,5.7959344E7,0E0,0E0,3.0947846E8,4.979416E6,1.6642816E7,0E0,1.4847969E9,1.1506339E8,1.0902778E8,6.820384E7,1.7075784E7,2.8305384E7,1.438336E7,1.4576128E7,1.7496556E9,1.133321E8,7.431364E6,1.6055808E7,7.341414E7,1.826775E8,2.1438176E7,0E0,0E0,0E0,0E0,0E0,0E0,0E0,0E0,0E0,0E0,0E0,0E0,0E0,0E0,0E0,0E0,0E0,0E0,0E0,0E0,0E0,0E0,0E0,0E0,0E0,0E0,0E0,0E0,0E0,0E0,0E0,0E0,0E0,0E0,0E0,0E0,0E0,0E0,0E0,0E0,0E0,0E0,0E0,0E0,0E0,0E0,0E0,0E0,0E0,0E0,0E0,0E0,0E0],"parents":[2147483647,0,0,1,1,2,2,3,3,4,4,5,5,6,6,7,7,8,8,9,9,10,10,11,11,12,12,13,13,14,14,15,15,16,16,17,17,18,18,19,19,20,20,21,21,22,22,23,23,24,24,25,25,26,26,27,27,28,28,29,29,30,30,31,31,33,33,35,35,36,36,37,37,38,38,39,39,40,40,43,43,44,44,45,45,47,47,48,48,49,49,50,50,51,51,52,52,53,53,54,54,55,55,56,56,57,57,58,58,59,59,60,60,61,61],"right_children":[2,4,6,8,10,12,14,16,18,20,22,24,26,28,30,32,34,36,38,40,42,44,46,48,50,52,54,56,58,60,62,64,-1,66,-1,68,70,72,74,76,78,-1,-1,80,82,84,-1,86,88,90,92,94,96,98,100,102,104,106,108,110,112,114,-1,-1,-1,-1,-1,-1,-1,-1,-1,-1,-1,-1,-1,-1,-1,-1,-1,-1,-1,-1,-1,-1,-1,-1,-1,-1,-1,-1,-1,-1,-1,-1,-1,-1,-1,-1,-1,-1,-1,-1,-1,-1,-1,-1,-1,-1,-1,-1,-1,-1,-1,-1,-1],"split_conditions":[6.44E0,7E-1,7.29E0,3.09E0,6.19E0,1E0,7.78E0,3.8E-1,1E0,1.52E0,1E0,1E0,1.28E0,1E0,6.49E1,1E0,1E0,1E0,1E0,5.95E0,6.29E1,1E0,1.17E0,1E0,1.3E0,4.08E0,1.5E0,1E0,4.53E0,4.8E0,6.73E1,1E0,-1.4052959E2,1E0,-1.312919E2,1E0,5.36E0,1E0,3.44E0,1E0,1E0,6.415975E2,1.4778514E2,1E0,4.1E0,1E0,4.1114108E2,1E0,4.18E0,1E0,1E0,1E0,1E0,1E0,1E0,1E0,4.62E0,1E0,1E0,1E0,1E0,8.31E0,-1.1595563E2,-1.23459045E2,-1.4329865E2,-1.0909119E2,-1.22890564E2,-9.44589E1,-6.1947834E1,-6.292303E1,-1.3978525E1,-9.341495E0,-9.6567825E1,-7.187305E1,-5.860266E0,-4.337138E1,-7.503014E1,-1.1183014E1,-4.6223156E1,6.6122574E1,-8.585862E1,-5.1003494E1,-1.2887047E2,-1.1920707E1,-6.7683044E1,2.0607552E2,-2.32952E0,1.7001184E1,9.261168E1,6.912993E1,1.0150901E1,1.7261722E2,5.002091E1,6.30539E0,-4.3771313E1,3.724644E1,-8.723734E0,8.218792E1,1.1760664E0,1.4666182E2,3.0222467E1,3.8671384E2,1.9333614E2,1.4622885E2,2.3589978E2,6.5186424E1,1.7686906E2,1.6715887E2,8.94644E1,2.5849844E2,4.4340012E2,4.2507623E2,5.1277844E2,1.9533955E2,3.4399133E2],"split_indices":[4,0,4,5,4,18,4,0,16,0,18,17,0,15,1,14,18,21,13,4,1,14,0,13,0,5,0,14,5,5,1,18,0,17,0,22,4,14,5,18,18,0,0,15,5,15,0,15,5,14,15,14,14,15,15,13,5,22,18,19,20,3,0,0,0,0,0,0,0,0,0,0,0,0,0,0,0,0,0,0,0,0,0,0,0,0,0,0,0,0,0,0,0,0,0,0,0,0,0,0,0,0,0,0,0,0,0,0,0,0,0,0,0,0,0],"split_type":[0,0,0,0,0,0,0,0,0,0,0,0,0,0,0,0,0,0,0,0,0,0,0,0,0,0,0,0,0,0,0,0,0,0,0,0,0,0,0,0,0,0,0,0,0,0,0,0,0,0,0,0,0,0,0,0,0,0,0,0,0,0,0,0,0,0,0,0,0,0,0,0,0,0,0,0,0,0,0,0,0,0,0,0,0,0,0,0,0,0,0,0,0,0,0,0,0,0,0,0,0,0,0,0,0,0,0,0,0,0,0,0,0,0,0],"sum_hessian":[5.394E4,3.8076E4,1.5864E4,2.518E4,1.2896E4,1.0327E4,5.537E3,1.7663E4,7.517E3,8.444E3,4.452E3,7.668E3,2.659E3,3.217E3,2.32E3,1.2018E4,5.645E3,7.295E3,2.22E2,8.44E3,4E0,3.152E3,1.3E3,5.047E3,2.621E3,2.173E3,4.86E2,2.851E3,3.66E2,2.262E3,5.8E1,1.1144E4,8.74E2,5.146E3,4.99E2,6.81E3,4.85E2,1.68E2,5.4E1,5.977E3,2.463E3,3E0,1E0,2.893E3,2.59E2,1.299E3,1E0,4.24E3,8.07E2,2.246E3,3.75E2,1.085E3,1.088E3,2.79E2,2.07E2,2.256E3,5.95E2,8.1E1,2.85E2,1.49E2,2.113E3,5.2E1,6E0,1.0621E4,5.23E2,3.891E3,1.255E3,5.931E3,8.79E2,3.71E2,1.14E2,1.49E2,1.9E1,5.3E1,1E0,4.93E3,1.047E3,1.827E3,6.36E2,2.753E3,1.4E2,2.51E2,8E0,1.244E3,5.5E1,3.865E3,3.75E2,3.85E2,4.22E2,1.869E3,3.77E2,3.21E2,5.4E1,1.013E3,7.2E1,9.32E2,1.56E2,2.55E2,2.4E1,1.95E2,1.2E1,1.588E3,6.68E2,3.47E2,2.48E2,7.5E1,6E0,2.51E2,3.4E1,1.2E2,2.9E1,1.807E3,3.06E2,3.3E1,1.9E1],"tree_param":{"num_deleted":"0","num_feature":"23","num_nodes":"115","size_leaf_vector":"1"}},{"base_weights":[9.893979E-1,-5.810692E2,2.1031577E3,-9.102621E2,2.5229442E2,1.4322156E3,3.3782917E3,-1.0846915E3,-6.2079376E2,-1.3810876E2,5.1593567E2,1.0634844E3,2.0969993E3,2.8740466E3,3.9276235E3,-1.1227551E3,-9.829929E2,-7.672416E2,-4.743398E2,-1.4538342E2,5.7264507E3,4.2613785E2,1.8533541E3,1.307047E3,3.105254E2,2.3544443E3,1.1986194E3,2.6575317E3,4.0312378E3,3.9477295E3,6.6371277E2,-1.1383726E3,-1.0240962E3,-9.728562E2,-1.2893481E2,-7.3829443E2,-1.0236121E3,-5.0340158E2,4.6493435E1,-1.0901827E2,-7.8769366E2,6.3101575E2,1.4039587E2,3.864456E2,2.9128647E3,1.9327738E3,-7.5238544E2,1.5046339E3,2.3017607E2,6.531414E0,3.8953162E2,2.126793E3,3.747684E3,7.377437E2,1.3365864E3,2.290205E3,3.5507656E3,4.389297E3,2.0770562E3,3.843212E3,4.5675967E3,-9.374509E1,1.7816213E3,-1.1527576E2,-9.8623344E1,-1.1823457E2,-9.838298E1,-9.551828E1,-1.1478716E2,-7.181707E1,-1.1426324E2,-1.02749596E2,-6.651952E1,-5.3965984E1,-1.0465062E1,2.2634459E1,-6.533553E1,-5.2917523E0,-5.9149147E1,-7.3217224E1,-1.275866E2,3.433148E1,2.223087E2,3.8018436E2,1.373228E2,2.3218835E2,1.2334423E2,1.0784088E1,-9.9679634E1,1.6982416E2,-3.3680742E0,7.8477173E0,4.82879E1,-3.9619385E1,6.117045E0,4.412036E1,-1.3952837E1,1.9246513E2,3.726565E2,4.471819E2,2.3403636E2,-2.2929974E1,8.362119E1,1.4329123E2,7.6705925E1,2.136805E2,4.6559384E2,3.2548477E2,5.7046643E2,5.0696368E2,3.025382E2,1.2129925E2,2.524239E2,3.7657056E2,5.0030273E2,4.8614746E2,4.0248178E2,3.005518E2,-1.9365454E1],"categories":[],"categories_nodes":[],"categories_segments":[],"categories_sizes":[],"default_left":[0,0,0,0,0,0,0,0,0,0,0,0,0,0,1,0,0,0,0,0,0,0,0,0,0,0,0,0,0,0,0,0,0,0,0,0,0,0,0,0,0,0,0,0,0,0,0,0,0,0,0,0,0,0,0,0,0,0,0,0,0,0,0,0,0,0,0,0,0,0,0,0,0,0,0,0,0,0,0,0,0,0,0,0,0,0,0,0,0,0,0,0,0,0,0,0,0,0,0,0,0,0,0,0,0,0,0,0,0,0,0,0,0,0,0,0,0,0,0],"id":10,"left_children":[1,3,5,7,9,11,13,15,17,19,21,23,25,27,29,31,33,35,37,39,41,43,45,47,49,51,53,55,57,59,61,63,65,67,-1,69,71,73,75,77,79,-1,-1,81,83,85,87,89,91,93,95,97,99,101,103,105,107,109,111,113,115,-1,117,-1,-1,-1,-1,-1,-1,-1,-1,-1,-1,-1,-1,-1,-1,-1,-1,-1,-1,-1,-1,-1,-1,-1,-1,-1,-1,-1,-1,-1,-1,-1,-1,-1,-1,-1,-1,-1,-1,-1,-1,-1,-1,-1,-1,-1,-1,-1,-1,-1,-1,-1,-1,-1,-1,-1,-1],"loss_changes":[6.6002633E10,1.1589614E10,1.0002424E10,1.5283692E9,1.2313797E9,1.8769101E9,1.1055677E9,7.204045E7,2.4390605E8,2.0659424E8,8.568247E8,9.0427034E8,6.295071E8,5.1694387E8,1.2383846E8,2.000896E7,1.4751232E7,4.149299E7,8.62551E7,1.1245154E8,6.279216E6,6.594995E8,9.437338E7,7.9266816E8,2.8986496E7,6.657055E8,3.786483E7,5.749176E8,2.2178765E8,1.0651238E8,2.493959E7,2.4807424E7,1.0867456E7,1.4346752E7,0E0,4.083149E7,1.16864E5,7.795891E7,3.81602E7,1.2342178E8,6.058688E6,0E0,0E0,5.2118982E8,1.3849318E8,1.1577894E8,3.0509775E6,9.3792256E8,2.2157924E7,5.525365E6,2.6250944E7,5.839672E8,2.9220454E8,1.3808632E7,2.4630336E7,4.4803584E8,3.103186E8,2.4262656E8,1.741704E7,1.2903424E8,2.3661568E7,0E0,1.99223E7,0E0,0E0,0E0,0E0,0E0,0E0,0E0,0E0,0E0,0E0,0E0,0E0,0E0,0E0,0E0,0E0,0E0,0E0,0E0,0E0,0E0,0E0,0E0,0E0,0E0,0E0,0E0,0E0,0E0,0E0,0E0,0E0,0E0,0E0,0E0,0E0,0E0,0E0,0E0,0E0,0E0,0E0,0E0,0E0,0E0,0E0,0E0,0E0,0E0,0E0,0E0,0E0,0E0,0E0,0E0,0E0],"parents":[2147483647,0,0,1,1,2,2,3,3,4,4,5,5,6,6,7,7,8,8,9,9,10,10,11,11,12,12,13,13,14,14,15,15,16,16,17,17,18,18,19,19,20,20,21,21,22,22,23,23,24,24,25,25,26,26,27,27,28,28,29,29,30,30,31,31,32,32,33,33,35,35,36,36,37,37,38,38,39,39,40,40,43,43,44,44,45,45,46,46,47,47,48,48,49,49,50,50,51,51,52,52,53,53,54,54,55,55,56,56,57,57,58,58,59,59,60,60,62,62],"right_children":[2,4,6,8,10,12,14,16,18,20,22,24,26,28,30,32,34,36,38,40,42,44,46,48,50,52,54,56,58,60,62,64,66,68,-1,70,72,74,76,78,80,-1,-1,82,84,86,88,90,92,94,96,98,100,102,104,106,108,110,112,114,116,-1,118,-1,-1,-1,-1,-1,-1,-1,-1,-1,-1,-1,-1,-1,-1,-1,-1,-1,-1,-1,-1,-1,-1,-1,-1,-1,-1,-1,-1,-1,-1,-1,-1,-1,-1,-1,-1,-1,-1,-1,-1,-1,-1,-1,-1,-1,-1,-1,-1,-1,-1,-1,-1,-1,-1,-1,-1],"split_conditions":[6.64E0,7.6E-1,7.44E0,5.11E0,6.3E0,7.07E0,7.97E0,4.73E0,3.37E0,1.52E0,1E0,1E0,1E0,1E0,6.63E1,1E0,1E0,1E0,1E0,1E0,6.29E1,1E0,1E0,1E0,4.1E0,1E0,1.5E0,1E0,1E0,1E0,8.31E0,1E0,3E-1,1E0,-1.2893481E2,1E0,6.42E1,1E0,1E0,1E0,4E0,6.3101575E2,1.4039587E2,1E0,1E0,1E0,6.34E0,1E0,1E0,3.91E0,1E0,1E0,1E0,5.9E1,1E0,1E0,1E0,1E0,4.62E0,1E0,1E0,-9.374509E1,6.71E1,-1.1527576E2,-9.8623344E1,-1.1823457E2,-9.838298E1,-9.551828E1,-1.1478716E2,-7.181707E1,-1.1426324E2,-1.02749596E2,-6.651952E1,-5.3965984E1,-1.0465062E1,2.2634459E1,-6.533553E1,-5.2917523E0,-5.9149147E1,-7.3217224E1,-1.275866E2,3.433148E1,2.223087E2,3.8018436E2,1.373228E2,2.3218835E2,1.2334423E2,1.0784088E1,-9.9679634E1,1.6982416E2,-3.3680742E0,7.8477173E0,4.82879E1,-3.9619385E1,6.117045E0,4.412036E1,-1.3952837E1,1.9246513E2,3.726565E2,4.471819E2,2.3403636E2,-2.2929974E1,8.362119E1,1.4329123E2,7.6705925E1,2.136805E2,4.6559384E2,3.2548477E2,5.7046643E2,5.0696368E2,3.025382E2,1.2129925E2,2.524239E2,3.7657056E2,5.0030273E2,4.8614746E2,4.0248178E2,3.005518E2,-1.9365454E1],"split_indices":[4,0,4,3,4,4,4,3,5,0,22,18,18,19,1,21,15,18,21,15,1,16,15,14,5,11,0,20,15,20,3,16,0,18,0,14,2,22,14,14,5,0,0,21,12,12,3,15,7,5,15,10,17,1,14,22,11,14,5,19,15,0,1,0,0,0,0,0,0,0,0,0,0,0,0,0,0,0,0,0,0,0,0,0,0,0,0,0,0,0,0,0,0,0,0,0,0,0,0,0,0,0,0,0,0,0,0,0,0,0,0,0,0,0,0,0,0,0,0],"split_type":[0,0,0,0,0,0,0,0,0,0,0,0,0,0,0,0,0,0,0,0,0,0,0,0,0,0,0,0,0,0,0,0,0,0,0,0,0,0,0,0,0,0,0,0,0,0,0,0,0,0,0,0,0,0,0,0,0,0,0,0,0,0,0,0,0,0,0,0,0,0,0,0,0,0,0,0,0,0,0,0,0,0,0,0,0,0,0,0,0,0,0,0,0,0,0,0,0,0,0,0,0,0,0,0,0,0,0,0,0,0,0,0,0,0,0,0,0,0,0],"sum_hessian":[5.394E4,4.2244E4,1.1696E4,3.0282E4,1.1962E4,7.665E3,4.031E3,1.8894E4,1.1388E4,4.822E3,7.14E3,4.932E3,2.733E3,2.105E3,1.926E3,1.3741E4,5.153E3,5.692E3,5.696E3,4.817E3,5E0,6.692E3,4.48E2,3.726E3,1.206E3,2.123E3,6.1E2,1.776E3,3.29E2,1.914E3,1.2E1,1.1854E4,1.887E3,4.992E3,1.61E2,5.118E3,5.74E2,5.395E3,3.01E2,4.56E3,2.57E2,4E0,1E0,6.588E3,1.04E2,4.35E2,1.3E1,3.148E3,5.78E2,2.49E2,9.57E2,1.827E3,2.96E2,1.42E2,4.68E2,1.261E3,5.15E2,2.77E2,5.2E1,1.644E3,2.7E2,5E0,7E0,1.0824E4,1.03E3,3.77E2,1.51E3,4.54E3,4.52E2,4.878E3,2.4E2,5.66E2,8E0,4.945E3,4.5E2,2.4E2,6.1E1,4.086E3,4.74E2,2.33E2,2.4E1,6.438E3,1.5E2,6.5E1,3.9E1,2.78E2,1.57E2,3E0,1E1,2.796E3,3.52E2,3.62E2,2.16E2,2.9E1,2.2E2,8.72E2,8.5E1,1.624E3,2.03E2,1.94E2,1.02E2,1.3E1,1.29E2,3.99E2,6.9E1,1.186E3,7.5E1,4.55E2,6E1,1.83E2,9.4E1,1.9E1,3.3E1,1.545E3,9.9E1,1.7E2,1E2,4E0,3E0],"tree_param":{"num_deleted":"0","num_feature":"23","num_nodes":"119","size_leaf_vector":"1"}},{"base_weights":[1.0160276E0,-4.5061563E2,2.2049233E3,-7.713827E2,4.454341E2,1.619598E3,3.1947605E3,-9.3876385E2,-4.257986E2,3.7050296E2,1.6957909E3,1.8536609E3,8.066475E2,2.8270474E3,3.6469421E3,-9.9322626E2,-7.5907764E2,-5.72147E2,-3.0089944E2,3.336128E2,2.8213406E3,1.818955E3,2.3462717E2,2.0467195E3,5.267724E2,3.8894128E2,1.1676549E3,2.9968406E3,1.6344474E3,1.2728145E3,3.6760493E3,-1.0416771E3,-9.5589886E2,-7.4286145E2,-1.0848151E2,-5.448314E2,-9.0803705E2,-2.7064062E2,-8.154923E2,2.8989346E2,2.0921443E3,3.6137175E3,1.4466864E3,2.226755E3,1.1768639E3,-5.6891617E1,6.1734265E2,2.396029E3,9.192491E2,1.135283E2,8.70556E2,4.8997745E2,7.9831955E1,1.0475369E3,1.7803417E3,2.812113E3,4.1831084E3,1.0920643E3,1.9650281E3,-1.4708342E3,1.8435073E3,-3.3499155E2,3.6829436E3,-1.0262038E2,-1.1283075E2,-9.7203026E1,-8.385571E1,-7.182128E1,-9.531362E1,-5.724013E1,-4.3546166E0,-1.0066695E2,-8.118545E1,-2.7623388E1,2.8198538E2,-7.996528E1,-1.2297201E2,1.8992424E1,9.8678246E1,1.742783E2,3.7251157E2,3.8830002E2,-1.0304975E1,1.1146909E2,1.8357663E2,2.3589261E2,-6.953756E1,7.780054E1,1.5058444E2,-3.039187E1,2.2686522E1,2.2603703E1,6.878261E1,2.9379208E2,7.9301994E1,5.278063E1,1.1764591E2,-5.0362583E1,1.7842375E1,7.75718E1,1.5962584E2,5.4888775E1,-9.816786E0,-4.7995895E1,1.4607691E1,5.0808887E1,1.150617E2,1.8081477E2,1.6733807E1,2.4768486E2,3.7755298E2,4.833215E2,3.2602716E2,3.54198E1,1.3328865E2,2.099761E2,-6.2158478E1,-2.4059033E2,6.671865E1,2.2866946E2,-9.869317E1,3.5303207E2,4.079271E2],"categories":[],"categories_nodes":[],"categories_segments":[],"categories_sizes":[],"default_left":[0,0,0,0,0,0,0,0,0,0,0,0,0,0,0,0,0,0,0,0,0,0,0,0,0,0,0,0,0,0,0,0,0,0,0,0,0,0,0,0,0,0,0,0,0,0,0,0,0,0,0,0,0,0,0,0,0,0,0,0,0,0,0,0,0,0,0,0,0,0,0,0,0,0,0,0,0,0,0,0,0,0,0,0,0,0,0,0,0,0,0,0,0,0,0,0,0,0,0,0,0,0,0,0,0,0,0,0,0,0,0,0,0,0,0,0,0,0,0,0,0,0,0],"id":11,"left_children":[1,3,5,7,9,11,13,15,17,19,21,23,25,27,29,31,33,35,37,39,41,43,45,47,49,51,53,55,57,59,61,63,65,67,-1,69,71,73,75,77,79,81,83,85,87,89,91,93,95,97,99,101,103,105,107,109,111,113,115,117,119,-1,121,-1,-1,-1,-1,-1,-1,-1,-1,-1,-1,-1,-1,-1,-1,-1,-1,-1,-1,-1,-1,-1,-1,-1,-1,-1,-1,-1,-1,-1,-1,-1,-1,-1,-1,-1,-1,-1,-1,-1,-1,-1,-1,-1,-1,-1,-1,-1,-1,-1,-1,-1,-1,-1,-1,-1,-1,-1,-1,-1,-1],"loss_changes":[5.3691396E10,1.2867708E10,5.31003E9,1.9065508E9,1.1051092E9,1.0958592E9,5.563474E8,2.1658624E8,1.9648922E8,1.00588416E9,1.1960858E8,1.1457823E9,1.942222E8,3.7660262E8,1.0070426E8,2.9821952E7,2.6503168E7,4.494912E7,9.01999E7,8.4294106E8,1.744974E8,1.5841382E8,5.948265E6,1.5369083E9,8.08791E7,1.8699616E7,4.906259E7,3.4937344E8,4.034848E7,3.402711E7,8.528896E7,8.766976E6,1.7426432E7,2.4857344E7,0E0,6.331405E7,2.702304E6,9.56096E7,1.129344E6,7.45742E8,1.452599E8,1.0448973E8,5.9624E6,1.4647322E8,3.045168E7,2.241913E6,4.78879E5,2.5888737E9,9.261146E7,1.0502987E7,2.0166096E7,1.5714696E7,5.595525E6,3.1722688E7,4.7208E6,4.522158E8,1.1622989E8,1.5875808E7,5.2186496E7,9.601975E6,2.358186E7,0E0,7.663411E7,0E0,0E0,0E0,0E0,0E0,0E0,0E0,0E0,0E0,0E0,0E0,0E0,0E0,0E0,0E0,0E0,0E0,0E0,0E0,0E0,0E0,0E0,0E0,0E0,0E0,0E0,0E0,0E0,0E0,0E0,0E0,0E0,0E0,0E0,0E0,0E0,0E0,0E0,0E0,0E0,0E0,0E0,0E0,0E0,0E0,0E0,0E0,0E0,0E0,0E0,0E0,0E0,0E0,0E0,0E0,0E0,0E0,0E0,0E0,0E0],"parents":[2147483647,0,0,1,1,2,2,3,3,4,4,5,5,6,6,7,7,8,8,9,9,10,10,11,11,12,12,13,13,14,14,15,15,16,16,17,17,18,18,19,19,20,20,21,21,22,22,23,23,24,24,25,25,26,26,27,27,28,28,29,29,30,30,31,31,32,32,33,33,35,35,36,36,37,37,38,38,39,39,40,40,41,41,42,42,43,43,44,44,45,45,46,46,47,47,48,48,49,49,50,50,51,51,52,52,53,53,54,54,55,55,56,56,57,57,58,58,59,59,60,60,62,62],"right_children":[2,4,6,8,10,12,14,16,18,20,22,24,26,28,30,32,34,36,38,40,42,44,46,48,50,52,54,56,58,60,62,64,66,68,-1,70,72,74,76,78,80,82,84,86,88,90,92,94,96,98,100,102,104,106,108,110,112,114,116,118,120,-1,122,-1,-1,-1,-1,-1,-1,-1,-1,-1,-1,-1,-1,-1,-1,-1,-1,-1,-1,-1,-1,-1,-1,-1,-1,-1,-1,-1,-1,-1,-1,-1,-1,-1,-1,-1,-1,-1,-1,-1,-1,-1,-1,-1,-1,-1,-1,-1,-1,-1,-1,-1,-1,-1,-1,-1,-1,-1,-1,-1,-1],"split_conditions":[6.82E0,6.14E0,7.52E0,5.5E-1,1E0,1E0,8.08E0,4.9E0,7.1E-1,1E0,1E0,1E0,4.39E0,1E0,5.76E1,4.41E0,1E0,1E0,1E0,1E0,1E0,1E0,1E0,1E0,7.12E0,5.91E1,1E0,1E0,4.76E0,5.63E1,5.2E-1,1E0,1E0,1E0,-1.0848151E2,1E0,7E-1,1.13E0,9.7E-1,1E0,1E0,1E0,4.04E0,1E0,1.02E0,1E0,3.95E0,1E0,7.03E0,4.15E0,1E0,1E0,5.8E1,7.16E0,6.21E1,1E0,1E0,6.04E1,2.05E0,1E0,1E0,-3.3499155E2,1E0,-1.0262038E2,-1.1283075E2,-9.7203026E1,-8.385571E1,-7.182128E1,-9.531362E1,-5.724013E1,-4.3546166E0,-1.0066695E2,-8.118545E1,-2.7623388E1,2.8198538E2,-7.996528E1,-1.2297201E2,1.8992424E1,9.8678246E1,1.742783E2,3.7251157E2,3.8830002E2,-1.0304975E1,1.1146909E2,1.8357663E2,2.3589261E2,-6.953756E1,7.780054E1,1.5058444E2,-3.039187E1,2.2686522E1,2.2603703E1,6.878261E1,2.9379208E2,7.9301994E1,5.278063E1,1.1764591E2,-5.0362583E1,1.7842375E1,7.75718E1,1.5962584E2,5.4888775E1,-9.816786E0,-4.7995895E1,1.4607691E1,5.0808887E1,1.150617E2,1.8081477E2,1.6733807E1,2.4768486E2,3.7755298E2,4.833215E2,3.2602716E2,3.54198E1,1.3328865E2,2.099761E2,-6.2158478E1,-2.4059033E2,6.671865E1,2.2866946E2,-9.869317E1,3.5303207E2,4.079271E2],"split_indices":[4,4,4,0,22,18,4,3,0,16,13,15,5,15,1,3,14,14,15,21,12,12,7,13,4,2,10,19,5,1,0,17,21,18,0,21,0,0,0,19,10,13,5,15,0,9,5,14,4,5,22,15,1,4,2,20,14,1,0,12,12,0,7,0,0,0,0,0,0,0,0,0,0,0,0,0,0,0,0,0,0,0,0,0,0,0,0,0,0,0,0,0,0,0,0,0,0,0,0,0,0,0,0,0,0,0,0,0,0,0,0,0,0,0,0,0,0,0,0,0,0,0,0],"split_type":[0,0,0,0,0,0,0,0,0,0,0,0,0,0,0,0,0,0,0,0,0,0,0,0,0,0,0,0,0,0,0,0,0,0,0,0,0,0,0,0,0,0,0,0,0,0,0,0,0,0,0,0,0,0,0,0,0,0,0,0,0,0,0,0,0,0,0,0,0,0,0,0,0,0,0,0,0,0,0,0,0,0,0,0,0,0,0,0,0,0,0,0,0,0,0,0,0,0,0,0,0,0,0,0,0,0,0,0,0,0,0,0,0,0,0,0,0,0,0,0,0,0,0],"sum_hessian":[5.394E4,4.4767E4,9.173E3,3.2966E4,1.1801E4,5.766E3,3.407E3,2.2208E4,1.0758E4,1.1135E4,6.66E2,4.476E3,1.29E3,1.883E3,1.524E3,1.7039E4,5.169E3,4.952E3,5.806E3,1.0971E4,1.64E2,6.14E2,5.2E1,3.907E3,5.69E2,5.99E2,6.91E2,1.647E3,2.36E2,1.9E1,1.505E3,7.403E3,9.636E3,4.927E3,2.42E2,4.582E3,3.7E2,5.485E3,3.21E2,1.0706E4,2.65E2,1.03E2,6.1E1,3.74E2,2.4E2,3E1,2.2E1,2.982E3,9.25E2,2.59E2,3.1E2,4.51E2,1.48E2,5.8E2,1.11E2,1.428E3,2.19E2,9.1E1,1.45E2,3E0,1.6E1,1E0,1.504E3,6.292E3,1.111E3,8.465E3,1.171E3,4.414E3,5.13E2,4.343E3,2.39E2,1.78E2,1.92E2,5.476E3,9E0,3.12E2,9E0,9.364E3,1.342E3,2.2E2,4.5E1,9.6E1,7E0,3.5E1,2.6E1,3.58E2,1.6E1,1.1E2,1.3E2,1.6E1,1.4E1,4E0,1.8E1,2.228E3,7.54E2,3.68E2,5.57E2,2.4E1,2.35E2,2.76E2,3.4E1,4.1E2,4.1E1,1.5E1,1.33E2,9.4E1,4.86E2,1.09E2,2E0,1.062E3,3.66E2,1.26E2,9.3E1,2.3E1,6.8E1,1.38E2,7E0,2E0,1E0,1.4E1,2E0,1.093E3,4.11E2],"tree_param":{"num_deleted":"0","num_feature":"23","num_nodes":"123","size_leaf_vector":"1"}},{"base_weights":[9.9248487E-1,-4.488545E2,1.7998384E3,-7.1830927E2,2.8349673E2,1.3029459E3,2.8759104E3,-8.7914996E2,-4.7685107E2,2.2121584E2,1.4059258E3,9.133038E2,1.7698268E3,2.152004E3,3.0645999E3,-9.072532E2,-7.865654E2,-5.9527423E2,-3.3264066E2,1.936307E2,2.28458E3,8.53759E2,1.6613744E3,8.365969E2,2.7382136E3,1.5891112E3,2.7900117E3,2.4190396E3,1.2370627E3,2.9344346E3,3.7126533E3,-8.965685E2,-1.0415051E2,-7.7830005E2,-1.0810274E2,-5.9884766E2,3.625271E3,-2.8102518E2,-5.7591064E2,1.6087462E2,1.6603417E3,2.8811084E3,1.1623059E3,7.0792053E2,1.698298E3,1.982338E3,1.084966E3,7.178566E2,2.2059482E3,2.4311965E3,4.796476E3,1.4520762E3,3.4009897E3,2.5412268E3,5.9536265E3,2.6721287E3,8.395072E2,3.6805182E2,1.5284792E3,2.823864E3,4.0436768E3,3.5421802E3,4.998776E3,-9.902468E1,-8.8067955E1,-7.617261E1,-9.340727E1,-5.8443012E1,-1.1385369E2,5.180175E2,3.436417E1,-1.6216105E1,-4.9157303E1,-6.3018646E1,-4.740875E1,8.100587E0,7.534606E1,1.9055203E2,8.694957E0,3.162734E2,-1.3010368E1,9.984213E1,1.4163977E2,7.907148E1,-4.3429733E1,1.7664299E2,-7.063306E0,2.0860172E2,-8.804512E1,7.695358E1,1.4295416E2,5.314519E1,1.541944E2,2.3207393E2,-3.4035432E0,1.8662402E2,3.889894E2,1.3437769E2,4.9074716E2,1.1084142E2,2.184752E2,3.793712E2,1.4411931E2,2.8346606E2,1.0567477E2,3.245443E2,6.285739E2,3.1005032E2,1.582985E2,8.136068E0,1.16091484E2,5.5667103E1,-2.2695549E2,1.22946815E2,1.9576115E2,2.2914949E2,3.1789337E2,-3.18242E2,4.0954605E2,3.112463E2,4.0635626E2,2.2649663E2,5.3200916E2],"categories":[],"categories_nodes":[],"categories_segments":[],"categories_sizes":[],"default_left":[0,0,0,0,0,0,0,0,0,0,0,0,0,0,0,0,0,0,0,0,0,0,0,0,0,0,0,0,0,0,0,0,0,0,0,0,0,0,0,0,0,0,0,0,0,0,0,0,0,0,0,0,0,0,0,0,0,0,0,0,0,0,0,0,0,0,0,0,0,0,0,0,0,0,0,0,0,0,0,0,0,0,0,0,0,0,0,0,0,0,0,0,0,0,0,0,0,0,0,0,0,0,0,0,0,0,0,0,0,0,0,0,0,0,0,0,0,0,0,0,0,0,0],"id":12,"left_children":[1,3,5,7,9,11,13,15,17,19,21,23,25,27,29,31,33,35,37,39,41,43,45,47,49,51,53,55,57,59,61,63,-1,65,-1,67,69,71,73,75,77,79,81,83,85,87,89,91,93,95,97,99,101,103,105,107,109,111,113,115,117,119,121,-1,-1,-1,-1,-1,-1,-1,-1,-1,-1,-1,-1,-1,-1,-1,-1,-1,-1,-1,-1,-1,-1,-1,-1,-1,-1,-1,-1,-1,-1,-1,-1,-1,-1,-1,-1,-1,-1,-1,-1,-1,-1,-1,-1,-1,-1,-1,-1,-1,-1,-1,-1,-1,-1,-1,-1,-1,-1,-1,-1],"loss_changes":[4.365015E10,8.5154304E9,5.7661153E9,1.2246702E9,8.110865E8,1.341655E9,4.589179E8,4.854579E7,2.1522227E8,6.2554374E8,8.462221E7,5.614213E8,6.146591E8,1.6998733E8,2.1694669E8,1.9890176E7,9.906432E6,1.0661197E8,7.128461E7,5.211994E8,9.372416E7,2.2815152E7,7.481178E7,6.270172E8,9.071014E7,7.039314E8,3.8154854E8,2.1642675E8,4.0462976E7,2.6503168E8,8.051763E7,1.9152896E7,0E0,1.0387712E7,0E0,5.3179136E7,2.8835592E7,1.1744512E8,5.200128E6,5.024794E8,9.12599E7,8.012678E7,7.51208E5,1.6231E7,3.499336E6,8.078854E7,1.5312048E7,5.45892E8,7.927514E7,1.1058688E8,1.07024E6,6.663393E8,1.4846387E8,2.012992E8,1.1979136E7,2.1484237E8,1.8668448E7,2.2158536E7,1.311936E7,3.807908E8,8.862029E7,7.674726E7,3.1870976E7,0E0,0E0,0E0,0E0,0E0,0E0,0E0,0E0,0E0,0E0,0E0,0E0,0E0,0E0,0E0,0E0,0E0,0E0,0E0,0E0,0E0,0E0,0E0,0E0,0E0,0E0,0E0,0E0,0E0,0E0,0E0,0E0,0E0,0E0,0E0,0E0,0E0,0E0,0E0,0E0,0E0,0E0,0E0,0E0,0E0,0E0,0E0,0E0,0E0,0E0,0E0,0E0,0E0,0E0,0E0,0E0,0E0,0E0,0E0,0E0],"parents":[2147483647,0,0,1,1,2,2,3,3,4,4,5,5,6,6,7,7,8,8,9,9,10,10,11,11,12,12,13,13,14,14,15,15,16,16,17,17,18,18,19,19,20,20,21,21,22,22,23,23,24,24,25,25,26,26,27,27,28,28,29,29,30,30,31,31,33,33,35,35,36,36,37,37,38,38,39,39,40,40,41,41,42,42,43,43,44,44,45,45,46,46,47,47,48,48,49,49,50,50,51,51,52,52,53,53,54,54,55,55,56,56,57,57,58,58,59,59,60,60,61,61,62,62],"right_children":[2,4,6,8,10,12,14,16,18,20,22,24,26,28,30,32,34,36,38,40,42,44,46,48,50,52,54,56,58,60,62,64,-1,66,-1,68,70,72,74,76,78,80,82,84,86,88,90,92,94,96,98,100,102,104,106,108,110,112,114,116,118,120,122,-1,-1,-1,-1,-1,-1,-1,-1,-1,-1,-1,-1,-1,-1,-1,-1,-1,-1,-1,-1,-1,-1,-1,-1,-1,-1,-1,-1,-1,-1,-1,-1,-1,-1,-1,-1,-1,-1,-1,-1,-1,-1,-1,-1,-1,-1,-1,-1,-1,-1,-1,-1,-1,-1,-1,-1,-1,-1,-1,-1],"split_conditions":[6.7E0,5.99E0,7.52E0,5.1E-1,1E0,7.07E0,4.72E0,4.76E0,5.65E0,1E0,1.01E0,1E0,1E0,1E0,1E0,1E0,1E0,1.16E0,1E0,1E0,1E0,1E0,1E0,1E0,1E0,1E0,1E0,1E0,6.01E1,1E0,1E0,4.27E0,-1.0415051E2,1E0,-1.0810274E2,1E0,3.94E0,1E0,1E0,1E0,1E0,1E0,4.01E0,1E0,6.56E0,1E0,1E0,1E0,1E0,1E0,4.06E0,1E0,1E0,1E0,1.44E0,1E0,6.03E1,4.66E0,1E0,8.08E0,5.2E-1,5E0,1.7E0,-9.902468E1,-8.8067955E1,-7.617261E1,-9.340727E1,-5.8443012E1,-1.1385369E2,5.180175E2,3.436417E1,-1.6216105E1,-4.9157303E1,-6.3018646E1,-4.740875E1,8.100587E0,7.534606E1,1.9055203E2,8.694957E0,3.162734E2,-1.3010368E1,9.984213E1,1.4163977E2,7.907148E1,-4.3429733E1,1.7664299E2,-7.063306E0,2.0860172E2,-8.804512E1,7.695358E1,1.4295416E2,5.314519E1,1.541944E2,2.3207393E2,-3.4035432E0,1.8662402E2,3.889894E2,1.3437769E2,4.9074716E2,1.1084142E2,2.184752E2,3.793712E2,1.4411931E2,2.8346606E2,1.0567477E2,3.245443E2,6.285739E2,3.1005032E2,1.582985E2,8.136068E0,1.16091484E2,5.5667103E1,-2.2695549E2,1.22946815E2,1.9576115E2,2.2914949E2,3.1789337E2,-3.18242E2,4.0954605E2,3.112463E2,4.0635626E2,2.2649663E2,5.3200916E2],"split_indices":[4,4,4,0,22,4,5,3,4,16,0,21,19,14,20,14,15,0,18,21,12,10,12,22,10,22,10,15,1,19,12,3,0,18,0,15,3,17,7,19,13,13,5,14,3,15,7,19,14,11,5,20,15,15,0,13,1,5,7,4,0,5,0,0,0,0,0,0,0,0,0,0,0,0,0,0,0,0,0,0,0,0,0,0,0,0,0,0,0,0,0,0,0,0,0,0,0,0,0,0,0,0,0,0,0,0,0,0,0,0,0,0,0,0,0,0,0,0,0,0,0,0,0],"split_type":[0,0,0,0,0,0,0,0,0,0,0,0,0,0,0,0,0,0,0,0,0,0,0,0,0,0,0,0,0,0,0,0,0,0,0,0,0,0,0,0,0,0,0,0,0,0,0,0,0,0,0,0,0,0,0,0,0,0,0,0,0,0,0,0,0,0,0,0,0,0,0,0,0,0,0,0,0,0,0,0,0,0,0,0,0,0,0,0,0,0,0,0,0,0,0,0,0,0,0,0,0,0,0,0,0,0,0,0,0,0,0,0,0,0,0,0,0,0,0,0,0,0,0],"sum_hessian":[5.394E4,4.315E4,1.079E4,3.1544E4,1.1606E4,7.383E3,3.407E3,1.8931E4,1.2613E4,1.0997E4,6.09E2,4.026E3,3.357E3,7.07E2,2.7E3,1.4516E4,4.415E3,6.924E3,5.689E3,1.0853E4,1.44E2,1.94E2,4.15E2,3.865E3,1.61E2,2.854E3,5.03E2,5.46E2,1.61E2,2.253E3,4.47E2,1.3453E4,1.063E3,4.298E3,1.17E2,6.919E3,5E0,4.695E3,9.94E2,1.0617E4,2.36E2,9.3E1,5.1E1,1.67E2,2.7E1,2.65E2,1.5E2,3.558E3,3.07E2,1.42E2,1.9E1,2.655E3,1.99E2,4.68E2,3.5E1,4.7E2,7.6E1,4.1E1,1.2E2,2.052E3,2.01E2,3.98E2,4.9E1,1.942E3,1.1511E4,3.89E3,4.08E2,6.741E3,1.78E2,3E0,2E0,3.002E3,1.693E3,6.45E2,3.49E2,9.357E3,1.26E3,2.04E2,3.2E1,8.5E1,8E0,3.4E1,1.7E1,1.56E2,1.1E1,2.6E1,1E0,2.56E2,9E0,8E1,7E1,2.903E3,6.55E2,2.92E2,1.5E1,1.04E2,3.8E1,1E0,1.8E1,1.809E3,8.46E2,1.65E2,3.4E1,3.9E2,7.8E1,5E0,3E1,3.36E2,1.34E2,2.3E1,5.3E1,3.9E1,2E0,7.3E1,4.7E1,8.24E2,1.228E3,1E0,2E2,2.22E2,1.76E2,6E0,4.3E1],"tree_param":{"num_deleted":"0","num_feature":"23","num_nodes":"123","size_leaf_vector":"1"}},{"base_weights":[1.0358979E0,-5.6152563E2,1.1722168E3,-7.4334973E2,-2.010605E2,6.42959E2,2.2057996E3,-8.0171857E2,-5.860197E2,-3.1396738E2,5.293586E1,8.325076E2,1.08245895E2,1.7133839E3,2.700468E3,-8.3768365E2,-7.6209845E2,-5.9785126E2,-1.5858572E2,-4.009911E2,-1.6316916E2,-1.1591811E2,2.728063E2,9.556138E2,-7.385243E1,3.4776352E1,5.900168E2,1.5406602E3,2.7424607E3,2.8282947E3,2.0992605E3,-8.227923E2,-9.231643E2,-7.394964E2,-8.436057E2,-5.740555E2,-8.2449744E2,-5.1772015E1,-4.731291E1,-3.6731335E2,-7.200461E2,-1.1099914E2,-4.523513E2,-5.971294E1,-5.9578864E2,4.1815213E2,-1.0704258E2,1.1652269E3,2.2170998E2,-4.4272488E2,1.2624988E2,-4.92104E1,2.2950127E2,5.5799744E2,4.6519186E2,1.2316216E3,2.2553176E3,2.5454424E3,5.67561E3,3.029777E3,2.415284E3,1.2388271E3,2.5920217E3,-9.045932E1,-8.027508E1,-9.10852E1,-9.847275E1,-7.210881E1,-9.037188E1,1.2342133E1,-8.4420525E1,-5.9438473E1,-2.4197687E1,-8.44067E1,-6.950781E1,1.5182184E1,-3.0540146E1,-3.21067E1,-6.239217E1,-7.062137E1,-1.4131181E2,1.3897832E-1,-3.4733635E1,-8.183044E1,-4.2214466E1,-9.1152155E-1,-5.113556E1,-4.5641094E1,-9.275621E1,4.8052643E1,-8.686913E1,-8.063424E0,-6.2074078E1,1.32557E2,-2.6195349E1,5.572303E0,5.815572E1,-7.189947E1,-1.7455923E1,-6.381961E0,3.4882732E1,-1.6055806E0,-4.998276E1,2.7744629E1,-1.678775E1,6.1677456E1,-9.113242E0,1.04590454E2,3.056369E2,2.492327E2,3.714592E1,2.2766385E2,4.914484E2,5.878703E2,2.1589941E2,3.392066E2,2.5521683E2,2.0969165E2,3.3521252E2,1.4467776E2,3.8592434E1,2.1893584E2,3.2727655E2],"categories":[],"categories_nodes":[],"categories_segments":[],"categories_sizes":[],"default_left":[0,0,0,0,0,0,0,0,0,0,0,0,0,0,0,0,0,0,0,0,0,1,0,0,0,0,0,0,0,0,0,0,0,0,0,0,0,0,0,0,0,0,0,0,0,0,0,0,0,0,0,0,0,0,0,0,0,0,0,0,0,0,0,0,0,0,0,0,0,0,0,0,0,0,0,0,0,0,0,0,0,0,0,0,0,0,0,0,0,0,0,0,0,0,0,0,0,0,0,0,0,0,0,0,0,0,0,0,0,0,0,0,0,0,0,0,0,0,0,0,0,0,0],"id":13,"left_children":[1,3,5,7,9,11,13,15,17,19,21,23,25,27,29,31,33,35,37,39,41,43,45,47,49,51,53,55,57,59,61,63,65,67,69,71,73,75,-1,77,79,81,83,85,87,89,91,93,95,97,99,101,103,105,-1,107,109,111,113,115,117,119,121,-1,-1,-1,-1,-1,-1,-1,-1,-1,-1,-1,-1,-1,-1,-1,-1,-1,-1,-1,-1,-1,-1,-1,-1,-1,-1,-1,-1,-1,-1,-1,-1,-1,-1,-1,-1,-1,-1,-1,-1,-1,-1,-1,-1,-1,-1,-1,-1,-1,-1,-1,-1,-1,-1,-1,-1,-1,-1,-1,-1],"loss_changes":[3.5540296E10,2.3881083E9,9.573278E9,2.2195507E8,3.5043235E8,1.1732874E9,1.4390866E9,2.4531968E7,3.3070336E7,1.1094208E8,1.3966251E8,9.537316E8,1.0726322E8,5.2421427E8,2.2115533E8,1.101312E7,1.4880256E7,3.394099E7,5.955868E6,5.736128E7,4.6673104E7,5.735915E7,9.0257E7,1.157357E9,7.556581E7,4.3039496E7,4.9558064E7,5.599652E8,2.3173171E8,1.952256E8,2.1811072E8,1.2202496E7,1.3696E5,1.9291392E7,1.159296E6,3.886272E7,9.4304E5,6.965778E6,0E0,5.739117E7,3.900912E6,6.9724904E7,4.8832E6,4.3551424E7,9.888584E6,9.529184E7,6.0953065E6,1.3397396E9,9.98958E7,2.6545472E7,2.81129E7,2.7466692E7,1.5155076E7,1.5279632E7,0E0,6.003607E8,3.419799E8,2.4417152E8,5.87712E6,2.737316E8,2.3247309E8,3.3495104E7,8.356557E7,0E0,0E0,0E0,0E0,0E0,0E0,0E0,0E0,0E0,0E0,0E0,0E0,0E0,0E0,0E0,0E0,0E0,0E0,0E0,0E0,0E0,0E0,0E0,0E0,0E0,0E0,0E0,0E0,0E0,0E0,0E0,0E0,0E0,0E0,0E0,0E0,0E0,0E0,0E0,0E0,0E0,0E0,0E0,0E0,0E0,0E0,0E0,0E0,0E0,0E0,0E0,0E0,0E0,0E0,0E0,0E0,0E0,0E0,0E0,0E0],"parents":[2147483647,0,0,1,1,2,2,3,3,4,4,5,5,6,6,7,7,8,8,9,9,10,10,11,11,12,12,13,13,14,14,15,15,16,16,17,17,18,18,19,19,20,20,21,21,22,22,23,23,24,24,25,25,26,26,27,27,28,28,29,29,30,30,31,31,32,32,33,33,34,34,35,35,36,36,37,37,39,39,40,40,41,41,42,42,43,43,44,44,45,45,46,46,47,47,48,48,49,49,50,50,51,51,52,52,53,53,55,55,56,56,57,57,58,58,59,59,60,60,61,61,62,62],"right_children":[2,4,6,8,10,12,14,16,18,20,22,24,26,28,30,32,34,36,38,40,42,44,46,48,50,52,54,56,58,60,62,64,66,68,70,72,74,76,-1,78,80,82,84,86,88,90,92,94,96,98,100,102,104,106,-1,108,110,112,114,116,118,120,122,-1,-1,-1,-1,-1,-1,-1,-1,-1,-1,-1,-1,-1,-1,-1,-1,-1,-1,-1,-1,-1,-1,-1,-1,-1,-1,-1,-1,-1,-1,-1,-1,-1,-1,-1,-1,-1,-1,-1,-1,-1,-1,-1,-1,-1,-1,-1,-1,-1,-1,-1,-1,-1,-1,-1,-1,-1,-1,-1,-1],"split_conditions":[1.01E0,6E-1,4.48E0,3.09E0,3.8E0,1E0,7.59E0,4.47E0,1E0,1E0,6.27E0,1E0,1.28E0,1E0,1E0,1E0,1E0,1E0,1E0,1E0,1E0,6.49E1,1E0,1E0,6.64E0,1E0,2.22E0,1E0,1E0,1E0,5E0,3E-1,1E0,1E0,3E-1,1E0,1E0,1E0,-4.731291E1,1E0,9.4E-1,1E0,7E-1,1E0,6.69E1,1E0,1E0,1E0,1.21E0,1E0,4.24E0,1E0,1E0,1E0,4.6519186E2,1E0,1E0,1E0,5.91E1,1E0,2.14E0,1E0,8.41E0,-9.045932E1,-8.027508E1,-9.10852E1,-9.847275E1,-7.210881E1,-9.037188E1,1.2342133E1,-8.4420525E1,-5.9438473E1,-2.4197687E1,-8.44067E1,-6.950781E1,1.5182184E1,-3.0540146E1,-3.21067E1,-6.239217E1,-7.062137E1,-1.4131181E2,1.3897832E-1,-3.4733635E1,-8.183044E1,-4.2214466E1,-9.1152155E-1,-5.113556E1,-4.5641094E1,-9.275621E1,4.8052643E1,-8.686913E1,-8.063424E0,-6.2074078E1,1.32557E2,-2.6195349E1,5.572303E0,5.815572E1,-7.189947E1,-1.7455923E1,-6.381961E0,3.4882732E1,-1.6055806E0,-4.998276E1,2.7744629E1,-1.678775E1,6.1677456E1,-9.113242E0,1.04590454E2,3.056369E2,2.492327E2,3.714592E1,2.2766385E2,4.914484E2,5.878703E2,2.1589941E2,3.392066E2,2.5521683E2,2.0969165E2,3.3521252E2,1.4467776E2,3.8592434E1,2.1893584E2,3.2727655E2],"split_indices":[0,0,5,5,5,18,4,3,16,7,4,14,0,19,15,17,17,13,13,14,18,1,18,13,4,7,0,20,10,14,5,0,13,18,0,21,21,12,0,13,0,17,0,14,1,15,14,15,0,17,5,15,14,15,0,22,15,11,2,13,0,18,3,0,0,0,0,0,0,0,0,0,0,0,0,0,0,0,0,0,0,0,0,0,0,0,0,0,0,0,0,0,0,0,0,0,0,0,0,0,0,0,0,0,0,0,0,0,0,0,0,0,0,0,0,0,0,0,0,0,0,0,0],"split_type":[0,0,0,0,0,0,0,0,0,0,0,0,0,0,0,0,0,0,0,0,0,0,0,0,0,0,0,0,0,0,0,0,0,0,0,0,0,0,0,0,0,0,0,0,0,0,0,0,0,0,0,0,0,0,0,0,0,0,0,0,0,0,0,0,0,0,0,0,0,0,0,0,0,0,0,0,0,0,0,0,0,0,0,0,0,0,0,0,0,0,0,0,0,0,0,0,0,0,0,0,0,0,0,0,0,0,0,0,0,0,0,0,0,0,0,0,0,0,0,0,0,0,0],"sum_hessian":[5.394E4,3.6438E4,1.7502E4,2.422E4,1.2218E4,1.1576E4,5.926E3,1.7663E4,6.557E3,8.458E3,3.76E3,8.546E3,3.03E3,2.972E3,2.954E3,9.248E3,8.415E3,6.38E3,1.77E2,5.362E3,3.096E3,2.127E3,1.633E3,7.524E3,1.022E3,2.63E3,4E2,2.547E3,4.25E2,2.433E3,5.21E2,7.885E3,1.363E3,6.596E3,1.819E3,5.777E3,6.03E2,1.33E2,4.4E1,4.852E3,5.1E2,2.624E3,4.72E2,1.905E3,2.22E2,1.181E3,4.52E2,5.852E3,1.672E3,3.59E2,6.63E2,1.838E3,7.92E2,3.98E2,2E0,1.78E3,7.67E2,4E2,2.5E1,1.631E3,8.02E2,1.91E2,3.3E2,1.543E3,6.342E3,1.149E3,2.14E2,5.936E3,6.6E2,1E0,1.818E3,5.443E3,3.34E2,5.19E2,8.4E1,7.4E1,5.9E1,4.113E3,7.39E2,5.02E2,8E0,1.779E3,8.45E2,3.4E1,4.38E2,1.714E3,1.91E2,1.58E2,6.4E1,1.127E3,5.4E1,4.31E2,2.1E1,5.261E3,5.91E2,1.145E3,5.27E2,1.76E2,1.83E2,3.58E2,3.05E2,1.713E3,1.25E2,7.07E2,8.5E1,3.65E2,3.3E1,1.617E3,1.63E2,6.81E2,8.6E1,3.61E2,3.9E1,2.3E1,2E0,9.24E2,7.07E2,6.01E2,2.01E2,1.53E2,3.8E1,2.1E2,1.2E2],"tree_param":{"num_deleted":"0","num_feature":"23","num_nodes":"123","size_leaf_vector":"1"}},{"base_weights":[9.88185E-1,-3.8947308E2,1.3882329E3,-6.129643E2,1.1777365E2,8.914123E2,2.1476428E3,-7.1799426E2,-4.365517E2,-1.3960008E2,3.2497675E2,8.0131287E2,2.0728535E3,1.7854545E3,2.573491E3,-7.4836676E2,-6.727401E2,-5.1691016E2,-3.42142E2,-1.4475992E2,4.8182E3,4.7554068E2,-7.208834E1,7.333013E2,2.6091846E3,2.240039E3,7.654083E2,2.0011632E3,9.810464E2,2.6423303E3,9.099626E2,-7.6293146E2,-6.6456036E2,-6.6414935E2,-9.0587395E1,-5.061411E2,-9.939197E1,-3.0834723E2,-6.46219E2,-1.0355951E2,-5.1381024E2,5.313121E2,1.1717983E2,5.5668756E2,-4.2520096E2,-4.7860176E1,-5.5304944E2,6.8419336E2,3.2832854E3,3.1994644E3,1.7872618E3,2.388415E3,3.5873215E2,5.3658606E2,1.8329788E2,1.7493807E3,2.9573618E3,3.6604788E2,1.0988708E3,2.490108E3,3.0852402E3,1.2995998E2,1.9605077E3,-7.764593E1,-6.3178066E1,-7.735172E1,-6.311337E1,-6.520533E1,-8.237127E1,-4.8976173E1,-8.324196E1,-3.3502075E1,1.9500532E1,-7.9085655E1,-6.164416E1,-1.2392295E1,8.785569E1,-4.61042E1,-1.0979247E2,6.971447E1,-7.325499E0,-6.712095E1,-1.8956013E1,-1.7553736E0,-4.2201935E1,-7.2757484E1,-4.5987236E1,5.1409332E1,1.5233075E2,2.9255334E2,5.448187E2,3.5263593E2,8.060955E1,8.271107E1,2.7500217E2,1.9095448E2,3.1990906E2,-1.952629E0,1.268505E2,-2.005835E1,7.258931E1,1.4903355E2,3.172794E2,3.49581E2,1.0554693E2,-6.62688E1,5.5319794E1,1.2325954E2,4.435912E1,2.3130687E2,3.2275336E2,3.353577E2,1.9558876E2,-6.343976E1,3.3272656E2,8.397083E1,2.6062244E2],"categories":[],"categories_nodes":[],"categories_segments":[],"categories_sizes":[],"default_left":[0,0,0,0,0,0,0,0,0,0,0,0,0,0,1,0,0,0,0,0,0,0,0,0,0,0,0,0,0,0,0,0,0,0,0,0,0,0,0,0,0,0,0,0,0,0,0,0,0,0,0,0,0,0,0,0,0,0,0,0,0,0,0,0,0,0,0,0,0,0,0,0,0,0,0,0,0,0,0,0,0,0,0,0,0,0,0,0,0,0,0,0,0,0,0,0,0,0,0,0,0,0,0,0,0,0,0,0,0,0,0,0,0,0,0,0,0],"id":14,"left_children":[1,3,5,7,9,11,13,15,17,19,21,23,25,27,29,31,33,35,37,39,41,43,45,47,49,51,53,55,57,59,61,63,65,67,-1,69,-1,71,73,75,77,-1,-1,79,81,83,85,87,89,91,93,95,97,99,-1,101,103,105,107,109,111,113,115,-1,-1,-1,-1,-1,-1,-1,-1,-1,-1,-1,-1,-1,-1,-1,-1,-1,-1,-1,-1,-1,-1,-1,-1,-1,-1,-1,-1,-1,-1,-1,-1,-1,-1,-1,-1,-1,-1,-1,-1,-1,-1,-1,-1,-1,-1,-1,-1,-1,-1,-1,-1,-1,-1],"loss_changes":[2.921851E10,4.772066E9,4.468224E9,5.4109286E8,6.866515E8,7.609262E8,7.180063E8,2.4669184E7,8.25705E7,1.4761197E8,4.2647123E8,8.167291E8,1.0910874E8,4.379044E8,2.4391987E8,1.2858368E7,1.4148864E7,2.9753344E7,5.136685E7,8.719323E7,4.602176E6,3.7827046E8,2.283633E7,8.014431E8,1.1120614E8,1.2447718E8,1.3429192E7,4.758533E8,3.8582304E7,1.3154202E8,7.1035464E7,1.604864E7,5.444736E6,1.3179904E7,0E0,3.0385792E7,0E0,6.07248E7,1.67024E6,1.0336512E8,1.7247696E7,0E0,0E0,4.19888E8,2.4683784E7,2.1185992E7,1.194014E6,8.981514E8,7.777549E7,1.0590835E8,9.293814E7,1.5538586E8,1.1725164E7,7.12317E6,0E0,5.793367E8,4.212997E8,1.730906E7,3.897293E7,1.938473E8,1.5223706E8,1.26748936E8,2.458912E7,0E0,0E0,0E0,0E0,0E0,0E0,0E0,0E0,0E0,0E0,0E0,0E0,0E0,0E0,0E0,0E0,0E0,0E0,0E0,0E0,0E0,0E0,0E0,0E0,0E0,0E0,0E0,0E0,0E0,0E0,0E0,0E0,0E0,0E0,0E0,0E0,0E0,0E0,0E0,0E0,0E0,0E0,0E0,0E0,0E0,0E0,0E0,0E0,0E0,0E0,0E0,0E0,0E0,0E0],"parents":[2147483647,0,0,1,1,2,2,3,3,4,4,5,5,6,6,7,7,8,8,9,9,10,10,11,11,12,12,13,13,14,14,15,15,16,16,17,17,18,18,19,19,20,20,21,21,22,22,23,23,24,24,25,25,26,26,27,27,28,28,29,29,30,30,31,31,32,32,33,33,35,35,37,37,38,38,39,39,40,40,43,43,44,44,45,45,46,46,47,47,48,48,49,49,50,50,51,51,52,52,53,53,55,55,56,56,57,57,58,58,59,59,60,60,61,61,62,62],"right_children":[2,4,6,8,10,12,14,16,18,20,22,24,26,28,30,32,34,36,38,40,42,44,46,48,50,52,54,56,58,60,62,64,66,68,-1,70,-1,72,74,76,78,-1,-1,80,82,84,86,88,90,92,94,96,98,100,-1,102,104,106,108,110,112,114,116,-1,-1,-1,-1,-1,-1,-1,-1,-1,-1,-1,-1,-1,-1,-1,-1,-1,-1,-1,-1,-1,-1,-1,-1,-1,-1,-1,-1,-1,-1,-1,-1,-1,-1,-1,-1,-1,-1,-1,-1,-1,-1,-1,-1,-1,-1,-1,-1,-1,-1,-1,-1,-1,-1],"split_conditions":[6.63E0,7.3E-1,7.37E0,5.08E0,6.29E0,1E0,2E0,4.56E0,5.43E0,1.52E0,1E0,1E0,1E0,1E0,6.49E1,1E0,1E0,1E0,1E0,1E0,6.29E1,1E0,1E0,1E0,1E0,1E0,1.52E0,1E0,5.98E1,1E0,1E0,1E0,3E-1,1E0,-9.0587395E1,1E0,-9.939197E1,1E0,3.46E0,1E0,1E0,5.313121E2,1.1717983E2,1E0,1E0,1E0,3.99E0,1E0,1E0,1E0,6.89E0,4.27E0,7.27E0,6.01E1,1.8329788E2,1E0,1E0,5.81E1,1E0,1E0,1E0,1E0,6.54E1,-7.764593E1,-6.3178066E1,-7.735172E1,-6.311337E1,-6.520533E1,-8.237127E1,-4.8976173E1,-8.324196E1,-3.3502075E1,1.9500532E1,-7.9085655E1,-6.164416E1,-1.2392295E1,8.785569E1,-4.61042E1,-1.0979247E2,6.971447E1,-7.325499E0,-6.712095E1,-1.8956013E1,-1.7553736E0,-4.2201935E1,-7.2757484E1,-4.5987236E1,5.1409332E1,1.5233075E2,2.9255334E2,5.448187E2,3.5263593E2,8.060955E1,8.271107E1,2.7500217E2,1.9095448E2,3.1990906E2,-1.952629E0,1.268505E2,-2.005835E1,7.258931E1,1.4903355E2,3.172794E2,3.49581E2,1.0554693E2,-6.62688E1,5.5319794E1,1.2325954E2,4.435912E1,2.3130687E2,3.2275336E2,3.353577E2,1.9558876E2,-6.343976E1,3.3272656E2,8.397083E1,2.6062244E2],"split_indices":[4,0,4,3,4,22,0,3,4,0,18,21,13,18,1,21,15,15,14,14,1,14,15,16,12,14,0,12,1,17,18,16,0,14,0,14,0,21,5,21,0,0,0,13,17,14,5,19,10,13,4,5,4,1,0,11,17,1,14,20,15,17,1,0,0,0,0,0,0,0,0,0,0,0,0,0,0,0,0,0,0,0,0,0,0,0,0,0,0,0,0,0,0,0,0,0,0,0,0,0,0,0,0,0,0,0,0,0,0,0,0,0,0,0,0,0,0],"split_type":[0,0,0,0,0,0,0,0,0,0,0,0,0,0,0,0,0,0,0,0,0,0,0,0,0,0,0,0,0,0,0,0,0,0,0,0,0,0,0,0,0,0,0,0,0,0,0,0,0,0,0,0,0,0,0,0,0,0,0,0,0,0,0,0,0,0,0,0,0,0,0,0,0,0,0,0,0,0,0,0,0,0,0,0,0,0,0,0,0,0,0,0,0,0,0,0,0,0,0,0,0,0,0,0,0,0,0,0,0,0,0,0,0,0,0,0,0],"sum_hessian":[5.394E4,4.2093E4,1.1847E4,2.9219E4,1.2874E4,7.163E3,4.684E3,1.8313E4,1.0906E4,5.742E3,7.132E3,6.657E3,5.06E2,2.534E3,2.15E3,1.0949E4,7.364E3,5.889E3,5.017E3,5.737E3,5E0,5.171E3,1.961E3,6.417E3,2.4E2,4.48E2,5.8E1,1.997E3,5.37E2,2.064E3,8.6E1,9.321E3,1.628E3,7.106E3,2.58E2,5.761E3,1.28E2,4.517E3,5E2,5.162E3,5.75E2,4E0,1E0,4.744E3,4.27E2,1.868E3,9.3E1,6.297E3,1.2E2,1.38E2,1.02E2,4.15E2,3.3E1,4.9E1,9E0,1.583E3,4.14E2,8.7E1,4.5E2,1.541E3,5.23E2,5E1,3.6E1,8.445E3,8.76E2,3.77E2,1.251E3,6.61E3,4.96E2,5.488E3,2.73E2,4.29E3,2.27E2,8.1E1,4.19E2,5.058E3,1.04E2,5.29E2,4.6E1,3.879E3,8.65E2,2.08E2,2.19E2,1.729E3,1.39E2,3E1,6.3E1,5.237E3,1.06E3,1.05E2,1.5E1,1.21E2,1.7E1,5.2E1,5E1,2.63E2,1.52E2,2.4E1,9E0,1E1,3.9E1,1.341E3,2.42E2,3.22E2,9.2E1,1.3E1,7.4E1,3.73E2,7.7E1,1.246E3,2.95E2,4.21E2,1.02E2,4.1E1,9E0,1.4E1,2.2E1],"tree_param":{"num_deleted":"0","num_feature":"23","num_nodes":"117","size_leaf_vector":"1"}},{"base_weights":[9.8127866E-1,-2.8309314E2,1.5648978E3,-5.1239374E2,2.973281E2,1.223055E3,2.2010798E3,-6.276538E2,-3.093982E2,2.3893161E2,1.2425366E3,1.390219E3,4.188134E2,2.2385352E3,-6.868813E1,-6.581846E2,-5.321242E2,-4.1514008E2,-2.2549045E2,2.1108414E2,2.052864E3,1.5228201E3,7.536316E2,1.6642955E3,5.618098E2,1.2156342E2,6.4589154E2,2.1755215E3,3.3504456E3,-4.6670096E2,3.4475626E2,-6.499929E2,-8.0232904E2,-5.526113E2,-3.8232147E2,-4.1867657E2,4.3214658E2,-2.0091089E2,-7.0027875E2,1.7558109E2,1.5398375E3,2.6358257E3,9.450445E2,1.7256893E3,1.3707144E2,5.1185095E2,1.04588E3,1.980003E3,2.4836491E2,5.253647E2,2.5254438E3,-1.26402405E2,2.3311229E2,4.541361E2,9.7538464E2,2.0885674E3,3.113622E3,3.5671711E3,1.5509066E3,-1.4512302E3,1.7466638E3,-6.3212593E1,-7.284376E1,-8.2911674E1,-7.461079E1,-5.6325123E1,-2.7813196E1,-4.9014103E1,-3.2760876E1,-4.343321E1,8.762434E0,-1.6129602E1,-5.1185566E1,-6.867949E1,-9.947504E1,9.791823E0,6.908838E1,1.2270483E2,3.0115524E2,2.850347E2,-7.23763E1,7.245236E1,1.2479595E2,1.8568071E2,-3.99266E1,2.5948648E1,-5.254355E1,5.3217205E1,-6.81596E1,5.820896E1,1.0903747E2,2.3011028E2,9.420275E1,-9.356941E0,3.8301994E1,3.5220226E1,8.8889084E1,-1.479541E1,3.0059232E2,-5.819188E0,-1.1252337E2,2.513394E1,-1.5275615E2,3.2749996E1,9.751248E1,5.105639E1,1.16165764E2,1.6142012E2,2.2939969E2,3.1729074E2,-1.5323087E1,3.6550977E2,1.7254451E2,-1.9026834E2,2.6735526E2,-1.9617337E2,2.4851012E2,2.245811E2,3.990367E1],"categories":[],